solver_type L2R_L2LOSS_SVC_DUAL
nr_class 18
label 0 1 2 3 4 5 6 7 8 9 10 11 12 13 14 15 16 17
nr_feature 2604
bias -1
w
0.009034596312389185 -0.0005563822953416041 -0.003943048402975388 0.06896233907633147 -0.02631942504134424 -0.05593319981900408 0.01112702270298825 -0.004315054422211019 0.05318936438064777 -0.06492643932763664 0.02537562509329868 -0.03085016468296742 0.01184802583520752 0.0005794344002748723 -0.05285520441932713 0.01664403959925893 -0.08038529059572647 0.04264371364099521 
0.01413751447110384 0.02027280964435452 0.03922139982304964 0.006965999032893758 0.0006012125242040085 -0.004581298342694484 0.00140966573455207 0.02641000827744866 0.01706705816870879 0.002225749139539996 0.04900089645770551 0.02395087382297467 -0.001922049355605395 0.008547479619568966 0.04135801637299831 0.03614792778097019 0.04481073033260437 -0.01017898533628132 
-0.01590212985470939 0.03063439320671059 -0.01286512631128967 0.01380042578744004 -0.002174466502149793 0.0002475270159895957 -0.02916122513338548 -0.02299977102148114 0.05424992997582088 0.006870991834192345 0.04254252070261302 0.0001565299642653301 -0.01209187879993481 -1.477145496922632e-05 0.04328200256785774 -0.02072603246309494 0.007391602636877249 0.01162786650645941 
-0.03155215459419614 0.03597594444680643 -0.00628201154290696 -0.01364343906817524 0.02160164327325839 0.03288349067401156 0.01428269024811552 0.004658714215319095 0.06893188056707004 0.01260507765532284 -0.04247771837492856 0.003652032178717094 -0.01124732641508886 0.007555372543315139 -0.01858354088586427 -0.006137620734847467 0.05622214344384022 0.0226055228875476 
-0.0321541199766251 0.03479070529117719 -0.01384641911651984 0.02645745506678241 -0.00949452503614113 0.001673799096245104 -0.02408997910843353 0.01285245307764569 0.0182703708584978 0.01615661013832424 0.0459072628511138 0.00380866627778717 -0.02199203185858808 0.00941976491196133 0.02666117101340691 -0.0227862652882797 0.03685576361824878 0.04335758187128712 
-0.004991724135201335 0.02549988045267354 0.0255479057921747 0.01432066346712321 0.02846842994578853 0.01902119754411121 -0.001173653262357128 0.01833030175129802 0.004268278769162442 0.02573589921735619 0.005569857402093224 0.00926159129723299 0.02584886705761721 -0.004916290522697666 -0.02076397472631973 -0.02673309200214329 0.02179482512516377 0.006239759379654864 
-0.05346192906152744 0.02729534911089762 0.005488538787808579 -0.05074553679449772 0.03472615989103445 -0.01072278978662903 0.02577197155746089 -0.00292299620538117 -0.0001048980186287333 0.02448958203956418 0.03127068483921435 0.002304592975607176 0.01020441520412564 0.004995490090591965 0.06981394414218198 0.03236347188900005 0.03338095243914922 -0.01375892843059524 
-0.01404950841714447 -0.03577604397273915 0.001516576348515562 -0.01930784889699171 -0.07161266436679901 -0.01051207899856105 0.001227984172845398 0.007942431022391219 -0.02828966267335847 -0.0007723107382786572 -0.004147170070432418 0.01368250062222106 -0.004201656664528625 0.02293436265570076 -0.0321155748838876 -0.04305640510869682 -0.003783579548272087 0.02442376354358659 
-0.01544338156221193 0.0002258590771875056 0.01644351511497143 0.001808935926076753 0.03567411745025686 -0.005347104049806433 -0.01975195507899419 0.004453319084581647 -0.01191029622361557 0.00887759573989952 -0.02392840241907647 -0.02709191281327874 0.002903716315114032 0.03013837099613227 0.03892307459016951 -0.03352556391475327 -0.04396187790523521 -0.02123927107028343 
-0.04928357020494961 -0.005320093008563274 0.003425938251731283 -0.0632739593593791 0.04334755624652711 -0.0008630447379180246 0.01080298596093739 0.02387436922883559 -0.02523816303448366 -0.02908775833043876 0.06018079147511474 -0.03776423181446723 0.02231375202907729 0.01784344042921187 0.005902947187233274 -0.03273417334879115 0.058591399844736 0.03228697124909181 
-0.05266455726719996 0.0581882840772673 0.01521067350417656 0.01992151855711569 -0.04129417941718388 0.0835473589188869 0.03264974326421502 -0.01292311120699029 -0.006161556790053289 -0.006473151652789974 -0.07216126031221823 0.01396151179383208 -0.01609259245467748 -0.007852405057982136 -0.05286472999512057 -0.01126189122563617 0.01361006207805007 0.01524002903879112 
0.009734127282362568 0.02725801329830081 -0.009490814630499599 -0.04293693355605713 0.04417738945263826 0.03913981707396921 0.01174271239462698 0.0013428313732193 0.02866497265048419 0.02595348268779041 -0.05801534807189147 0.009632949687983563 -0.02291270505620654 -0.02394155218623284 -0.01666204628895387 0.006550016477757123 -0.007258237972320246 -0.03641100568753144 
-0.01855491467752026 -0.01252227635330642 0.02219583472430869 -0.01137933180823983 -0.01606069732072155 -0.01284202914742112 0.02347038517326978 -0.0205154987973346 -0.004594218208201131 -0.01586765115857987 -0.02565428524349934 0.008455882492288009 0.01805022543115162 -0.0267219545586501 -0.00989584073373502 0.01915277416518012 -0.06203740006718104 0.0006120122224938749 
-0.02506577758394247 0.0206940437882398 -0.009329402718225372 0.008315963277317153 0.01920372147035074 -0.02489552135230774 0.001454322629362695 0.05078242510290715 -0.01777609779769564 0.008041346760353838 -0.004445344802188963 -0.009818388435744665 -3.277949023762231e-05 0.002199470111557192 0.02255529949300079 -0.0270231702086496 -0.02554611020497961 -0.009069217734367701 
0.03661702333883163 -0.01266355265418284 -0.02023083606196196 -0.04250003106832324 -0.03388430755518375 -0.00101471625024766 -0.02265252328149567 -0.05675452388660149 -0.00762818469244297 -0.01682476715820529 0.02127300628906684 -0.0240846674770827 -0.01719068752325438 0.007000671189325252 0.02398321332702059 0.02559869515434169 0.03422134024912167 -0.02804646028068845 
-0.01127190124283267 0.03150404340640807 -0.008795769063603819 0.0329146179429924 0.01891532856598051 -0.001318854026355096 0.02276984316252952 -0.003246028751954254 0.008293411251006041 -0.02042875443059731 -0.02514453553293283 0.01639331587322592 0.001181699453055981 -0.04604506193986872 0.01545292567205347 0.01370546808602377 -0.03425223156216996 -0.03190646050864372 
-0.02898547650505184 0.002311449224109776 -0.005241934947004243 0.04018920839558594 0.02992327815869039 -0.009790141793900886 -0.01448661999760834 0.006617960770148668 -0.005471660705815556 -0.02382960423537018 -0.02899556304465612 -0.01876028055840928 -0.02407139896716015 -0.009372226827851578 0.005158641720638791 -0.02273997422214085 -0.04246940965008353 -0.01432320995836273 
0.002619557448174029 -0.004937104684782222 -0.00585000969062699 0.07415171372572754 0.03443452044949052 0.01967214475732479 -0.01085918575277002 -0.0316966971773406 -0.02494836484568374 -0.01284440681613905 0.009693222809482543 -0.02020875664627248 0.004984109104101164 -0.02912280101527078 -0.02986755515587783 -0.03212662112888857 -0.008268825827737088 0.01654453733066534 
-0.004095937741505557 0.04054187368294426 -0.02839170130836463 0.001162805669592301 -0.04280697105015326 0.02128489784158358 -0.01228457965419586 -0.02011366561940634 -0.01190795278764683 0.0142421416129189 0.01675457040554925 -0.01276487774298956 -0.003658704569514729 -0.01464295225672258 -0.003586455847468925 -0.007149264306385641 0.03847551722277109 -0.07194807916060172 
-0.02373206982248979 -0.02222074513156253 -0.009157222415143331 0.05315461720449183 0.01727453235422321 0.01630953578882502 -0.02571814078522651 -0.007691642132285446 0.002456842050788301 -0.0198986383180617 0.001328236078065873 -0.02009540051174278 -0.01544956702937194 -0.022798936458558 0.01869565683941675 0.02511282017966704 -0.008329035353949726 -0.01246235779535618 
-0.06799242475311984 0.05005890395074196 -0.0111471363943383 -0.01535142089861588 -0.02056722847901452 -0.005475518984264743 0.01115619023148802 -0.009145871251422875 0.007284599312156891 0.01796118013165315 -0.0001149490768116057 0.03516951547629947 0.01438548993349091 -0.0002457776834793447 0.0240175515574597 0.003435700358107121 0.0287218196017452 0.01325083101761048 
-0.06849408640265683 0.02799530228844355 -0.0256097344380439 -0.005660851218717912 -0.005723201473475219 0.01030076554954863 0.03166126562255576 0.004156806731356421 0.0247739266678094 0.00593996974743268 -0.009275839452453671 0.01254594002951803 -0.0376776855956179 -0.01052430976175824 0.008879094156218481 0.03733730058882484 0.08169719815564044 -0.02655850953406064 
0.02697081670354069 -0.001398170357775478 -0.0005017531755019891 0.009770751384457441 0.02025501210424172 -0.005637473006223224 0.01669686701018642 0.004682008046486052 0.006874633013427969 -0.002734491236563972 -0.01659300883042909 -0.01854170763837944 0.002378022934289117 0.006996202393984873 -0.01679254785839593 0.01353637330238606 -0.02282537380507809 0.04140742951352903 
0.0345546485462247 0.0514810930052513 -0.004739509986736866 -0.08981899500818896 -0.07334817943679291 0.01201880826216049 -0.01054694279484959 0.01172479430817397 0.02596452118987088 0.01825018796082936 0.01418486817156938 0.02778370403188557 -0.004938455483615969 0.01500210752273459 -0.03478655586316054 -0.0004844956617308611 0.02985426375608578 -0.0009457295606391399 
-0.06376556018677175 0.002373783862823784 -0.0429256789946524 0.009096023274129802 0.01283340818295886 0.006563543301688648 0.00413029731235677 0.006038934317972043 -0.01464946887713637 -0.02500212986222729 -0.006028949275826671 -0.006810545352090884 0.001267742300198193 0.007621926962434954 -0.02117872041333846 -0.01379903886715087 -0.005348611400731275 0.01777744438410751 
0.02319288184117719 -0.06833257128353321 -0.003965037476925003 -0.02250692254894552 -0.001833407743940971 0.00446850003096239 0.01805640091304323 -0.004495115069832675 0.006101076756789687 -0.01673547252557334 -0.001717589723279763 -0.03347618673403732 -0.01962598223364976 -0.01622934881487708 0.03933348880066042 -0.002453539533243388 0.04613775671605203 -0.06051487074188475 
0.008648863698730738 -0.01736445775775822 0.003506801694941122 -0.03549627298683163 -0.04370241342854573 0.02037063759786997 0.01052958539486798 0.005672206428766936 0.0326978676291412 -0.01007790915391407 -0.05355994857210808 -0.02775335268635195 0.02289718735448823 0.009691891305569987 0.03339616990393041 0.03337571777541123 -0.02495362681408032 -0.0322025953108177 
0.08021638109462272 -0.03005226687388735 0.005801644915868674 -0.004560531670309412 -0.01070589166520037 0.06164818405840111 -0.007410665131987399 -0.04044486916229058 0.0009722765073954611 0.001488374547442602 -0.04665050638636764 -0.0148360120258239 0.03440116314997704 -0.04233860192584619 0.01749172236216092 -0.01733719361546784 0.01533315008120111 -0.009849177241388644 
0.08473427307494219 0.02931839735152944 0.003466074386301937 0.0197877334936048 -0.017002342818949 -0.02415855527724624 -0.02681722350883711 0.003461434546328043 -0.04346096304048743 -0.01405782722997215 0.04903833415629596 -0.02468986978078677 0.01857806249092867 -0.04061852349429395 -0.04633348973666515 0.03149745596760529 0.005091174915558087 -0.001408920210832129 
-0.01385328648334114 -0.009838311594694631 0.003647426354943591 0.006652817971465088 0.002504953998614711 0.02952353872821938 -0.01597144362109424 0.003517740612228878 -0.02158862444517692 -0.01523671807118402 -0.0508279735289964 -0.003802355526921964 0.001833611628531934 0.0283831427873481 0.02183078512280346 -0.007255157175474585 -0.007832299820380811 0.02332423658611124 
0.014366704168615 0.07012141188123484 0.0002494228804228574 -0.02028847273874147 -0.06836561402449187 0.007471511696284497 0.008094902677635964 0.02484057492350646 0.03685164989655184 -0.03355821281124342 -0.03280217403138806 -0.008269277272011316 0.0185809084263104 -0.0171548629019766 -0.03436509129006379 0.02307670884417911 0.01216174018755603 0.03008344941147448 
-0.0001002420234645851 -0.02318497256382363 -0.003336394915578331 -0.0500557384283376 0.0193434719365751 -0.005448417968778127 0.02221932678880515 -0.01609441561026967 -0.0258406636539166 -0.01861027489456473 0.001790656319769263 0.03565197356413479 0.005052228630104158 0.001392917662603224 -0.03476095469074957 0.05614247801292033 -0.05181553687406571 0.04082373395339723 
0.04805583453390273 -0.03471543537867867 0.02606455350102286 -0.008004667507763619 0.03707984657877648 0.0140661157731965 0.02113615664237152 -0.002604755774069429 0.04628249712165287 0.006389342143300709 -0.01254728536214579 -0.0263204047212678 0.00819521548873171 0.003772845981760854 -0.008391445441059036 0.02197313709408646 -0.0008477527214494205 -0.02993561426028985 
0.04790423974003238 -0.03595109832974698 0.01345292240965019 -0.01552442251865593 -0.01747536967266047 0.0156460224033978 0.01783938586961682 -0.03440520701371532 -0.03007073441099553 -0.0004575891850631117 0.02130818762593173 -0.01429172911041959 -0.005772636602049581 0.006155270114504399 -0.02416532106038551 0.01428583274353442 0.01222113042713371 0.030790900313929 
0.02175523922665228 0.02440012337876858 0.001420570119995995 -0.03629639455485532 0.04100398140476366 -0.008825307006953975 -0.0136473472884785 -0.03965090411769678 -0.002804990913025414 0.01874017992627396 0.03967087809145727 -0.01811414549859984 -0.03098688423011829 -0.04459676577556713 0.02353915402164193 -0.003183958171606789 0.009939297650149151 0.01997847717251912 
-0.01877056891098504 -0.04235033812868699 0.0456019937996779 0.0190824448650047 -0.04085794605673562 0.03583563098733646 -0.01265524645210675 -0.05188253307799952 -0.01052969370445158 -0.001983674881452694 0.03959755309078819 -0.01527476651037855 0.01057961210085568 0.01689484200305583 -0.02925539168882025 0.003411855006770081 -0.02089486264867539 0.01533702662230606 
0.009403419471099144 -0.04655136758075873 0.008914691531300751 0.004515607547136132 -0.04071048098736926 0.01098950455625693 0.0007021403647438089 0.01510185849596391 0.002753372340160033 0.01693902485121383 -0.02007240277072989 -0.004403513509090307 0.0392617634264812 0.01694763438322829 0.0176086917347199 0.001140332614448049 -0.02750194399868707 0.004271404034415059 
0.05378109602541713 -0.007947875926968421 0.0158238313650153 -0.03344666570198657 -0.01478027529583126 0.01161390147115771 0.008470513638045438 -0.01879293644186595 -0.01998310352386331 0.02032609700031676 0.006287078227405515 0.01033883147734597 0.01388931185613703 0.02665847535567113 0.07220394074701875 0.04138038819957865 -0.02735602073034367 0.002946476651401046 
0.03253883870652344 -0.02231858333830112 0.02727903138516424 -0.003292388010017389 0.00256240887576545 0.007740903046843895 0.01062924899470909 0.01010799506714921 0.01801592565987692 -0.01694995813238809 -0.03708140447020844 0.00585900830428059 -0.02653332119411989 -0.03442013602693924 0.01580120851775006 -0.06415746757642683 -0.03396409115963648 0.02544792667232004 
0.03328396350944907 0.03409636063497016 -0.003267053900525105 -0.01657935266896655 -0.05165859880068883 -0.009496868024166244 -0.01802880621484794 -0.02004258104772684 -0.02126352030534544 0.01064009125213806 0.06892265050274665 0.03302245524926714 0.02075782664436947 -0.01788813846478321 -0.03062062894871812 -0.01003412019999643 -0.008387601581780308 -0.03336990886761929 
0.006720529459873286 0.02230605820199544 -0.03494000409637137 -0.02427919083145515 -0.01977737693346737 0.0172458220066206 -0.003679506745613461 0.02164313715946431 -0.003608752022414023 0.05515931190725397 0.02215618018444555 -0.04796952533330787 0.02048682272128675 0.01353407597233128 -0.002969956164668268 -0.04892153312232282 0.02612175718275823 -0.06072220008072818 
-0.01451197402111313 0.03906243436586285 -0.01449228176796118 -0.0141585956903276 0.001805594086061077 -0.03255526463438221 0.005257192675598113 -0.0005774619320143793 -0.01153016853526041 -0.003425758231230161 0.01328430125640797 0.01912840254145417 -0.02058556820205007 -0.01475406281598352 0.04251987099717787 -0.01100373930224182 0.07140741860335091 0.02151591706641172 
0.01326108726055332 0.01240785937070993 0.01376935786785155 0.01228358868286374 -0.01547006438152894 -0.04082800754501199 0.005477182980519329 -0.04041299054605762 0.01452087828977731 -0.05335092765236923 0.05328862257389483 0.02540514073344455 -0.03477215481552438 -0.03025267057507545 -0.01314242823480111 -0.05032431619787899 -0.01494513718205159 0.01490174608066806 
-0.03990915677714962 0.003537049857265672 0.03256766286409274 0.05949496484425273 -0.03145205761580151 -0.02047788591406904 0.0008692607782867775 0.0453162659255778 0.02753443329875644 0.01903676979465379 0.01605048623956069 0.01058904219124388 -0.007965693974629378 0.01199782911145699 0.04911473087430484 0.06423467880060235 -0.02228683228676738 0.005691084971374894 
0.03560024916233395 0.003328006934800217 -0.009448431548180954 0.02966614562447566 0.04407010895642243 -0.01462888333943287 -0.01455155483459267 0.01035603493061188 -0.03163518837349774 0.002817108158538524 -0.02938548158114919 -0.007924143619165599 0.04681374675235987 -0.004927841142352092 -0.02563589488110029 0.02989113865273784 -0.02430215059207546 -0.01040066207360623 
0.003598060206543003 0.006641895926298264 -0.003331040404788864 0.02501827332140888 -0.01504121541071671 0.003306384820551775 -0.007168616592194007 -0.02751659280746849 0.0167928670699681 0.02424714629412092 -0.02501422653550494 0.0297933782991501 -0.006936830428718421 -0.002941985335646746 -0.03478569568988437 -0.00341652133169772 -0.00535691384794471 -0.0177654704600258 
-0.03350471013433855 -0.03830740149606002 -0.009212995526925163 -0.06248040043376817 -0.01218934640676842 -0.01772156566430819 -0.004642788275204879 -0.03262960785350168 -0.02300936695650149 -0.02467627062948695 -0.0159478115782441 -0.01645983850173563 0.01380560206919538 0.001234575007603385 0.06437293899302679 0.002947278978042254 0.01391672917136319 -0.001900870355894651 
-0.007117719298319762 0.008049082635891254 0.00461311952079357 0.01639338484585576 0.01258218264639259 -0.008617623434404051 0.008783156689411905 -0.004778564111188256 0.01738954495840207 0.0222686416624156 -0.04273024011270556 -0.00839906769296637 0.03436719189155905 -0.02462418387671381 -0.004105320304838458 0.03207377515517024 -0.004617376514698822 -0.01661765578972414 
-0.02030473481413231 -0.02881827365013517 0.01168060672610107 0.02232342000480175 -0.02093281517259819 0.01557080751282096 -0.01994279151133699 0.01129667375757556 -0.02196577267636001 0.001670818478363129 -0.028281086705578 0.02707068420080466 0.01427838201542593 -0.001246290166547655 -0.02463692303176072 -0.002009785785318602 -0.05615596461998738 -0.01121259821256047 
0.004891293112207417 -0.02547026947286405 -0.01620269444673747 -0.04534696264966075 -0.0656520333741363 0.01954031205340115 0.01549348703725791 0.03916833183212934 0.03488540154049474 0.01150598473344696 -0.04307016025232067 0.00468386290220737 0.01864929846938541 -0.0001125470064602957 -0.004678311746003827 0.006751007915240755 0.08678466631204873 0.009048095656264927 
0.004305400409326281 0.02765512011202111 -0.002191835256129426 0.02343799684853785 -0.06381937995099306 0.007967717331117393 0.00737982335351582 -0.01548979959223016 -0.01856844738277858 0.004268022644890075 -0.01061091814930343 -0.009933510956769923 0.005933395764791708 -0.008645637007528743 0.02494516797984293 0.01476498508701618 -0.04901918980636796 0.07691693079595704 
-0.04541294788760657 0.01156551147441853 -0.01719926878799044 -0.05120237863918641 -0.0006884450590417905 0.02103190864644854 0.01310764138587797 -0.02145562978991448 -0.07320511082839461 0.006352095043633826 0.03271849495353412 0.005344277453553108 0.0371919801101759 0.0328839638220703 0.05531709670570093 -0.02266298393702353 0.007778672836531304 0.009554025558211849 
-0.01884165753815591 0.01683639112907194 -0.0001619519865232047 -0.02092220416776052 -0.000432215938352029 -0.03618585737161268 0.02475619755528611 0.0241337893246444 -0.0113781064921984 -0.002897226586421124 0.01099326185866044 0.0237454760972333 0.004035397560264204 0.02016877373075094 0.01634341824288942 0.001649305836180636 0.07194904680908967 -0.03494371086083915 
0.003181260139426381 -0.01357757596441584 -0.0172656152154453 0.01884713650374026 -0.01953646080448406 0.0009855794758107008 0.01180746118732411 0.005265974267575312 0.01874123476559571 -0.01166977493346816 0.009481462129235637 0.01264947563963591 0.007674404088623622 0.005936309226963754 -0.04724496568351211 -0.08119522487482177 0.063200992969649 0.01150122707366191 
-0.01579269197624192 0.0527398622989017 -0.01715981272377572 -0.002495744204782381 0.0279089035824744 -0.001314114398799944 -0.002129140674699095 0.01353984752688751 0.01831086078113352 0.004476299792181104 -0.03703788159647441 -0.0328067539917107 -0.01931550874781342 -0.004343234025051364 -0.008175422621281517 -0.03012438033805191 -0.01841202802085652 0.0874264864990776 
-0.06169765418137145 -0.02271483990812656 0.009975805454462248 0.00496207194801516 -0.0126530658858644 -0.02525830960614784 -0.003858670396409451 0.01139638665860605 -0.007587556939784598 -0.01007448827521341 -0.01302369214339028 -0.004442395345781904 -0.01216563719503813 0.001967206466629476 0.006481711585138038 0.01640816482524684 0.001466178014750323 -0.009713199984566247 
0.06124421867268992 -0.0004749767427190878 0.00586216878422981 -0.06846472279287003 0.001122297987933927 -0.009452636591678264 -0.006919076260700861 -0.009819767603364976 -0.03884502265184866 -0.0009193307745550216 0.0178609606420916 0.00147170874919142 0.003296875467830353 0.004804853479707988 -0.0158629495979726 -0.0115264213277433 0.02340335638571331 -0.04137838854313198 
-0.001039778250795844 0.07245546331749081 0.01784047828857421 -0.009748476775814825 -0.02593406808550208 0.02987123605550327 -0.009138943875224586 0.01878981279602573 -0.01734987603470286 0.01303444272078665 -0.004888053270814991 0.004041051905577998 0.002497994822267021 -0.02775591364937365 0.0073310296623453 0.01462357708026578 0.01269441441921898 -0.02992573168637105 
-0.008107628380785398 -0.04275234627593109 -0.01120726183155453 -0.002183993621897196 0.05052323617663348 0.02304573356876546 -0.02531493695606477 -0.03614790975527979 -0.004012880565406818 -0.02223521057123982 -0.009612592932283975 -0.001355598477225737 -0.003910488843010083 0.01619557765961213 0.007282167122837318 -0.0103768306971489 -0.05001303078795961 -0.05016762604705919 
-0.0194548681847642 0.0239645205134872 -0.008733268506861083 0.04736252659868084 0.01884837803887816 -0.004772452849866016 -0.018534759842729 -0.0249621202155885 -0.03130234219243488 -0.006271237092363837 0.008890951603130987 -0.01209708041719173 -0.01510539497642525 -0.007086985503679399 0.01081850559974444 -0.02337826182341403 -0.01811476399932954 0.06992644517492114 
0.07008472812388607 -0.0118037636315671 -0.019523513985268 0.0148257785344758 0.03203320934918807 -0.03536854057275593 0.0007139228613320937 0.01839799626388921 -0.03210638459065051 0.02548681333984067 0.03351579674141153 -0.02550699245166788 0.03313728231462443 -0.02081111316754176 -0.01064188546294708 0.0002531896532774687 0.0298129705815534 -0.01160265670397769 
-0.01760228123666501 -0.06283011289870713 -0.01193811250227926 0.02514376456550376 -0.03816910084158986 0.01359980352457233 -0.02685055759216649 -0.03229466292406809 0.01024079588245442 -0.01144479440498955 0.02062099667909459 -0.05005153417727604 -0.003279738537528386 -0.01101770885220121 -0.005285168281121372 0.008484606182642981 0.03699625862794213 0.005594114280955323 
-0.0406829321083934 -0.0360905018651826 0.0001158889816890113 -0.02005655957187221 -0.04402987439080353 -0.01723795447428292 0.005987955947329271 0.01160082191404833 0.0371010584703168 -0.001420804004340925 -0.01453591214611848 -0.01432390171213298 -0.03831203920624239 -0.01100002844571316 0.003576263621341849 0.04609245231357045 0.02427920188005151 0.01117620887573121 
0.02038862151911692 -0.02639648288543495 -0.01183227781685224 -0.04425664554114463 0.03848168948127534 0.01512819506420055 0.01958841346262084 -0.011489891758369 -0.005419018781938544 -0.01724005991693544 -0.01757148573478082 -0.04875952025613927 -0.02468302325229129 0.02035370375521674 0.02910242995375078 0.0004711130432759219 0.01981618840430932 -0.008684539646797699 
-0.03047720993907262 -0.0100742460582065 -0.005102425888089596 -0.004086410502374175 -0.01551324828991479 -0.04088633605883829 -0.005164475468857214 0.01540626967901481 0.02784661673160239 0.00398738029204092 0.01320127690369823 -0.03302815407672444 -0.008038081050778882 0.02554143350575494 -0.01914203688350711 0.04042005457395553 0.004166456532589111 -0.02838221614810441 
0.03903654944759424 0.02408910629157898 0.01482710434073304 -0.1126562519259548 -0.02298898811041287 0.001474805016559155 -0.01584688306189277 -0.009376109936230689 0.05978605481305695 -7.118821662749896e-05 0.107261119847279 -0.02769355932435356 -0.009154594358362017 0.02595545006778704 0.011196350616661 -0.07031457018721873 0.09451873415795806 0.01160189015949491 
0.02925706639387188 0.007695624946826501 0.001381351405999933 0.01041814216896547 -0.04206441454153576 -0.01478048421478822 -0.009283356320159617 0.01535382435936478 -0.02398197588944075 0.003023229504170332 -0.01761077504066944 -0.0008519457141452562 -0.02256800678905439 -0.02348263833001747 0.00443852964526273 0.006215599167149153 -0.002064539007130145 0.0108984811252239 
0.06056138885789132 -0.09773832290554683 0.009032514106974334 -0.03408319076551072 0.06198760354927443 0.01448403928927838 0.008032140198739776 -0.02707175586082833 -0.02973022315847275 -0.02549598833322669 0.01887815305994333 -0.0664572287915981 -0.001244221362828178 -0.03720871173316575 0.01398376621977804 -0.01662736667337124 0.0200625714930778 -0.06569153318315767 
-0.00466681698847081 0.01604391657049747 0.01364819469216923 -0.04486913130830818 0.008753996177912903 0.005774457753060679 -0.007653630661593862 -0.01247822154730743 -0.004208956852482996 -0.02060877102968211 0.005145552277563571 0.007429405870464937 0.01769732862517025 -0.01279044623423435 0.04991113256688529 -0.0003541243819931968 -0.03149074525175474 -0.002923605210471222 
0.0142860946358567 0.008471454268246534 -0.001157935574186832 -0.005962762819620196 -0.0626929751297116 0.001254350266872632 0.01074122386338081 0.009028510265063279 -0.02532670570228113 -0.01552776544214067 0.01410970657920911 0.01766134948123189 0.0009234727147517727 -0.01434504908550987 0.04608870312560798 -0.003126462065595105 0.03370329968214202 -0.001562306489505776 
0.01559151343059854 -0.0247721969954189 -0.008598055173160677 -0.03320462137871225 -0.02902425819274508 0.004575603332409447 -0.007099748924488987 0.02469544666311125 -0.0559018644762956 -0.00347380311997667 -0.07173013578925995 -0.001351787526511379 0.0176993206119278 0.009595524522353599 -0.03280830708440879 -0.02497928629840711 -0.03000885814075718 0.06937654658251624 
0.009286527880384719 -0.04784366594339294 -0.01025492015357334 -0.009413752837536482 0.009805883870323173 -0.001321744918501912 0.00580341168551475 -0.006893026666942079 -0.01976412503827879 -0.03375205653769636 -0.01207773472068609 0.04174635048038724 -0.01963479137622529 -0.01567071001616227 -0.005789982072806839 -0.007720997626883613 -0.02498913627642874 0.02687135614601781 
0.04532732902899796 0.01871543148548968 0.006687726024002674 -0.0539268596641326 -0.02845612353627808 -0.01449763671165069 -0.005812939601340062 0.01031253796932734 0.002709897745932908 -0.001526185319304138 -0.05226026870553563 0.01915109549606677 0.02015517886198092 -0.0169354550533432 -0.02808226634713212 0.02149025396404356 0.00250437474529859 -0.008378669124676304 
0.01147137378885676 -0.02604946721220086 0.04169039600823631 -0.04935503973409692 -2.331543297552408e-05 -0.05265183355140059 0.01232472403193662 0.03532580521455368 0.02284762468755922 -0.005891651918841068 0.01752307988059985 0.0178006443239016 -0.007030618455295631 0.0112179664276444 0.007899465219797583 -0.001306083342422689 -0.03015044709240041 0.02370745336655099 
0.00930873875272376 0.04092207659651815 0.01132212522478466 -0.06706162030037607 0.02771273358349017 -0.0221793365585194 0.004134115199447045 0.01318346230985505 0.02995614947152664 0.01370099143544757 0.03248759922803539 -0.001059747178973475 0.003797343600314074 -0.005379094244948935 -0.04110919213665228 -0.01205463305713957 0.008914279411771888 -0.006146724464995946 
0.04304241706398338 -0.007105406513185652 -0.009813102484377811 -0.01966638704820361 0.009666433116960587 0.004995985830671643 0.008276591269035365 -0.01748061050594241 0.01520597379200821 0.0415789675920244 -0.02775753508285614 -0.01578546939954865 -0.05024112036536225 0.00550047410712382 -0.05134818662099752 -0.01016322771919666 0.03829872304213593 -0.04521821825488639 
-0.04448367691037743 0.007847412273579223 -0.00361135268299535 -0.006578910859929571 -0.004802723542376295 0.03121629802797556 0.004070128583557745 -0.01100195576819812 -0.01358038347821133 0.02373705320768415 -0.02616156056705107 -0.01144747693910879 0.01122664654829897 0.02698948299695142 -0.01112656494717213 -0.03150600657731069 -0.02875955179562954 0.04262430289956676 
-0.02264312700389702 -0.005135109060138558 0.0364245342376315 0.02544594314321687 -0.02362203120563526 0.04900548353155169 -0.007361736818601107 -0.006541363467079943 -0.03910239494876932 -0.01689333080775247 0.007856517970224406 0.05052612089872539 0.008072511700372322 0.02175058828698687 -0.00840188513406682 -0.03184529534777128 -0.0101018077393397 -0.04325764197351142 
-0.01326716375920508 0.007134480461084302 -0.01189115569253506 -0.03085192603572413 -0.03455694361486365 -0.001772235140476899 -0.006655085676978673 -0.008367770803806724 0.008584608815674431 -0.01061891442197411 -0.01184336688951994 0.02003987914791426 0.005124832797818951 0.03020344504917952 0.09810810456536555 -0.03307638818830594 -0.03341534602631289 0.001625123929959027 
-0.04477047178905699 0.01656067679652405 -0.00538982743613903 -0.002817783605647271 0.03139666715331935 0.01540701805166377 0.004101125437935007 -0.01308160228268663 0.02977884307778399 0.02415830586474249 -0.02400921178825937 0.00329773035245819 -0.01927170339361947 0.0138407022278586 0.03449694105791901 0.01772417510267612 0.004858268358979807 0.02975602360740369 
-0.0845335705564885 -0.04045894787792775 0.04401499147105502 4.553729167199916e-05 -0.03073715056571866 -0.002295314848254228 0.04825150614396433 0.004423404086970275 0.01998385567379016 -0.01739117986792545 -0.03664969067190112 -0.009627268543686701 -0.01252177670635494 -0.005355724332064717 0.02644988859215033 -0.00151798612543565 0.05009646796838906 -0.03040951679874318 
0.004753152711835692 -0.03345122323595967 0.002609553250494552 -0.01989779131277574 -0.01953946078871873 0.007397035036527321 -0.02131531770802464 -0.0008201687616563388 -0.00884228286077487 0.0007978599250086871 -0.006044831413366756 0.01369369267914715 0.0122052707908252 0.00548486204135215 -0.0446398336881422 0.006568841487001455 0.01697824534791867 0.03908266193871109 
-0.008203810854286691 0.05273694099932223 -0.01208756905184471 -0.01022034508044189 -0.03286279562985233 0.005693957349370745 -0.0208929463772375 0.0596471868272687 0.01035072165862352 0.04584287530012243 0.02556516960453319 -0.02938027608521276 0.02166787540337861 -0.01260164537347493 0.00236361107586198 -0.0306850685009166 0.000566054504582006 -0.08070046157776703 
-0.01675789494120948 0.02838874170170634 -0.02291916865123594 0.02574217732851572 0.01689962704485747 -0.03122447875245719 0.002433360896363301 0.03379906365250749 0.01128714419568827 0.01983325684106866 -0.02740100364208718 -0.03971119214221594 0.01312020800082661 -0.0285152982182652 0.007421563157062239 0.02571485227385963 0.04348242313465794 -0.003277265743537968 
-0.03593104698365709 -0.01037549115429051 0.02583868377965515 0.04895668516128647 -0.0001501317239726194 -0.02276102468305422 -0.02836295724520826 -0.02021007058363405 0.002790827612394808 -0.02829330918950373 0.03510241196460804 0.0589912759069165 -0.02138662322843144 -0.02586219643872351 -0.01022440879589133 0.03067317341003559 -0.02793932042333996 -0.05323013550047921 
0.0004911139759517456 0.02597901977807301 0.03285785709370336 0.02112588236547377 -0.03134555540860706 -0.004732097369456732 0.0428801815369463 0.04599086306501126 0.03165726869147234 0.01592705775123062 -0.03800981830313333 0.03706682353688016 -0.02858440098712848 0.001909700173512773 0.04233799899170355 0.004170695524652008 -5.107633568387411e-05 0.0222346690450474 
0.01907626054460609 -0.006099414042529326 0.001999365995271621 0.02556600322876516 -0.03642632013253875 -0.005185332219361505 0.007641007784477255 -0.0004354293894021439 0.01688615123411119 -0.01250294581687696 -0.007105932245556953 0.01186408436517303 0.005244493249600799 0.003334996847855588 0.05718835381280783 -0.002423274455077854 -0.01735297435171211 -0.01949630310031559 
-0.02455473170353452 0.03399499254120251 0.00333726439962588 -0.004199384485220792 0.002595738223825475 -0.01611186623848218 0.0220070204521715 -0.004496045194215199 0.002514648661170658 -0.01467025517570211 0.009752357657906632 0.007404357325137132 0.00115486709898433 0.003079564438515432 0.02224835726106629 -0.007849905740433854 0.01056769262996186 -0.01503353555385898 
-0.03513481742223828 -0.00287320296877474 -0.01288910104844548 -0.01424854779573096 0.04894543311395872 0.009644835382209215 -0.01225324157556383 0.02472207723450104 0.008655332511514589 -7.820130932591367e-05 0.03487637813511087 0.0200181508263288 0.01859017193708941 -0.01951500912519972 0.00504608254429122 -0.0178580178506405 0.03062291560377741 0.02800815492073454 
0.01664737355928541 -0.02632742992229993 0.01903800225578396 -0.01479726765459786 0.02625081890638998 0.009047483162256585 -0.02133033702234866 -0.02018444351653159 -0.039701462904832 0.002224362398377914 -0.002934128052996776 -0.008060460579772052 0.007189415531144984 0.008021641398782803 -0.02919330727260943 -0.006214759724383533 -0.008134938248353237 0.01591899336569422 
-0.02606776361682998 -0.03419641127680721 -0.002841072177079722 0.08002029617143148 -0.007834229174046194 -0.008854028294707134 -0.01032784476567573 0.02840652001654877 -0.03157000609562174 -0.0002537877388470361 0.003932394384009617 -0.00567861052710445 -0.005978408339438603 -0.003006217316472405 -0.0130111114091896 0.01212492232585873 -0.002404234966551924 0.03054087331396157 
-0.04641786876833065 -0.02044898105461103 -0.02154378345184475 -0.003819656389069895 -0.01338875528435063 0.04371871635117441 0.01051645120644518 0.05144688135234553 0.02063559654974469 -0.01614758181644719 -0.01592068412676064 0.01807872346264915 -0.01175920043229855 0.006719305127459808 0.01502935563032718 -0.009162043598558774 0.05885356645160863 0.007977039838820324 
0.06334019626804947 -0.06322628078596929 -0.0007537976652288323 0.0028568665633217 -0.03891173849747959 -0.0009142304820149142 -0.01047087084892002 0.03024682047405504 0.007402980025885818 -0.01387231356566807 0.01403375769671117 0.002078084225125438 0.005001900434958475 -0.006042226390649641 0.07457661183842214 0.04538193061787419 -0.03644490132778887 0.01431030777139479 
-0.002984720218810332 0.0008622505844435299 -0.01772963084688585 -0.001690420286169242 0.003234175791905377 0.01410578516882211 -0.007487932179314849 -0.01260051239920869 -0.02019562712337547 0.001048495347609514 0.005388955796347089 0.02327266625605889 0.01974355327948484 0.007864963962954444 -0.02777616010031753 -0.02663915968281469 0.01626473039783428 -0.03640507125585768 
0.03012664601972559 0.01217472126547499 0.004671637594911188 -0.02794068095723129 -0.02036771755011882 -0.02698392515834523 0.007768519783337454 0.01543648495977238 0.004853162376408727 0.016198419702159 0.04067466000920052 -0.0206007426989708 0.03001362353475956 -0.0102503607123529 -0.001783361825234559 -0.01896440220091798 0.02051451995504408 -0.007687817674053874 
-0.01785592437503385 0.02953963104654713 -0.001780089543142877 -0.05081219137937786 -0.04080876099117853 -0.009968301912608791 0.03562911550972046 0.006070114614927838 -0.0002353914081995789 0.02786598108004109 0.005408371210799586 -0.007066993459889656 0.008726158039501225 -0.006039224312188133 -0.01079632714998344 -0.02415992613219731 0.06441407905810416 -0.03828332149236242 
0.006482796079700327 -0.01322302040358014 0.001726188822840342 0.01501922080991361 -0.01111707979760914 -0.01390210548588902 -0.01505048437818217 -0.01241164505858267 -0.010724192888358 0.003788123114296104 -0.04321891727551531 0.037471675378422 -0.01093543992644526 -0.02075949553203441 -0.02075107628460928 0.02010819937174399 0.0514553977785649 0.06981256701384049 
-0.04705704435138387 -0.01606923316978678 0.00947196552684626 0.04109637830553085 0.01453460177983759 -0.04596445862000497 0.01125398516951659 0.0131766565460868 0.04248280693896091 0.01185492762151551 0.04991029715179111 -0.03819029450842123 0.008749186969189313 -0.007496739898995452 -0.04551226201113811 0.01731111010302432 0.0659273991426416 0.03270591826119703 
0.01206390731523565 -0.03523961410337281 0.006331372530639869 -0.01706666865168726 0.02263705901813029 -0.017482329393187 0.01430320151193279 0.004705806386945929 0.004672971188185653 0.01230974983698475 0.0236466728999124 0.01048983044630638 -0.01146299150318421 0.01889841763626928 -0.007202431706386094 -0.007635841136470443 0.03190176604920445 0.00286890577773884 
0.02180764849377275 0.008513640645664391 0.01984384835418803 0.01136113320882639 -0.03901737541132574 -0.002282022747007848 0.01546257761698595 -0.033138355539044 0.0004319826964844521 0.003715696723643099 -0.03683297957871606 0.0115224385811895 0.008094215769156471 -0.03215691426760563 -0.001998088252432501 0.0734802140841145 0.03532470783263307 -0.08661312616704248 
0.01024816736137335 -0.002589863915153982 -0.01621508135831963 -0.005794626094025262 0.03706734102186935 -0.001812063094071675 -0.02261626317103807 -0.02556122890475615 -0.02939312306321367 -0.02169828063696824 0.01339515431942017 -0.01555529642767216 0.006450691595195924 0.00242342062035478 0.01237038652216991 -0.02644457366142537 -0.04256107943277445 -0.04061289328730582 
0.04404658132333292 -0.0173913053789186 -0.01225695535108868 0.07173725272872561 0.003079128812441081 -0.01651711890632598 -0.01251857630166604 -0.01565123137957294 -0.02202922003925298 -0.005055146783886404 0.0007911012971653855 -0.004711477328345619 -0.03663545559922318 -0.008085447042766607 -0.02875403837868289 -0.05498386412512436 0.05106978795175171 0.06053160249483125 
0.01612067572455331 0.005392505667489558 0.01930173073192002 0.004056257818104523 0.01780419899433668 -0.01247367328569626 0.01461780278398794 -0.01088211488749297 0.002884539345811094 -0.02080150916581973 0.02112951330719877 -0.003615219440603773 0.01986692641370651 -0.009699126533099352 -0.001662600360899767 -0.07150565422851375 0.02629836627480973 -0.007645013409110357 
-0.01903924066837263 -0.01180968398068373 -0.01556103399058796 0.0483124856618605 -0.001702891384321568 -0.01164589428150655 -0.01011720660463258 -0.02209733838817962 -0.01993356616095354 -0.003176039405704314 0.001466007339215943 -0.03091802518391491 -0.006741217372591726 -0.01012020280827636 -0.004814842250681847 -0.03882199111154465 0.01250007463853427 0.01431007019496502 
0.0206009183152593 0.02848201279242267 -0.002479881058401757 0.05297752130678304 -0.02104443271326641 0.0009283800903041529 0.01433639999377981 0.03077555890034833 0.01905925681890092 -0.009278573811271028 -0.02134106756441132 -0.03119686633739962 -0.04520552845881679 -0.01149318310040353 0.002799122931509821 -0.008820938367485478 -0.04673191544644822 0.02386168223481099 
-0.0634822027599982 -0.05066445181286446 -0.01000891914063405 -0.008346455279288369 0.04785500399942554 0.0007307512063185231 0.002994957181892464 0.02694296620689017 0.03286797496743849 0.004599806836206847 -0.004006064570525512 -0.01262731242805589 -0.03466638158099639 0.02469152166179184 0.009779875308310136 0.01790124377525196 0.02641380683863294 -0.004702821944535744 
-0.06894187476286691 0.005162799430955277 -0.000780856419191129 -0.03165680902318595 0.005630705930487218 0.00671698312031938 0.01403389011083905 0.02141066649303642 0.002526230852410975 0.002659909966779976 -0.03549737389647364 -0.009480280339621837 -0.005624732125040578 -0.005432999963846994 0.004605421295079716 -0.02073897325133885 0.03055230558897054 -0.0115320112660029 
-0.005265656731910406 0.06002251114253868 -0.002178657124535512 -0.03768387786537562 0.002912258286963429 -0.007497082745095474 0.01879205637125077 0.004627839266053854 0.05135614164840608 0.01524343765534665 -0.005626286848922682 0.002911108447510343 0.004018268967964517 0.03499472127688598 0.01911959074248977 -0.07314475440405172 0.003860388189170568 0.00310387380224895 
0.01186166566798241 -0.01905233760302573 0.0001587240459360914 -0.0084021039891838 -0.0251335687489803 -0.01529103694124509 0.003556967515494804 0.01262414175028656 -0.007499134948262856 -0.01980134441749218 0.002473311895199029 -0.008449223413963002 0.00805119650332304 -0.0006652810685954694 0.005092578887689871 0.01317053564737774 -0.01037370168198071 -0.01247259291590823 
-0.04044810825548913 -0.04429120345849945 -0.001438935491460338 0.001635640949867377 0.04674277351318012 0.009874763142726296 0.03971855823939353 0.01892441940197164 -0.01769928022466735 -0.02242963773244696 -0.0596169204417509 -0.04194597721279429 -0.0333010286397093 -0.04609350635587511 0.03504125855918411 0.0125468464534891 0.00736249941448414 -0.0471817599337185 
-0.008866166815788907 0.02379479365556943 -0.001418085741714774 -0.06355052142100365 0.04393129855400083 -0.02330967984738316 -0.003224011967169024 -0.002333669666895987 -0.01216614894903874 -0.002458589720560376 0.003373938590931747 0.002805526601318753 0.02158230726020591 -0.006421329922522411 0.04734781861994367 -0.0002545242680779114 -0.07344117811729368 -0.005958021287054797 
-0.04824249159471553 0.01927084136666988 -0.00118218148885078 -0.02623140509818169 -0.04815726165256617 0.001240250894397552 -0.01649674321751775 0.01332185076206677 -0.03174036368425454 0.01701087525579406 -0.005175612670182997 0.00530127997334286 0.05022601074723026 0.007992569656614075 0.03146600046151278 -0.02008020894383385 0.01925680039652634 0.02668355135176039 
0.0304258686447787 0.003020086746294681 -0.003388097653906228 0.007105510357715609 -0.02284998344609253 -0.01125107003702085 0.002564413846790516 0.04741105206210417 -0.002061809231231922 0.004835206132545376 -0.07064521789086896 0.009611378105634465 -0.02471993224517369 -0.02678920856636583 0.04688519370336518 -0.006105876593335466 -0.04041028604121752 0.05239061750856073 
0.01661740819501183 -0.02156334904223021 -0.01280380373743067 0.03149789841803022 0.004149586796488872 0.0003202263979746224 -0.01483310440595673 0.005895110421904617 -0.01446933258378541 -0.001130026351128149 -0.02362413746096513 0.03266216337100707 -0.02740434940366725 -0.01977196074571986 0.01622252649287837 0.004097994079475843 -0.04302203435704228 0.08031982985386391 
0.008012795994037467 0.06526507188978867 0.0008097543204361236 -0.02547388613355804 -0.02699144532127305 -0.004277775253056851 0.01704461100751938 0.05758257497584457 0.003308187482622221 -0.001296817666898288 -0.05957520248375277 -0.006236170213674535 0.01861823764102554 -0.03747587549218041 -0.02573018995446478 -0.003139342845190463 0.04967016772216997 0.005967472612246236 
0.03877174419071362 -0.07685203289326287 0.03692279762452902 -0.02745568124641356 0.003577455314877498 -0.05142216448580274 0.01597427342899429 0.03239451498696334 0.03917505751036553 -0.03104340395354387 0.02307791960622527 -0.002612452905671257 -0.0124533031938881 -0.004822481939476438 -0.02092543442258654 -0.02110501652096352 0.03760673765625101 0.03240914748082324 
-0.02163366457215997 -0.02496652376175017 0.02352646835471754 -0.02003589000345213 0.06090178888789029 -0.01523358358563975 -0.001803609124336427 -0.001909993379322319 -0.006381472091870777 -0.000836491298564441 -0.01076748249963869 0.005563081228318677 -0.009434098865298229 0.0006923949804654257 1.119885474753613e-05 0.01694792202628017 -0.03372090874148019 0.02213441559019018 
0.001668896570224663 -0.07654934314604023 -0.005064928100415862 -0.009506616226967505 -0.001995256712512333 0.02568820216546205 0.02132618068802739 -0.003516509448336471 -0.01208947600550067 -0.02645761339099551 -0.004594790493415998 -0.02631343627183781 -0.0151374085831046 0.01509285618250624 -0.01140083768194484 -0.00616839002576186 0.03110749109498125 -0.004474808454165208 
-0.04331992577033984 -0.03696811855312102 -0.003665037309787989 0.01093506406490057 -0.0009390497349216441 0.02603948518896031 0.009918134559518779 0.02890832233393227 0.006792940991208346 0.003533634733085011 -0.04879045073330084 0.0005526856842170922 -0.02022730136687072 0.04069784746572806 0.02813858132852301 0.02036542924085475 -0.01184100210006465 0.02554935953272567 
-0.04723604067134304 0.00419433368458628 0.05017574014311412 -0.01519327835702683 -0.02028593893821728 0.03122056700904451 -0.004236499980320403 -0.01290785074565891 -0.01440760644630662 0.005400553569639015 0.02620934519235923 0.0336147460377507 -0.00466358632880464 0.007282168982565743 -0.003759878823887499 -0.02420731780222178 -0.00458078866081058 -0.02322661369401774 
0.06562765925002301 -0.06247953480502195 0.0007486500530798504 0.02973581880057522 0.01439005389885148 -0.005160555880425017 -0.007285754321925288 0.001870331458218351 -0.01115197637759433 -0.005836318900420378 -0.003349154586233197 0.001282475502678052 0.009373312095860309 0.004751457985710328 -0.06090703663047391 -0.02717054600871438 0.001717079328063842 -0.003343520319997106 
0.007130363335222695 -0.06810658518364615 -0.01612737625089959 -0.04935097234347948 0.06244571368112811 -0.01437543723463001 -0.01236458777613103 -0.01866526491222041 0.03034535325872858 0.02246305700394283 0.07322011040177628 -0.01159554149152268 0.001273222233843328 0.04700987543734114 0.04905612766039725 0.03592345444389057 -0.09457014403160729 0.05014735334355894 
0.01880592272444141 -0.07387155029405841 0.02070792931274065 0.001309984539943497 -0.0205054157562371 -0.004996276959127902 0.02951063275394239 0.01098153648614754 0.03208766281503267 0.01025671342960176 0.03389651044154231 -0.02602382778319342 -0.03853664269819344 -0.01890793047852814 -0.01136458573971021 -0.005636950646832105 0.02456730869144315 -0.02409666415535088 
-0.04648360357483763 -0.01067084092772645 0.01908506006811186 -0.02325527771087598 0.006014040035068855 -0.0366395145625431 -0.0401010480346533 0.003465859404112447 0.01753742504349592 0.06652588362382561 0.04085566733542263 0.02449617863523014 -0.01749088696410384 -0.02434153411309724 -0.05854534493114332 -0.006382813750013299 -0.02468635808284201 0.02971558823101188 
-0.02097159982342153 0.01622346758678963 -0.02393167707433692 -0.03823038773545664 0.01002520672832601 -0.004340786815536572 -0.02400049647000279 0.02625750854581714 -0.01872716070843854 0.07356911138474855 0.02277830531869498 0.03493797140675364 -0.004918671949365519 0.01521926949715332 -0.01150244590347665 -0.0007908233331429411 0.04219791418353159 -0.02387745472257196 
-0.04359066449365434 0.02444336532015111 -0.03465391743609742 0.01708393344386702 -0.03408361535900913 0.00777467058634767 0.02305945991657537 0.04018467055761565 0.03971252251635098 -0.01020350103073477 -0.06848566243688749 -0.06504202370599557 0.01581029806955073 0.003570765768344301 0.0009387278614661304 0.04235021552827701 0.04331503242709849 0.02414555674899064 
-0.007527287312731826 -0.02731859397027435 -0.002165656707444515 0.05042599724059656 0.006510413827832248 -0.008178314933941036 -0.01869514597069718 0.007921447722960259 0.06267139078600871 -0.022286909330598 0.02306019213302164 -0.01322214621981273 -0.01462667773941751 -0.004420383423702306 -0.002578799707815392 -0.02910424641136394 0.03558775145113775 -0.02487993319286613 
-0.001120252651736938 0.02031281311434474 0.02298166438964707 0.02973244628911078 -0.03278088801172845 -0.001647444103780664 0.04421989285327776 0.03600834194130393 0.03158798501052857 0.006913138708050785 0.01734195265407939 0.02508619644711837 -0.009774448396239551 0.008207447135198425 0.0177149831225956 0.01742138571943055 0.02467812021472755 0.009188063136889678 
0.05491341452717098 -0.01145996760762057 0.02421860408562071 -0.0004336977986298072 0.02563983882295071 -0.003654676298046911 -0.009404857140263316 0.0009356420884502359 -0.02125422371645746 0.02596377631551348 -0.002989398193803266 0.02055740821259996 -0.0001927720098204192 -0.0006452621869688464 -0.03028655736553411 -0.0214418191259297 0.03411863435216135 0.02287323876823149 
-0.04380460893577848 0.011185114418637 -0.02209676192361036 0.04332647219725205 0.02586504956410141 0.02487616231630416 -0.001560864364067825 -0.03678243452798516 0.01392036036478873 -0.008880108353923348 0.03019468722860813 0.01905656611772219 -0.005479550513989606 0.02412326153326567 0.06264737764479747 0.02212129365019172 -0.004240434627531853 0.01539126987199866 
-0.05696878633536352 0.01198276486451126 -0.0001108916334997592 -0.04556045010060715 -0.0646487221275131 0.01522878977758932 0.01059415823990046 0.009990971813548006 -0.0172431743906734 -0.003943310676728904 -0.05047848868873296 -0.03321053982463887 -0.007344595372273155 0.02537436590535546 0.01191634585912126 0.007266631794275178 -0.05016778515091851 0.05368646390142259 
0.03131458169074786 -0.04288278952836409 -0.007152956272314367 -0.06390064193315911 0.06768620929380044 0.01753395948343475 0.0233937253286096 0.01609111691859581 -0.01013563841588297 -0.05405805842130588 0.007531742561440799 -0.005458290499834212 0.01182204876567736 -0.01202134498669513 0.05556884515026218 -0.01097167805638464 -0.01752143492691008 0.009671510942470365 
0.03857047341065013 -0.01859470281588325 0.007319133955049748 -0.02143924498109926 0.0006348118469303475 -0.02868490294471533 -0.008983179981008884 0.02899160726520025 0.05013426261161648 0.0137823288553157 0.01525637034750682 -0.004355567944002305 0.005226827974119469 0.0004968094489374685 0.01231272139726068 0.00840977603495857 -0.03547871699003233 -0.07226168126613233 
0.01575047292699043 0.009238140212413223 0.007699498325494827 -0.09458390901125359 -0.06670625588114923 -0.008574128063990041 -0.006579831042413827 0.007737312820145729 0.02820582174736279 0.03250673507761415 0.00631479292603513 0.007441805249359192 -0.0228473303601159 -0.01016428881471621 0.02438640259147525 -0.01603441157438042 -0.016217920973739 0.0130338718775741 
0.01428968512000365 0.04600832464625684 -0.01561051182675444 0.02477065647017534 0.02167103456741696 -0.04613149417216871 -0.0070402950976214 -0.02385509472570384 0.01292030113006009 0.02175037647375528 0.05310381113619379 4.293493861424112e-05 0.007398822531056591 -0.007421102508998335 0.02793720165485044 0.06331327018486711 -0.02003183995878499 -0.01885382595094615 
0.03515821427091231 -0.004906541524809717 -0.01543188486175445 -0.007346207367371994 0.02456439242374377 0.01752162151787045 0.04285017899359316 0.02140716846365796 0.004566333389448549 0.01389162962717849 -0.03684826451188732 -0.01831285114296043 0.02256059848424085 0.004777328397628934 -0.03518149753657582 0.02914196678129426 -0.03554032888517132 0.00880887145150012 
-0.0280026747794023 0.01399601892076147 0.006542184497210377 0.00112522078730773 0.01870405625132087 0.00283241038996003 -0.001251190227119469 0.02463265343541552 0.03325141927973286 0.01530872967920787 -0.07925133766622511 -0.0269405074148201 0.01437219681616058 -0.01220546320202811 -0.01660027069772821 -0.01818581285529216 0.01868893963539791 -0.01325027634678756 
-0.02709841946038988 0.01966764379787255 0.01938431652180716 -0.01164366340254096 0.005708020812628912 -0.02851477156696371 -0.002010862817080419 -0.03188778852411655 -0.02518163931636402 -0.02589916090782483 -0.02173221533571781 -0.02270837187294748 0.01089480318890916 -0.00150499292503791 0.02209154217500865 -0.04628962702109736 0.04552484883678781 -0.01604492408701967 
-0.02966222270591842 0.02617665724291984 0.03116501869215968 -0.01502056580277096 0.01772136459546624 -0.04419134899152377 0.01933903155480063 -0.01367988870267283 -0.06469481663082197 -0.005764624980486906 0.02869792602056431 0.05041384462743829 0.02714522140515158 -0.01350352039273017 -0.001857289585981071 0.03040121997883896 0.01367103070368279 0.04523677719660908 
0.03144563934576423 0.02091132570114557 0.02290095082768073 -0.01849547659450371 -0.00159533129645534 -0.06086657927840215 -0.01279754887526955 0.002492331185146714 -0.02294090583129499 0.007050651426208631 0.0124604890628575 0.01178834436488324 0.006447117978432404 -0.001334168923268603 -0.0112356275736361 -0.01411663568065587 -0.01441039606149522 -0.04987780900088828 
0.008155322185029894 7.304227734898927e-05 -0.01681870533369585 -0.02555987922480777 -0.02105516749808102 0.00727178889364449 -0.005554113612696946 -0.03320701403691536 -0.005595454002039528 0.003094980600189355 -0.0303562574163351 0.01037199520262714 -0.01560986055684046 0.002196634330093313 0.001711828012082181 -0.0009132469080910117 0.01734850827089979 -0.02333446524900237 
-0.002547650600397366 -0.006871798380570655 0.007809054566891049 0.02130582701679206 0.01819720471209353 -0.02192474422972614 0.01021250865953616 0.03236160554318217 -0.01487307116623376 0.01230667230849577 -0.04801251168509661 -0.02818514421635028 -0.01984088526315525 -0.02743372609936793 0.02439566153821869 0.04356480491518151 -0.004585268249890138 0.0381894502753081 
-0.004654908676555996 -0.01959189681275746 -0.02126694069328555 0.02256950655764176 0.03203740049168109 0.009429734693283762 -0.02693874990172733 -0.04116534178620922 -0.01530547527601551 -0.01517106996135834 0.002981890975350824 -0.002056507086265218 0.001809063861158209 0.0154003556802052 0.02797809919592144 -0.01674380604316694 -0.07506160483304973 -0.0634018508988529 
0.00707120480017076 0.01672395359432334 -0.01006489223843963 0.04318754826544676 0.04888679983970717 0.02570384228044347 -0.007754762023278993 -0.004561476518701755 -0.01798383909353175 -0.01160078662164659 0.01111859898064872 -0.005064274964155456 -0.01131400767775113 -0.01349845739424001 -0.0113640709437789 -0.008041290153727641 0.03087387888628713 0.02294203204403384 
0.01122946306904577 -0.005601348191191897 0.02472860703542024 -0.03180047216931258 0.005817228551056196 -0.02752881293321994 0.03289273237892395 0.0056913843447755 -0.008221691495639068 -0.01246042104388478 -0.009637076040906477 0.03634712493714388 0.03007973969576324 0.01686976515477883 0.01880200835129765 -0.01981226118138139 0.04282566445320717 -0.005775876091750583 
0.01764504965065511 -0.05470444609794282 -0.006669199529952015 0.02002847317193204 0.02840039253443836 0.001486542330566907 -0.01303482685476342 -0.05324853607911331 -0.00212728313313576 -0.02675354403742569 0.02696012358150899 -0.01039500452288185 -0.008181254724849785 -0.008402561462481173 0.0233114207779941 -0.0004329431828393661 0.01428076053581121 0.01638052091513265 
0.1213865747780472 0.05286977879618325 -0.03046811644469579 -0.01277572411147835 -0.04619732343945647 -0.002193860656738422 0.005998482975897459 0.03984351173479952 0.005760729939355336 -0.01761873604213418 0.02561630524820631 -0.03324897053218461 0.01722554701571278 0.01564491108816853 0.03428165523816196 0.005600342691329638 0.01962678302912953 -0.0389347913383666 
-0.02660454199128309 -0.03083802263108612 -0.0377149857376976 -0.05203166667965791 -0.02651810097815067 -0.03170016207898044 0.02974662097721439 0.0324732173961582 0.02912533849793629 0.01314366463181021 0.01755617926054029 0.01306068217015208 -0.03830133226698851 0.03126145301491532 0.04162422784817523 0.04078242234933532 0.0040276806013795 -0.01751390029520358 
-0.007573325397333921 0.01967176479607737 0.009349736040948386 0.01560848652320647 0.003040518618916405 -0.02993645759727727 0.003129982750998398 -0.03062599028866562 -0.02640201510041847 0.002009505579454747 -0.01466781592830063 -0.01231237826505549 -0.02915258695958617 0.01357886176114341 0.01343341870366414 -0.03755653765389079 -0.06450221531567257 0.05776985578051892 
0.008110522227979733 0.05209505902566496 -0.02603190358939598 -0.08735568628605714 -0.01991400438517069 -0.00450816297242205 0.01056174353928768 0.01376969950673831 0.03737322599849008 -0.004047622706972837 -0.02300772924215362 -0.005117349797112202 0.002375096054367875 0.04038501133835948 -0.002293613966029818 -0.05384049388152723 0.02698661393602661 0.04766604436920871 
0.03867897033869679 -0.03779074655090564 0.02115832774790472 -0.009238159658905686 -0.01506178717939852 -0.006396001684145118 0.002498389665441348 -0.001334678545383102 -0.0007128512042304197 -0.0216550282065394 -0.03034515106908979 -0.02000643681477496 0.007553729019915315 -0.01317643204555718 0.01104403684588635 -0.03165949164892914 -0.00675678256721209 0.01689813387882217 
0.0234215988752122 -0.1204528440386031 0.01656438669803154 0.01182642009523936 0.06412069343890693 0.03811131494619239 0.06930235239492723 0.03581484298068446 -0.02038843255756289 -0.05881904026905863 -0.02535829860342453 -0.04265935566150484 -0.002877436312284687 -0.04172196135672848 0.03410351957099683 -4.065613878202354e-05 -0.03194408687652928 -0.04135587358161787 
0.006247695149675982 0.008048010344913292 0.003222795044552401 -0.02790218187863723 -0.01126092313572233 0.005275546325706995 0.006333784640570366 -0.009674747959187232 0.02761381336436727 -0.004836273346411371 -0.006990664045069897 0.005484505392217435 0.01504855829159955 0.0201766541083594 0.06111142771997238 -0.02215314771886705 -0.02231297167978882 -0.03075283015024276 
-0.02643064065743658 -0.04216119603319628 0.00814371422683929 0.01999512062776795 0.004677424608884134 0.02658523433739117 -0.004871820115032675 0.01447338744617177 0.05593656855475748 0.006035271071438637 -0.03131623293137272 -0.001203557848532594 -0.001111644910285465 -0.02863724130251381 0.01962418649854106 -0.01193299296219061 0.06365055940534441 0.009351902456927364 
-0.008630381196744601 -0.01718492888146336 -0.007223954831008822 0.01490066991206592 0.007464557289574096 -0.005747049205117331 0.004261012687596224 0.01194300889103827 0.01761852789930825 0.008464165634425376 -0.04141494285129119 0.01354470721120245 -0.02443729338845266 0.01093290817450026 -0.01355906969516588 0.01949847093134545 -0.04577565224925443 0.06055704366809137 
-0.03355269742774131 -0.01979845406934584 -0.006251860045173648 0.04327439804852738 -0.03541583656573021 -0.0006360356649771081 0.01136046060605056 -0.0525921696262406 -0.009075533666414592 -0.01943395501211934 -0.006828802671751209 0.02398662844637219 -0.04156805024561618 0.02113308622671192 0.0008530745095350953 -0.01984418526638485 -0.005451612784683908 0.003895198770076356 
0.0002607336726681602 0.002489278302085213 0.00549590562776061 -0.03206876076692701 -0.06213459396114882 0.0222505119868815 -0.005044711679721118 0.01105478345548428 0.04107494923546094 -0.02079723968679012 -0.02718490141610891 -0.02078668114847723 0.01475525371579285 0.01620975573114935 0.006032607740369345 0.005214653841883559 0.01343704710655517 0.0003232515842252 
-0.01131400631798777 -0.03814610604516773 0.02628788204338833 -0.04163712266038598 -0.02605790024844236 -0.04425195902447058 0.01169796636113933 0.02823227436084333 0.0059333364576629 -0.009725802871176775 0.07699527455025904 -0.02495193861336555 -0.007134149340204157 0.001712180752039933 -0.02289526462437707 -0.01637785125946108 0.007761409877922386 0.01417716429926298 
-0.03104416886981275 -0.008357068976836145 0.0125247084418258 -0.03708288836156602 -0.01442005357006353 -0.02255049403739241 0.01068102001374351 0.0213188765917063 -0.02941876906995477 0.007822634564783666 0.007130501829277358 0.03539864292693261 -0.01919216141369692 -0.009419123061062721 -0.00529754808786855 0.03495594760990006 -0.000418056280410587 0.05027807567577522 
-0.00277287765246086 0.01230862864092993 0.0153280545273608 -0.02175849232584293 -0.02873600205736167 0.04153179237406854 0.01813961950909797 -0.01809613866720184 -0.04860526047187461 -0.01221064986752771 -0.04018768238293547 -0.008644314713262585 0.004479645001099826 -0.003328850531174863 -0.04346385411139587 0.006108204242443795 -0.01981910697082313 0.03225174164363768 
0.095157937922484 -0.08968613744305212 -0.01348731171503005 0.03242452848972682 -0.01067230019036323 0.01559673358216196 0.0096708067218038 0.04874991205885146 0.05544020707752266 -0.01626175836650917 0.0261192809554443 -0.009659233661132503 -0.01359186911626079 0.02181181277620035 -0.04844591790739949 0.008727693929534456 0.09657066886846229 -0.06350902638862525 
-0.04514248165617323 -0.0215085143805904 0.0779676860207866 -0.0162818762812965 0.02329386518793356 0.01508132276828064 -0.01006312171754748 -0.02869664562367721 0.0153762935216866 -0.0009991669043294647 0.03472929270057734 0.0221564354814966 0.009192896187495638 0.007635085258869768 -0.03727537224417413 0.004839609860246498 -0.05318142243954417 -0.0577242851014876 
0.00806936910686757 0.05597922364391699 0.004105910308612348 -0.0009972823322734351 0.01714028969848548 -0.02239945514720229 -0.006595113764710039 -0.008990992446931219 -0.02911350267699362 0.007654129101378324 -0.005283623067212812 0.02819270300657857 -0.04427257939096165 -0.02101224031017083 -0.0009344613494301784 -0.006500135486753725 0.005232002504857122 -0.04319597343161106 
0.01107641246788283 0.03591602681392872 0.0005292984014224452 -0.04293664197230229 -0.03097503473725029 0.03324691275831997 -0.009884216131444294 -0.06588580906525592 -0.0291908188299192 0.02058711047051018 -0.01408475880698579 0.03008399692402447 0.01995138958119074 0.0477154664991784 0.07097090169310906 -0.04576789692965406 -0.02423699419773073 -0.01569759810219839 
0.007657007561845886 -0.04579285894163378 0.02648860043536543 -0.01716381822891504 0.01069803090330744 0.02736921331160708 0.04135672547451691 0.02925668671739262 0.02252992300376044 -0.01562645396101375 -0.05140848594089496 -0.0239987930585726 -0.03721833659524855 -0.02386405682139718 0.005222919552970638 -0.05783497519912605 0.005158548336288858 -0.03965013313494038 
-0.009405818112106631 -0.03018061914708448 0.006831356042170599 -0.05246569943143794 -0.03535463586741273 0.0158251818040939 -0.05275762257872199 -0.03896742269356541 -0.01245735958956418 0.02404191228371086 0.03412468212276695 -0.01204000504709165 0.03653202144220748 0.0009141487586843365 -0.0009506599573071247 -0.02808503801074464 -0.009509313757162774 0.002092628103533598 
0.01632954107158731 -0.03172383436321482 -0.0280314532659197 0.02692959013169315 0.03833217111274748 0.03037923686129564 -0.01642133285063254 -0.007462622026040368 0.04347309982387799 0.05708880267993185 0.07001428304855717 -0.0491072075506129 0.00387195000958099 -0.03269630764915891 0.006170180296523747 -0.048666305769823 -0.0227349614094609 -0.06076869055337036 
-0.04029924775536575 -0.01342776444871152 -0.0008693068094478558 -0.03672897620493588 -0.009176319652935968 0.01544087289884961 0.005617912097553062 0.02023219492527393 -0.0257852417938494 -0.01416037337037042 -0.05204542459916278 0.004671114175898617 0.002747843529744672 0.002137436564139926 0.04985125651683851 0.009451601072404985 0.01726839045506703 0.01704362706850905 
0.01184490474840893 0.05620067762743033 0.007080974070429331 0.02494956542158617 0.008085060033769711 -0.03246295695919135 -0.01468265326756358 0.04830808522501909 -0.02517591440913781 -0.005615905136625222 -0.03155125858559277 -0.03540589514629671 0.01926485735764872 -0.0257867995733281 0.03219976513598971 0.01672714659457104 -0.07773405225312567 -1.579304128024765e-05 
0.01178606406124849 0.007309157637743825 0.02910090072304261 -0.001777626619407125 -0.0288772382327525 0.00181430093571556 -0.005881708894117584 -0.02461242295355985 -0.002732080338293662 -0.01877940479445011 0.06103654668063317 0.01240658608598961 -0.005837281369975357 0.008915332781310521 0.01492399958283333 0.00586536099151884 0.09691169670145913 -0.0179496079844037 
0.03063422647836892 0.03936728120612186 -0.003099947220754397 0.03732168352773083 -0.0521009728469192 0.003180464855144696 0.02328937470767469 0.04213293512906481 0.000881741779220933 0.004879954290219638 0.008407867670441885 0.05658041006776072 -0.01166627690280423 0.0207611044100948 0.04412153223069078 0.02466862138920424 0.03366002876571928 0.03035614359683775 
0.05158072397589933 -0.02585958719327409 -0.005195922413612756 0.04426485561712486 0.007988297931094778 0.007732122516995494 0.003337360259811175 0.02119359962402566 -0.03207326352589292 0.001521120237486778 -0.02946961053174854 -0.009325351540498968 0.001935994720003276 -0.01037364696882662 -0.01312877979644697 0.0008962249901894241 0.01112277478195002 -0.005046698975319171 
-0.00839986665557008 0.02130943842499333 -0.01100263031759943 -0.006948293945149556 0.01770231758613147 0.01627587890754188 -0.06454545659797659 0.01014813408511657 0.0006086886946376466 -0.01722987867847317 0.04805670950817344 -0.03715867775386707 -0.02980940825518225 -0.003276843871900261 -0.037435792855804 -0.009139895227987834 -0.003019476478604874 0.02976915344380239 
-0.006031675303543537 0.04661318433452045 0.01221756252629254 0.02549929362966605 -0.0197247807067623 -0.01600071554645459 -0.02233386157421968 0.01552348454694859 0.01034537760469909 -0.01173715292216667 0.03249185158086268 -0.03712905796749289 -0.01859384632414134 -0.005438243092989625 0.002655844588837757 0.01921479290867445 0.01347986007092593 -0.03885017496038175 
-0.02551269959652878 -0.03183669532119398 -0.001096852423934559 -0.04956859595716666 -0.03683859529136734 0.002251437300476165 -0.006339785260449149 -0.007447881295509285 0.01274320628912175 -0.04741706922595838 0.04568868414096914 -0.008100596956818572 -0.02905245309624628 -0.005366925080439843 -0.01242485004180424 -0.002553120046817266 -0.008614911916570942 0.0753174722538623 
-0.004140048190044257 -0.006150990619841302 -0.01763834262675277 0.007337133410854629 -0.06123569347141099 0.02714636101101504 -0.01271009845806049 -0.02010805602428035 0.01344841658642574 -0.01596872349170824 -0.01657972665865781 -0.009627108119059879 0.004284659253601495 -0.01376319300752111 -0.01871408173511663 -0.00791160994912567 -0.0279319568455007 -0.008378473537564414 
-0.08136064421014826 0.05026506804359055 0.01091117459572809 0.02405750490553225 0.01739190198618284 0.009220982638505095 0.01580641581382899 0.01537356924429821 0.03360069634686172 0.01492371561731377 -0.07438417689534027 0.02061675038917277 0.002164582815607395 -0.02243269804893925 0.01044748994790409 -0.0004039702385786429 0.03857847809949807 -0.01720259041533262 
-0.03617305367135649 0.01088176743309441 -0.003925971508284496 0.02912979740648643 0.04424245890299481 -0.002579416531801057 -0.01291809433885451 0.01491496555147495 -0.01634715057052692 -0.03313751165892821 0.04561965602473083 0.002699584429212778 0.01351605891006977 0.01354295979832389 -0.01088128990046804 -0.0312892114286642 0.06701336134489803 -0.0008798605170438522 
0.04898418319265234 0.01992743019274534 0.004689625011584027 -0.005465144241732553 0.08798183205542467 0.00992588756019837 -0.01628382799663669 0.005812651248432958 -0.003671601287484831 0.0523695808923048 0.0146013196225498 0.005844334738921767 0.008359715457486266 0.01207783831404022 -0.02192140099355753 0.002270239154727455 0.003190665951749276 -0.06799976097196173 
0.04181699488675603 0.03620397176640392 -0.01169715161897955 -0.03935596580698675 -0.01837978568395753 0.005097026225689407 0.03014104393601062 0.02179364407310348 0.009702042079696707 0.03465726449684627 0.02986523495784501 -0.02387578932057376 0.002046828505121214 -0.021872975834887 0.02195808955709523 -0.00945100043090962 0.09811318738301877 -0.04583623758106085 
-0.04885797794179947 0.05449835492923966 0.01359654801854111 0.05418176847804753 -0.03104272419982205 0.01455087344985351 -0.01440723614261238 -0.005365437263268764 0.01066718289223638 0.02371924775002896 -0.008645640139471328 0.01052880180258885 0.03389894192043942 0.007447018453897856 -0.01903596537986593 0.01199781196572267 0.01417316275302546 -0.02402133588141838 
-0.01855494277334791 -0.01714435982226595 0.01112187581217533 -0.01572576800364208 0.008407378284215587 0.01155421864191733 0.01907202918251006 -0.02589781619887401 -0.007587000397707502 0.001772950069767018 0.01931605011453832 0.01834205980223515 -0.01296019697838079 0.007889176962865129 -0.01634798904880915 -0.009976578140747787 0.0269071506761595 0.01498928575623627 
-0.003544369083472012 -0.06632601689813909 -0.01305925832856602 -0.04073412929415135 -0.02386948597338694 -0.01313089452430888 0.002370086777233787 -0.01397820416060583 0.01526270634429407 -0.01908503927404593 0.00205324806051247 -0.03011054761237346 -0.002519921755830209 -0.006571354731166811 -0.01320026468736159 0.02436836553564343 -0.01234301523692557 -0.02511316867221329 
0.05791129640563841 -0.01812754794916762 -0.007741367556455602 -0.0005021195816070225 -0.007404063694540732 0.01938453783164692 -0.01300350722953607 0.01512607482987259 0.04830619910050565 0.04128052229538857 -0.04303403418286714 -0.01462884590283784 -0.01580487736343967 0.04633892894980503 0.01145721413435213 -0.03249585714737602 -0.01653786730206573 -0.01746340621869482 
-0.01729731294622438 0.07198486993762734 0.02482799585223436 -0.0125141788067658 -0.06287621812841647 -0.01607680949101675 -0.01011112476327459 -0.02689625158497881 0.05398374870713109 0.01148849771741379 0.06591014935136208 0.004583646125165901 0.01334957961450447 0.0117951369593119 0.04337251586301222 -0.03407978266364625 -0.02254742443934016 0.04463070377810863 
0.01460073649828444 0.01371703861292334 0.0009687476192647598 0.03499810809570818 -0.02539980595565001 0.01954583318035042 -0.02320777050180364 0.01386139448288401 0.005509941453384699 -0.007462938340352554 0.01194752992285176 0.002148366777643618 -0.03996798052381179 0.002095986080730986 -0.002246120688515405 0.004547606473445515 -0.04395533345226832 0.02219548468399565 
0.0275637817911605 0.02135947892801405 0.0182330948408394 0.007787122669491069 -0.02591438230510925 -0.01322526540891739 -0.0007510995949169447 0.007385012687801036 0.005252592532956169 -0.0170281874839733 0.06054926344917768 0.009328059591362001 0.01012562780481943 0.01014442608495111 0.01336451615034433 0.001401617498406228 0.02731568026402824 -0.004230339650664231 
0.008326702756852628 -0.06567733221675814 -0.008255098821529739 0.04881612127496551 0.02400969656857766 -0.007266863687672092 -0.01179034879214782 -0.006209280457685222 -0.004431023863966584 -0.0009532267308146469 -0.01099344225730505 0.03868383559376212 0.007459899807743721 -0.00542370447102481 0.01382485219908832 0.005918554721950886 -0.03050724358534587 0.02352450232523131 
0.06858037624099626 -0.03045365304032572 -0.02256870666214692 -0.0009047475046121712 -0.0009258697136403817 0.004468690146347237 0.01052246566396219 0.005779732712215551 -0.0003326214913436441 0.01967666329157546 -0.06480041296196842 -0.01987120729791534 -0.01275436527826555 -0.001303196514802482 -0.05089473601947569 -0.02595703981236455 -0.009751148967160787 0.03538637984012338 
0.001184838090463605 0.02699785155782351 -0.001192332380258969 0.02862405795177736 -0.02825919797149246 0.02236756496702592 0.01613420760691773 -0.003914981343931008 0.0112891202836631 -0.004328932624431112 -0.01702432827228287 0.03939263909084426 -0.02838698131057409 -0.009931673505971893 0.0256684492886038 0.04557526125251563 -0.03027033630227047 -0.04399329771040433 
0.08102095660933396 -0.02685463152701213 0.001889971070128365 0.02224105937326946 -0.01465627591430107 0.03515886903259083 0.008297447337781016 0.01379035852887235 -0.007519689653100168 0.002670991100776648 -0.003816930703360583 -0.0182390479445846 0.003097405709338228 -0.00763180878871478 -0.007974572560528075 0.02617758068907808 -0.02090632070434573 0.02216983531214795 
0.02186152626566303 0.007717882698884931 -0.01152228114939177 -0.03326185494092056 -0.02424199434644421 0.02124514793361693 0.01409887480685515 0.04986565838030069 0.001792742236387267 0.06449830332157329 0.02576538704205211 0.0379696947655354 -0.005895143111989516 0.00694596868378532 -0.09122143578910442 0.02158358922148168 0.0256705769376013 0.002192931110592718 
-0.0482816483129779 -0.02250021746111774 -0.001295660627389653 0.01438376467835764 -0.00804385546301006 -0.003700483273737969 -0.0007643566466224589 -0.004366334619768915 0.0001992455741852197 0.001415750804422646 -0.008810659730924313 -0.01361405634517934 -0.03680283628236523 -0.007207685720186164 -0.0001271864581419618 0.01403531722935033 -0.01375883329603754 0.01611474951699862 
-0.009072887159775262 -0.02775799530897968 -0.01043640852424198 0.01369184034165391 -0.05059318921636456 -0.007030825777796881 0.01015976744630614 -0.03489659134758417 -0.02697966227093083 -0.04353437745382824 0.01236907758457105 -0.01245093311334957 -0.05684715922643396 0.006960471947144711 0.03732437074266376 -0.02797290166455836 0.04827305027080898 0.00336289798604286 
-0.004282972996325616 -0.02114902785075902 -0.009915195475981154 0.0128159527281568 -0.03897292148600097 0.001643983886382691 -0.01283424616220667 -0.02466595133684446 0.008888933917274001 -0.02152064997717138 0.02348909739295358 -0.002754348047432192 -0.01320394021081656 0.00283276852312782 0.01705577769332874 0.001228826615763794 0.006432824197627326 -0.01119030830727263 
-0.02661571575144883 0.001418401981395362 -0.01478280158020751 0.07547552801497662 0.004404499334864327 -0.005215426760598931 0.004914598771658305 -0.005912257073584894 0.02757924360854155 0.01896570541293014 0.003518145838164452 -0.007201460886165232 0.0289389141765669 0.003999700884400729 -0.06420038526080342 -0.06279889914671152 0.09659410190041318 0.0305490379553194 
-0.0223202306760036 0.02215900417843128 0.01817912340873394 0.004400434281070491 0.009169370403695502 0.01478239087863776 -0.006564231647966076 -0.07076538846600723 -0.04703798629655112 -0.02554570311892048 0.04167128922902093 0.005588892370955095 0.02333150947211343 0.006422937200002467 0.009905021880290434 -0.005073847696389365 -0.04801006198032731 0.0290053809798641 
0.03171236139340101 -0.03501462301427677 -0.002054730352798751 0.002901668281521514 0.02625734402796505 0.01580011225462472 -0.01661214073429063 0.02306226292590156 0.01607190264536762 -0.006611698853322618 -0.04395003207542997 -0.02968996128666545 -0.01761590263849573 0.005812266351281307 -0.03501667312705083 -0.01043514524405224 0.02320703935833694 0.03945968000150087 
0.0296879826479613 -0.03579463585978169 0.01026506987674635 -0.05605705519555757 -0.008519598873597239 0.01075358242758171 -0.006996672518816308 0.01616787249780079 0.03784124127183192 0.01027849721206888 -0.007047277842520201 0.02125236260843126 -0.01039542004047614 0.01711776313690316 -0.009277936897005217 -0.01656346422144313 -0.02593664505121106 0.03905798980924582 
-0.003829476922150359 0.05406359295703799 0.03090411759526034 -0.003431040665058387 -0.0145316081164629 0.01725044469139017 -0.02109546280146977 -0.02587964133317908 -0.008968724358104587 -0.003860838976448504 0.006558017237376965 -0.02427250701901813 -0.04431320467555262 0.01136855945791685 0.0287621502452084 0.01043250541430632 0.0171386364677238 0.007000539203847752 
-0.03124955748729342 -0.05179533297889284 0.01740526222585578 0.01146890000767518 -0.004314079517014459 0.01893918738805824 0.004742779442645464 -0.01067698079400801 0.05375094814685973 -0.04496410563699878 0.04472164408753052 -0.02680853489403772 0.00257778469676327 0.01106628896470696 -0.006007997412332072 0.04769375440600387 -0.007878727043924718 -0.002444874120422739 
0.04500511098578708 -0.01970041448900342 0.01285995328917798 -0.04185330617111809 -0.0133167146527816 -0.00284015933965179 -0.0001727782623292877 -0.02914592251082546 -0.0306056527448744 0.04450686082187705 0.0102745569264633 -0.008432085768483016 -0.03835470972151571 -0.01977745716189044 -0.05913909454958202 0.01460529006663424 -0.07428413926440432 0.04232251355200053 
0.01940886214002292 -0.01939302180267704 0.01792459927482302 -0.01527094583701334 0.01898548970848692 0.01531493999172748 -0.002053193576564621 -0.02913911225213334 -0.02137859669188448 0.01182044468470192 0.007331705938640087 -0.02498125051644304 -0.005544455991621518 -0.05831309030040059 0.01801170011458841 -0.0127958275793407 0.0008403662378245847 0.03770121569449131 
0.0003356954232281779 -0.05458363181378639 0.01816855702787206 0.02070399964272841 -0.06219701927003567 0.01657441451933798 0.02913329734368669 -0.01628181131021142 -0.06675659048273888 0.00381513184524401 -0.01459619336409812 -0.02663092974729222 0.03783815784657349 -0.0149940124248754 0.002558327102123684 0.01823045133815885 -0.01782241968751291 0.0447183581727549 
0.02157824714391778 -0.01089772292843178 -0.001301983281655887 0.002851973699467552 0.029164991358714 0.004719269114644821 -0.002853247613359923 -0.005178250158136846 0.01956782053260975 -0.02452139802546728 0.01367434888381618 -0.05389842252690614 -0.001714740135819701 0.00109200613919873 -0.05429578708149133 0.002964136121721079 0.01439141750928542 0.02838995959884314 
0.02400278496671433 -0.007017094004546135 0.005506575805172305 0.002330840013080235 0.06089432743258636 -0.005842963369528205 -0.03235033190840424 -0.03442241592588733 0.00786101795760275 0.01167106646853222 -0.009056269455970342 -0.01716010927230662 -0.02813801300296117 -0.02464333920721137 -0.01600788070580747 0.02777667969386149 -0.02695837502653494 0.02802254471446939 
-0.0001967558862758244 0.008836636569539544 -0.004064506642163884 0.02415228241252462 0.05324188248517768 0.009378324929185805 -0.03287646114606878 -0.05168526941103404 0.04835388093414585 0.007878999587956889 0.02420317025008683 0.03938608517202415 -0.02719844426447625 -0.04033808869618107 -0.01668470611707227 -0.02186153993494776 -0.03700975251152497 -0.02325143134049044 
-0.03911792267848149 0.0003746871366288298 -0.0176913988780488 -0.008821719631451745 0.07721293024682398 0.009923366989566225 0.009789640754688493 0.004869951593073978 -0.01094389942531384 -0.01944083957867201 -0.07474560602792543 -0.0166771633613442 0.005958274848717456 0.003691463231870548 -0.05009772879382676 -0.01694008117633416 0.002536655641555867 0.02248829731046362 
-0.02157726675574016 0.01899811652054902 -0.01273194548461936 -0.02039231621763472 -0.04905628045087974 0.0672781431202055 -0.03055758605756157 0.04571115727594985 -0.05508149061897207 0.01523652536598218 0.004769504347117721 0.0281819970171983 0.02376798004305824 0.01048501734074416 0.0317690791915038 -0.01903620726193032 -0.008677982642415146 0.002453466924214232 
-0.001452530407876516 -0.05490211749136686 0.02466142153943879 -0.02371797313072267 0.0009743981638859879 -0.02553499295324204 -0.01782711430482603 0.04564920767488916 0.0153216175470395 -0.01153064084815462 -0.04571667387405495 -0.002477062136948431 -0.01836856216547397 0.01046959555899641 0.04918644972150182 -0.002405957333626775 0.04295820426260206 0.05490395597160442 
-0.011519061720116 0.04678828844243939 0.01382935898636583 -0.006472294346013979 -0.009836273091288917 0.009257007329266289 -0.03574287450568294 0.009565080153803213 -0.01482791931283307 -0.0051503920392674 -0.03710704837337615 -0.03555876655510381 -0.004313151388951022 -0.03632240042756564 0.008916382152139494 0.01209929504744739 0.03632048115492587 -0.00542563836159745 
-0.01309399194942409 0.01631017678664626 0.007659096367337821 0.0284018868618556 0.003380309988650099 -0.01728431007075971 0.005222598932042482 -0.007101481883083421 0.01478727041415724 -0.0007859439333521291 0.0407882399735504 0.02527503226165798 -0.004601770332868263 0.01423174758057775 0.05199935880529558 -0.03069310705283781 0.02850275158124248 -0.005559327076510294 
1.70171132901776e-05 0.02103211309907062 -0.01840288367224356 0.001375507099899746 0.03245556751610125 0.009791044860699628 -0.01264141749766682 -0.009420912981140513 0.03285914004241017 0.01558169577090695 0.00172098921112315 0.01266557945566773 0.01773812843903226 -2.342328591433541e-05 -0.02277477128465145 -0.01345383415034873 0.02092141625127829 0.02515743640072741 
-0.03736409356008101 0.02750870752332024 -0.00253770703215517 -0.01368258951923339 0.01067285211850333 -0.008716478372053223 -0.003236680057261594 0.01062988131147081 -0.03516617162138056 0.02420700449866153 0.02092506765499874 0.005953301273831897 -0.03715500008863881 -0.01475247766699323 -0.002630417143638684 -0.02738147279043658 -0.008063029654379224 -0.02459516838739611 
0.02516877151846781 0.02591560323618744 0.01066351449296928 0.05202069703867872 0.05622572780392325 0.06346329475348182 0.001191620476176794 -0.02733127114165441 0.02396503890049101 0.02056953136221297 -0.03326335071584018 -0.02009269957631572 -0.003149872827583498 0.02122524224643629 -0.03960138895235423 -0.02012635867662457 0.07426370393947114 0.04280352962836897 
0.006381243602923692 0.01006545115613024 0.00619132156223038 -0.004912677920257723 0.01613318371751973 0.02753797847804182 0.02397233077843777 0.004443257191695175 0.006449632327004067 0.004429246779143482 0.002518034983743778 -0.03725904824601941 -0.007527082644981494 0.01111528529301339 -0.03392322885272602 0.01477571179037248 0.01976697312143229 -0.007383697605038572 
0.05500139262765063 0.01212509595419995 0.004142306330597981 -0.00391527189177582 0.00400370775874009 0.0001216186520548541 -0.01082763554774695 0.01298934506643699 -0.03342237940834301 0.009516014671317408 0.02347922973362034 0.01453248645946166 -0.00428529046413822 0.01298564774637901 0.01150629349117498 0.0217900855705556 -0.01438877123095313 -0.05045743978821376 
-0.03935377883544822 0.04853136928268706 0.0016624784018357 -0.006026675074982136 -0.01304354168863092 0.01477200664262946 0.0113757429776495 0.004982182819316045 0.03628872425643773 -0.005482344828284995 -0.04561471513379821 0.001275120101173529 0.03506861212566949 -0.005986594394719079 -0.01399804350203174 -0.01058807747671853 -0.02004473985008022 0.01503704121650457 
0.02410553328918135 -0.01088561594084167 -0.004055721099884078 -0.03506145284056329 -0.003213012987983007 -0.03185498213564436 0.002401873506367421 -0.0274044910549003 0.01646347961270081 0.007755601097969679 0.02144948861489866 -0.02600800103239626 0.01829273430915288 -0.003217433285715834 0.02376574036508695 0.01958993645160115 0.03304685410486307 -0.03770960189434878 
-0.03122185677312698 0.001076680899293613 -0.0114673643064799 0.04227565268786774 -0.006421411401750764 0.02907371587428932 -0.0006048452749821475 -0.008622911974746315 0.04188088512373166 -0.04270630145097962 0.05395265227361127 -0.04600342725785043 -0.03350259564334015 0.02378158065113405 -0.02506671775599868 0.01620320698878579 0.009695664512600264 -0.001241341619824375 
-0.02881764278212517 0.01403901734120807 -0.006903658910397968 -0.0330861923051075 0.009213318329725181 0.003796776256408751 0.01278958523688506 0.007639046923317218 0.001808757338824589 -0.001066791508493029 -0.01729929233837265 -0.0108747700957598 0.0009976767056679733 -0.02201384748522029 0.006993720083719297 0.01279438452635955 0.0004087970121984428 0.02946755547622315 
-0.03418929269269484 -0.002230549523947386 -0.005363806136568493 -0.0257199242699225 0.04357706315179202 -0.02018052848128915 0.03075668797289046 0.0374031110645079 0.03646684076703724 0.01400171307152684 -0.01526120471349872 -0.02905705355810072 -0.003246163934573056 0.01490053844038637 0.02205222582966392 -0.01029993383823736 0.01273822112638699 -0.0364540645188709 
-0.006079909231331173 0.01285040359258019 -0.006699647017520196 0.05014942819591589 -0.02625811616311696 -0.02059317611632865 0.03454382541366299 0.02338679375042581 -0.007410068411908936 -0.08774657278296816 0.01139046893269951 -0.002545285454368087 0.04029680590504611 -0.009019797812020502 -0.0236480637832111 0.01463836264801366 0.00520810700109503 -0.01465289172769811 
0.0034288445599787 -0.02785977236537457 0.01988635917730102 0.02391592447676802 0.01414769215195923 0.009659162962427857 0.001125662029822416 0.01362520769767197 -0.05801340036795873 0.01476771381092592 -0.04587564335398227 0.003707067695302659 0.01996343220985019 -0.0009696694114507689 -0.0138297134925249 0.003961916293757125 -0.015134759862349 -0.003352250636696032 
-0.01083931195083987 -0.002354029239666627 0.01640938825673882 -0.02469737772965949 -0.0278920642070414 0.0069901474528179 -0.01112144507114809 -0.01537430017470952 0.007625952407969535 0.00448357050317807 -0.02988306473438376 0.01053450940397814 -0.001809579078553057 0.01794744837158102 -0.0292297050739944 0.01943085916454421 0.06532732768456845 -0.0625080533342406 
-0.02897302585911071 0.02349861014756416 0.01555964427871916 -0.002355804267798702 -0.04544931395801732 0.0004602377251557707 -0.01386022254998847 -0.01360709731306111 0.01294786989498536 0.0312928226454568 -0.03658205350195606 -0.007507390833598244 0.005341919339891493 0.004343107135167935 -0.01720667341636636 0.06327236840492656 0.001655028678592569 1.148645626492025e-05 
0.01968109607913809 0.0008617956612643156 -0.002246205120801305 0.01574846373825112 0.01837509304320269 0.01045292378859977 -0.02194290460983759 -0.005174690924148764 0.03904198331488549 -0.02526557068743594 -0.01615466050639353 -0.006035738444401067 0.02766695543594653 0.00611916016862467 -0.04040564496605914 0.02679130419883931 0.03089183841389535 -0.09820952224660813 
-0.03014337599522669 0.02994898897018701 0.008640753371656758 0.02464931627801635 -0.01475450231926599 -0.01075783111479815 -0.008385074731647743 0.01021544538286137 0.005034314269024258 -0.0005998895788173596 0.0360842704670543 0.002301188369526894 -0.02068623499819176 -0.005108296880108078 0.02674985955218947 -0.0224237880360291 -0.002441248386972198 0.02459773281391563 
-0.003234075391696375 -0.01749075450280181 0.007328175307517891 -0.001317968499219297 0.009888357076467822 -0.001439466140226864 -0.01138981987934885 0.005687192212599054 -0.02636954339458239 -0.002194588461333018 0.01972901862625161 -0.02127488444085245 0.03325778041359053 0.01026866825425318 0.01353005433366079 0.01748950080949434 -0.01229698141690278 0.02470995448863074 
-0.03499114640928534 -0.05368469849632762 -0.0071171970618851 0.06754676762121541 0.02484091917864063 -0.01139982895296157 -0.01669501802231683 -0.03876459530038999 -0.01302285097814633 -0.004676567667792789 -0.03533301459591787 0.01585748093610903 0.006399486924913345 0.0001238186754781294 0.01206606916011531 -0.007188841564937808 -0.03088873443285989 0.002412801036170539 
0.001143274535820203 -0.01783359640421882 0.009415179506376787 0.05817488495551167 0.03461509397038293 0.0138831966838633 -0.01975826343956075 -0.0008276489630750761 -0.01713326099521903 -0.01630107484070899 -0.05053054927301727 0.01240655750693482 -0.02805703100930237 -0.00145921117970851 -0.05435206831556443 0.0006656807309143733 -0.02489091766154055 -0.03457171323019575 
0.04266224744846762 -0.03461600126964985 0.006844557720860179 0.02019349336016654 0.0580633573973681 0.05520562950809792 0.01680131395208062 -0.02253728955698629 0.001774937197575434 -0.02464164045360988 -0.02927974506477425 0.002956780338132742 0.02706005481146637 0.0361826913105229 0.01546490081280657 0.02368376201603693 -0.02149370856954023 -0.02395233997983752 
-0.09801398760249391 0.01531370010340182 0.009044956557002604 0.00474979126711723 0.03115701222855412 0.01013800755311238 0.003293571015081629 -0.03369355127867744 0.0377092272550161 0.01114333656243607 -0.01289411392378561 -0.01299259465617493 -0.01890318713131747 -0.03730126619908376 0.04121717005833397 0.04247811100836966 -0.06299348540250997 0.01716919778166517 
-0.0440592668727972 -0.001691468000004009 0.000797629785472639 -0.02637187283592896 -0.01151119419164341 -0.01816708309673083 0.04159376554743165 -0.001094576951011284 -0.01427601212036978 0.00463580329369712 -0.01479006841785616 0.01274238563119787 0.006416268790065417 0.01722247123616297 0.009864338468204288 -0.05288920258423823 0.02862439910612545 0.01320053023143113 
0.02129879512832894 -0.012006676106387 -0.009925468022457206 -0.03765852410900461 -0.003366574879021222 0.01637672573626046 0.006748954913537471 -0.006948612688818002 -0.01022604411366886 0.01786805262315328 -0.01760019413054087 -0.01302157536336691 0.0005287375311529046 -0.006966661134536048 -0.01344052127325861 -0.0257561793451298 -0.005821115209572174 0.008913532686431245 
-0.01340030524201334 -0.02735790947903766 0.0002657650965808004 -0.02379365575759134 0.02926774963514612 -0.01065394045540863 0.01791827745637592 0.006168544995139374 -0.029872956524049 -0.03260031935119122 -0.01948865251634236 -0.008935756480663071 -0.01186941200703179 -0.000642559258131837 0.0120012148275536 -0.0175860740537229 0.03581713575246458 -0.03722811248912678 
-0.0292454986089334 -0.0001860709775185742 0.0024862057811762 -1.331944988821336e-05 0.01469161445546748 0.004395111525433704 0.01659733921368146 -0.008351065874875491 0.005342020384512442 -0.02178009219448908 -0.006756784871966119 -0.01560562348633273 0.005548833404304479 0.0009400794062157881 0.02881930733301687 -0.03895422390283775 -0.009132356753170061 -0.03553046751544679 
0.03606542788542565 -0.01730339257696634 -0.04206637084457986 0.01561266764759754 -0.04710026413940031 0.008461253104917674 -0.004262428075076658 -0.01576993111081558 0.01077435349313531 0.01838101269877656 -0.004600363153755858 0.03037992066652023 -0.01550340109251661 -0.0452093823362858 -0.02610220997687912 0.02297596372786453 0.03996096853717582 0.02260582356570473 
0.04116033519518821 -0.04808680273625329 0.01510525497479877 0.01481983026864844 -0.01161230124172629 0.007882838283509124 0.006989449478947199 -0.02009969049379067 -0.03517858447938021 -0.007697695842896066 -0.02712012471103258 0.01706452067995214 -0.03196189615071014 -0.03301995827456133 0.03935968848040203 -0.03376097526892591 0.005176285929189878 0.01161767931451511 
0.01288375003953084 0.001933412628159501 -0.01249058827922819 0.009788838413684137 -0.03657178587443384 -0.008779657708316811 -0.006726507125704656 -0.02711976387871219 -0.01001793899960139 -0.002451683666538368 0.01040203060859586 -0.0286531421924268 0.02094643803994254 0.002380010468175711 0.03017861728054758 0.05790288848111365 -0.01357159300798877 0.02105425816915102 
-0.03384055038732597 0.02507997683576954 -0.005883892530196189 0.007389335145154479 -0.01993673891773165 0.0242513388317776 -0.002405041382024255 -0.0204115844518229 0.05539365206941592 0.009115168072341567 -0.00887104157516635 -0.005372359614291048 0.009592643767013792 0.007285963456216332 -0.03666773818659922 0.07024308439578907 0.01923599383276478 -0.06516436860933132 
0.01827435827104201 0.05032287935238397 0.0195122097422084 -0.02857505599014878 -0.01877646694372295 -0.03738415975632216 0.005550408518006685 0.009932734991377269 0.0003488762562531876 0.001856667727174586 0.04653597162804848 0.003522288277207262 -0.003064003640333907 -0.01294924566525779 0.0403694833150657 -0.005123704024405895 0.01881524614380311 -0.02964511922945053 
-0.007823711967307512 0.02352858456971492 0.009878847015730767 0.01161908187429053 -0.009276682151348865 -0.01083750126797379 0.002857315373204662 0.00669218734050311 0.002804226981245459 0.000315332695518013 0.03705205017668151 -0.005615035377937143 0.01666343086393111 0.0007893051002927912 -0.03011376496273897 0.001798768525886314 -0.006631679083475261 0.02802370259678179 
0.04608435716972692 -0.01876750404945431 -0.004565624702442853 0.02268059344582811 -0.02037868020882155 0.02496463165054738 0.01254371390158227 -0.02946239104304156 -0.02569515276134465 0.02904351816096778 0.01523577534090893 -3.476368109945994e-05 -0.03307804586458257 0.02387815763268738 -0.01429466071623556 0.03099227732299374 -0.00282499734402108 0.01402910594146887 
-0.003049452346400185 0.06334559470308222 -0.00116497492965847 -0.01094654411059515 -0.03446981643480446 0.05674219690325311 0.005673593002685099 -0.01240517899377846 -0.01577404504243565 0.00514199768220177 -0.04100003667629277 -0.01018760863087362 0.01392482590543139 -0.02011489152758013 -0.001946264332192082 0.06110175449283319 0.01186615241899809 -0.04658103859383822 
-0.009560577635962774 0.04024845276687134 -0.04716754420194284 0.017100786628333 -0.009790443164598706 0.01763554096822292 0.01680583312238905 0.03268656001089255 -0.06674605006496259 0.03622319795501847 0.04898335670010515 0.0185204436421873 -0.006815399617364253 -0.02305539519969313 0.01105895085296297 -0.005322153522799604 -0.03755735695467953 0.01839939639435112 
0.01206409431446056 -0.01252008802726464 0.003584381044819426 -0.02451808211926159 0.02832008397888936 -0.01393560391376281 -0.008328800475768984 -0.01189265225370571 0.01754676178569025 -0.02142938895573246 0.004681238573270601 -0.003434296073639457 0.00582330941534996 -0.02529145628336256 -0.01748046163897494 -0.001324831517099273 0.02714254797697975 -0.04490578246099183 
0.04330636096657038 -0.004053717058230744 0.02091534293202395 0.03231669275733413 -0.03186223292067813 0.02599974455315233 0.007322560958818306 -0.01982159751798036 -0.01194108326606756 -0.01684932087756421 -0.002317904723635756 -0.01901254019398821 -0.006359319420202407 0.04448191619475699 0.06388358039382573 -0.03840975973576764 -0.0130590953372758 0.0321437745115 
-0.05720221738292223 -0.002727117301235474 -0.001677199467317958 0.02955190016163027 0.003231485909482456 -0.005644528253840129 0.003610698037303898 -0.03268165422408 0.007218715843173158 -0.01288099864249673 0.04429218430592081 -0.007616246586498465 0.0009317185819259859 0.01074794569275958 -0.007073488657003749 0.01525291496215742 -0.06657647259651063 -0.002653206152418489 
0.02127664894655748 0.008512261164252776 -0.0004030036328798308 -0.005251561700557735 -0.04516492939586515 -0.006882161077816336 -0.01007566750161589 0.03395663720769874 -0.008736868228454991 -0.03523726261506929 -0.0096788368136283 0.00325755015089427 0.02055411461340149 0.02701652386147635 -0.0407100513863746 -0.02151741891231718 0.02424983401728196 0.02615042627583845 
0.003645784276880798 -0.04425756436039822 0.05413944146871154 -0.01767594076525452 0.05255049017039783 0.03310054505076844 -0.002384841100772259 0.02455991143108754 0.01790143290317822 -0.03033654221854526 0.01565624877664784 -0.06283741916430209 -0.004179618972998061 0.03421316707272431 -0.001037854781316992 -0.02159622107653203 -0.02816540876380284 0.01265265632556138 
-0.02002800784390593 0.01653082376092062 0.00980573384715901 -0.01483943080954592 -0.02711171236312182 0.01550884473528964 -0.01987134063162968 0.01497709330635273 0.02200548984771908 0.005570182131015481 -0.03674694767189066 0.002225118511046837 -0.01487946204400637 0.0004016525128644001 0.03892480555629337 -0.004162471635114101 0.04084246907948148 0.02523050846663296 
-0.02903368514891509 0.04814621960328352 -0.003470247672090373 0.02300277149102416 0.004396868277247085 0.01896456885612467 -0.0278220814871225 0.02784189723674198 0.008736220574960431 -0.0105904454257923 -0.03695692754088458 0.009672173239783819 -0.03518117133765279 -0.02201402076729314 0.001431866457408406 0.03331623453503207 -0.04807318046492381 -0.02721375729978334 
0.02068383062852581 0.0006859940705351016 0.0140329583200852 0.0183328862673866 0.03099126199371768 -0.01312660281643137 0.02268814572721741 0.001420919597792533 -0.0011846819244466 0.0128857783066741 0.007535864755354461 0.03212841626681176 0.003110485842487774 -0.003910014021309536 0.02508712114137594 0.009376629781912404 0.06746685062080256 0.02175218374856364 
0.01496196223905285 -0.04224344656063532 -0.01936624219154757 -0.01026865156022946 0.00319167695370877 0.02539854248216695 -0.0196489729593637 -0.02068761266958243 -0.03414784315323123 0.001733499434985136 0.01851608694857065 0.04696699819593248 0.008577651091489339 -0.01206880614415937 0.02579554259316852 -0.03072554697397621 -0.06237869200781138 0.04448222692764463 
-0.003367576094465672 0.03326971931715984 0.004980254825992713 0.005547528500272171 -0.02825679626656341 -0.03759773605340121 0.008440268229787898 0.02041653506154049 0.04250691821542397 0.03853841273613384 -0.000296978846267723 0.01355127418616346 -0.01581659831339294 0.02125792292579557 0.005220140635510752 0.007921246265481893 -0.01865827441536909 -0.006234177950380644 
0.02886885019708436 0.003787697367559611 -0.02132700970152419 0.000386898812769632 -0.00293823328078544 -0.00845982419028222 0.02932834390659995 -0.004379872667932628 -0.0003798906113922888 0.009996736503045452 -0.03892821514931434 0.01613505937081921 -0.0374759249773957 0.009032690567505051 -0.01373410722893155 -0.05377233571200838 -0.0006869587804013163 -0.03278266862589261 
-0.04457388736313295 -0.01045389229761031 -0.005025695414909654 0.03943847597848875 -0.06656930229820021 -0.03909001034460821 0.02730934129726925 -0.03673213228342221 -0.02594154135473441 -0.01691484235736573 -0.01442431947145401 -0.01638041930144567 -0.008518195031844757 0.02665965724617489 0.05214304429889343 0.03544154979529187 0.03879667148610561 -0.006538998834615309 
-0.0664081353372234 0.02476978344070114 -0.006048282103005336 -0.03280130419337036 0.01246914217071017 0.009075277103015436 0.004146469853477534 0.001523423750284441 0.01361646602883947 -0.06626858058374795 0.04787666028414768 0.01222464177592193 -0.01430779223746907 -0.005238134915076162 -0.01571962938152423 0.0226929752836894 -0.03891667577209854 -0.03005028804125253 
-0.02869288156905401 -0.009982978600065692 -0.006706769631273295 0.00373921576405174 0.0544414127576396 -0.0004870592456282523 -0.007228277459978992 -0.02416162167517453 0.01634526253948292 -0.007156322766345475 -0.02689697360956106 0.01805998941775363 0.002325487280925755 -0.0275440612638701 -0.03028412984455667 -0.008081391084271264 0.01374530956445276 0.1199101031891366 
0.04077305232513419 -0.009042807862523204 0.004075917308905152 -0.01043998418285268 -0.01312389065550571 -0.004127614540626 -0.01952116692972766 0.01569390234909269 0.01793257068481212 -0.01093075038111586 -0.0035038602762729 0.03626561742221589 -0.001641815474513153 -0.01065949571799843 -0.01999376748935429 0.005715816416981971 -0.01298672256790981 -0.0151451420607719 
-0.01796525652003863 0.02582102415924764 0.007089162856349194 0.01858393580718754 -0.01779305515669658 -0.0005618513972139346 0.01144172800651874 -0.01209289147437164 0.02499090440439027 -0.0193705504941287 0.01552395668073455 -0.04104568008287555 -0.01519287008599126 0.006614127926391073 -0.01781835658862663 -0.02251325224300238 -0.005908910657323371 0.0001023627108427369 
-0.001548006610490535 -0.01459222478194321 -0.01341530476452405 -0.03040746641821008 0.005370354188068368 -0.01562068738253632 0.03241879764230819 0.007051361673470436 0.002643065177047323 -0.01218985073399314 -0.0041497304059533 0.01155610906927518 0.02844252916248648 0.006276071500360786 0.005660141087630213 0.00197132586993153 -0.04636376668238403 0.02346067209115654 
-0.02199719842254087 0.04176911125350567 -0.01686345058700255 0.02086049367949854 -0.04060686931195796 -0.03286100098683973 0.006974634993163848 0.02679673271753854 0.02089874980710312 -0.006051307179784617 0.05716111726557171 -0.03039788325813973 0.01685074087948921 -0.005908049613056403 -0.06418735092264223 0.04180574699089688 0.02029105165513558 -0.04088328271393298 
0.04070638556884357 0.009119383232595901 0.005485732816704132 0.05817462519137926 -0.07424644675882014 0.008111779911340846 0.007512196345083333 -0.02158924884453525 0.03822298943853317 -0.02615873658224431 -0.007202134414856276 -0.001875644589169112 0.002261229656202104 -0.008975225289153758 -0.002579626688376835 0.02408489977319986 0.0196697816672642 0.0003189769642019975 
0.009316995746864917 -0.007197246669430215 -0.01496827908646051 -0.01221047157018442 0.02293665729440562 -0.02083562911113781 0.007339020037210835 0.01553049230928407 0.01302402055693934 -0.01339759001210319 0.01369468265106519 -0.002812957397106726 0.01881969790275707 -0.01147878863511854 0.02416168248131494 -0.0007237965732268613 -0.01092837011776102 -0.03393554518918453 
