solver_type L2R_L2LOSS_SVC_DUAL
nr_class 2
label 1 0
nr_feature 2604
bias -1
w
-0.02185742563593457 
0.00628629238382086 
0.01586797855745588 
0.02302616378480457 
0.02927728004714036 
-0.01995471493483556 
-0.012753447407803 
0.01434472510917805 
0.04934485642714579 
0.02642034883787873 
-0.05285133755535235 
-0.03417664726501638 
0.003615056369127686 
0.03481658657257234 
0.03730022372472122 
-0.01216882694633998 
0.02009847624019317 
0.009939559925402953 
0.02211522705489087 
0.01382313847430476 
-0.01630771283801228 
0.02005585051348257 
-0.02286857760946971 
-0.07064264159088507 
0.001413070840533523 
-0.003885405501568984 
-0.02071056792783848 
-0.02139819358714678 
0.06247939372045613 
0.02727381019000488 
-0.0316563555896793 
-0.0401024706731441 
-0.02962310145503459 
0.03905637620098763 
0.0312900891765707 
0.0032531661123135 
-0.07533131729591844 
0.05201262353986806 
-0.002794232121625645 
-0.02901381853804258 
0.01140463976162724 
0.0178631310930936 
0.02577796491982738 
-0.01193229121504895 
-0.004865968479614484 
-0.008914762159609142 
-0.001023878777652761 
-0.03652967535721553 
0.007314762665968802 
-0.01680532501071785 
0.01050430796053784 
0.04774726592591923 
0.03625307939736744 
-0.04704015504422913 
0.04902974060623441 
0.02106130854672326 
-0.01446179326174183 
0.005049387429729974 
0.04086253248480645 
0.01399312322409231 
0.03754700993308789 
0.0114825024989516 
-0.01273779546299725 
0.05945554510499737 
-0.01931034295825399 
-0.03225866868164289 
0.0357564118205466 
0.03252885655413833 
-0.02617962295658317 
-0.01373110035416946 
0.02655659837369698 
-0.04069527846942757 
-0.03866684843632017 
-0.04386738987081441 
-0.02655312049865963 
0.04504191334463039 
0.01814334152673172 
-0.04831427080949972 
-0.0006067576760443096 
0.03134481975045984 
-0.06617977741337677 
-0.0001806607720929508 
-0.03732226477730281 
0.02627017269448457 
-0.04465747490482486 
-0.01039428173593604 
0.004487324258696081 
0.003550056598429106 
-0.01490064343460974 
-0.02640228728392375 
-0.003912423252752029 
0.01007895617053257 
0.005668359647444093 
-0.004298254360620841 
-0.03318806079718846 
-0.0544940508270547 
-0.003557174319780075 
-0.03231526711442712 
-0.01367525774025306 
-0.006867593118248616 
0.02142277886509915 
0.04074757704419252 
-0.0272182382498002 
0.02361737245456653 
-0.005743889576767869 
-0.001333793589104445 
-0.001730890843151842 
0.008573240080122073 
-0.01577325481396107 
0.02049221044495632 
-0.004247748119479315 
-0.04924073796619276 
-0.01642522761177433 
-0.00545068640867713 
-0.00708102464613451 
-0.0683937282217264 
-0.02185679567773591 
0.01777816292516174 
-0.0006182157822949314 
-0.01667012613871963 
-0.04854000806342127 
-0.00576489783636439 
-0.05935119344281638 
-0.06237002759149868 
-0.047408509340064 
0.02805541186194279 
-0.02908702729329042 
-0.003281512597624944 
0.01206936649964058 
0.006520577264256921 
0.08129876467822242 
0.03944450726400567 
-0.08482440177738265 
-0.02026971389628227 
0.02377460665611843 
-0.02710786139045678 
-0.0289174399455269 
0.02414770712176343 
0.05897554724044015 
0.002641041509622068 
-0.0003204875686541494 
0.02261323135018003 
0.02448619484947842 
0.06113786844414896 
-0.03492653022487153 
0.03960177743592225 
0.02667934186929308 
-0.01823265885327315 
0.05919275835509948 
-0.02417462234564128 
0.007070879754971851 
-0.03278763750974936 
-0.04010662071705579 
-0.04076056276766089 
-0.02326542757624102 
0.005743119814136483 
-0.005649747803464138 
-0.05558683474614692 
-0.011234599106361 
0.04969379383866631 
-0.01460800118860784 
-0.0218649878793578 
0.01999409058889336 
0.013625106336843 
-0.004505586321210473 
0.0006298177785853047 
-0.02455426788617348 
-0.004831884014489224 
-0.005006883842669483 
0.03481910367298006 
0.029674543529834 
-0.001867407820140081 
0.06552048946715558 
-0.01369280362043939 
0.02191346472214778 
-0.01308782827327759 
-0.0009449176709569456 
0.02537550312906315 
0.004179604127251859 
-0.02125311858865931 
-0.03057127683635768 
0.003099934993796459 
-0.004571576828897423 
-0.002465100247015313 
0.01184165761063363 
0.04338602540363096 
0.0107960815625267 
0.02480888278320937 
-0.01551116845101148 
-0.01619506191911876 
-0.009637485840110992 
-0.07862054386067713 
0.005256777556074383 
0.06744759816612614 
-0.002667159950444685 
0.008237434892200574 
-0.01458915885470446 
0.03311754736177683 
-0.0008705007460209157 
0.04796991799090949 
-0.04633509304161623 
0.01970457800095893 
0.005054389341007165 
-0.01252063287952566 
0.011670230525789 
0.03872996123366411 
-0.01865578238078384 
0.04477972233282611 
-0.02041675049510666 
0.03392562586089365 
-0.003090670457137938 
0.01623248823122788 
-0.00812785953553582 
0.003104370670470699 
0.04672336959003508 
-0.03624323707662345 
0.001728154832094668 
-0.01124952212857343 
-0.019600707924743 
0.002178341783935324 
-0.01576851170122842 
-0.008607683474854312 
-0.03966712420174153 
0.0100978802353377 
-0.0389129675682221 
0.007012271830012209 
-0.01263932221735867 
0.01461487596729671 
0.0157963083538033 
0.01827708543534597 
-0.01919198173896531 
0.001750941097585528 
-0.00679980301169232 
-0.03800037692005529 
-0.01040711726724709 
0.02540692340627407 
-0.03838702804207417 
0.02096914421131825 
-0.030300711313329 
0.02028939873625597 
0.003960617597608405 
0.01165014600209797 
-0.01718531497254587 
0.04591110869429933 
-0.01432397510063325 
0.02371517654523574 
-0.005340857229244556 
0.01868495597328839 
-0.001202402517959212 
0.02301083392498677 
-0.03308216309148725 
0.07517196849429701 
3.758531148534612e-05 
0.01710514494597996 
0.01373685159762271 
-0.0548786368022113 
-0.0271573883269513 
0.00894128465487699 
0.006795853298424775 
-0.01460400773075021 
0.03569013016396828 
0.009335662385299301 
0.00533071500586631 
0.001638048103243712 
-0.04507494527256443 
-0.0005407306332673882 
-0.02563693538273547 
-0.00731339357383343 
-0.0002266817715170594 
-0.0009566515242328382 
-8.487158504221084e-05 
0.04453310095352616 
0.02245674586118769 
0.0009857848144699227 
-0.01451995507132469 
-0.06154265995066075 
-0.002643568366389662 
0.05664777349166428 
-0.03364705282271843 
0.0275064703074158 
0.006032746218473296 
0.03641965013014315 
0.02920886641579968 
0.006866700049345816 
0.04636865376712224 
0.04368411597519534 
0.04098532463044408 
-0.002186788351035466 
0.01980966189295719 
-0.01993403969923906 
-0.0144404619126295 
0.01709135752791238 
-0.00611286642994707 
0.05045828574196509 
0.05260102083759034 
-0.006575557745685815 
-0.005484764964581161 
-0.02484342609476554 
0.002856170594493963 
-0.007897982741471644 
0.03956484416635804 
-0.01388748126049171 
-0.0452692225270094 
-0.008451108287966568 
-0.006279569866701815 
-0.0140483376069193 
-0.01908086633887277 
-0.009138187805583727 
-0.01900436722458287 
-0.03129659309387719 
0.01535035848117024 
0.009635093678899661 
-0.01768391553895516 
0.02868740236716814 
0.03542759289919538 
0.01048641445569549 
0.00950476453834607 
0.001207512166839507 
0.02584315754321492 
0.02870727415696942 
-0.03626656802795339 
-0.02586442050092299 
0.02085075954573549 
0.00771987048094657 
-0.01492481964168452 
-0.01390015619013145 
0.04028446778942808 
0.02630538202411795 
0.05365660132962079 
0.01170047051653405 
0.006557444056585476 
-0.001773706712699262 
-0.04271331326954396 
0.07666924377173046 
-0.05279282405311533 
-0.01733286961866917 
0.0361770622344273 
-0.01362875023119968 
0.008875481165856212 
0.04629455190550752 
-0.003638547604068418 
-0.05454803062238275 
-0.006434860266341364 
-0.03165973952926645 
0.01093785595619938 
0.03081137214323004 
-0.002834922773908438 
-0.0538593792096396 
0.0122326416633716 
0.01322453464905414 
0.0115306620569926 
-0.03992407763260472 
0.002822301841176544 
0.007740821998383515 
-0.02039136408247323 
-0.04169084665428684 
-0.01420870599551625 
-0.008569252396623084 
0.04484153428614226 
0.004573434493156084 
-0.004814551275857991 
0.009493184389378649 
-0.007169642523925199 
0.01205952786584162 
0.03735433567342906 
0.02919938612952312 
-0.02774801953867888 
0.02040562494011326 
-0.03614997100484441 
-0.001676733426405497 
-0.02632622806798748 
0.006355155327804801 
0.01635311397935523 
0.02723051753185093 
-0.05672915977538865 
0.03529978274573321 
-0.006333999520355606 
0.01582506207496266 
0.0821030823388085 
-0.03812627713605273 
0.03304708702575027 
0.0493761054891702 
-0.01668835761974753 
-0.007525140205646955 
-0.01207281254737116 
0.004337371430774101 
-0.01460657353573869 
0.01686864415481549 
0.004084220937482274 
-0.03350333086439287 
-0.007711182259763885 
0.00955555349231884 
-0.01523959810916057 
-0.05962187610568078 
-0.01793682135102603 
0.04350357767043102 
-0.01184784608418019 
-0.004126735967291262 
0.001233289196058243 
-0.009085828258280339 
0.006019600098029455 
-0.02387869223423602 
-0.01311272110650807 
0.05259123835625195 
0.001985972594452712 
0.0341494362149607 
0.01489135625879538 
-0.01765943101952626 
-0.03766339926338655 
0.04334042035968563 
-0.02979362140673649 
0.02881037212358938 
-0.01418548418600501 
0.02198946240490384 
-0.01958667633301224 
0.02220634018899463 
-0.05406902739525234 
0.007144395048688682 
-0.00252692267757485 
0.03828237723192621 
0.05788311430845786 
-0.02132842584741179 
0.02382860328973683 
-0.03387505165670588 
0.007877656221653857 
-0.03758741267156335 
0.001008135251557955 
0.007005339901692097 
0.03195475778897139 
-0.000263390290522578 
-0.02498155118002057 
-0.04944978941939909 
-0.02902194653536615 
0.001022916535541467 
0.01023365323895612 
-0.02925063331078792 
-0.0471945969442135 
0.04236954305568174 
-0.005676533222684929 
-0.02100991393282204 
0.01964365958218125 
-0.03562274288012193 
-0.02491899231273929 
-0.05173172930406524 
-0.01757597202375307 
0.05250793129595278 
-0.004213529223320637 
0.01023293388820838 
-0.007927370430986076 
0.03344764729150583 
-0.06385361865486143 
-0.03886158438502747 
0.04695833718895113 
0.00261261452331309 
-0.04811047213327223 
-0.00682615962666433 
-0.006014296740191026 
0.03780632233499065 
-0.03552936513976551 
0.04431917526805708 
0.01610951021691237 
0.04658086133200774 
0.02748565688981626 
0.01443222686320052 
0.02609411753245408 
0.01239054961958197 
0.072147681150061 
-0.01547301795668663 
0.05383250995064019 
-0.01215757038187195 
0.0003358863107437776 
0.02543568215568801 
0.02418415469679528 
0.0006068926474083305 
-0.004244536355633584 
0.00199108985267893 
-0.03632832552146674 
-0.02330783318053996 
0.01063051020124699 
0.0689256174349781 
-0.04117063841032344 
0.01653836659851964 
0.0429937997427654 
-0.03120580506022836 
0.008299594762558428 
-0.04707442144914809 
-0.009934092521006778 
0.03366253025800012 
-0.008304689614366761 
0.02470495163759386 
-0.0006929689215491207 
0.002925388555385987 
-0.07030941955816479 
-0.02966291699669114 
0.05995591086734384 
0.008941957405240526 
0.03412659504006395 
-0.00215391369093748 
-0.03232760840325772 
0.03537496315581391 
-0.0502353474074229 
0.02424811972904154 
-0.01076864388644494 
0.0354726957017761 
-0.02782072669235005 
0.03530331184056796 
0.00458061428836688 
0.04568185245223693 
-0.04534703410774009 
-0.02761913455965916 
0.003031838780094162 
0.04836246872404734 
-0.04660241806472069 
-0.02051711464427405 
-0.04096002409090024 
-0.0504657372358338 
0.03509455215768755 
0.01950365171840643 
0.01645055865476135 
0.001315022606426531 
0.01670585840195389 
0.05873581544071125 
0.05469078355499302 
0.01213594254179445 
0.0008888657008317456 
0.003416214810562313 
0.003968556969914231 
-0.01851181566015699 
-0.01094364816855847 
0.03116682961252351 
-0.06118141486159583 
0.02697528631613136 
0.01141598243645548 
0.01921834856158431 
-0.05892000702688674 
0.01967339134916139 
-0.02839868685322292 
0.07221806178889664 
-0.01410200317236169 
-0.006730493898870901 
0.004696716300125269 
0.05304424965170264 
-0.02253827731604221 
0.07430970746525448 
-0.02939901957089429 
-0.008566356614457687 
0.008010521013434441 
0.01955675516540483 
0.01416019775873772 
0.02948027159095408 
-0.001970018434165322 
0.001784948370343079 
0.04902102101626129 
0.018720344316407 
0.004534929178300372 
-0.002510940551222462 
0.00325620051534432 
-0.07572813225384288 
0.003325285098089584 
0.02191587016570383 
-0.01730003996843773 
0.01435507835890673 
0.03296183843213781 
0.03800488119061339 
-0.01290971920713686 
-0.01277165956628025 
0.0262322816261895 
-0.02731962532975288 
0.01242974636959951 
-0.03322789632347302 
-0.002675497605388236 
0.045667234375569 
-0.03903759411546074 
0.03405795518652446 
0.03297788386629899 
0.01088145260236429 
-0.08677555999725176 
-0.01731033610584467 
-0.005204781361250725 
0.03266119968069599 
-0.01976157458994283 
0.01808830175273939 
0.005553027532160141 
0.03278604173571165 
0.02013573895532389 
0.03238812185109237 
-0.02312594332926356 
0.002264428852728333 
-0.003901099002270123 
0.03246496113490478 
-0.00503067501737379 
0.005362260670820788 
0.01868160417466777 
-0.01601550150233258 
0.00642971963107183 
0.007918939973361764 
-0.05263136756153165 
-0.01032318429498495 
-0.05189798825704522 
-0.04027628921851079 
0.03652044919776443 
0.02071371725746645 
-0.008564934044896931 
0.01003819814045559 
0.06243133376302681 
0.0009429485735386732 
0.008606481941754928 
0.01161245414336115 
0.05213645939325975 
0.01203592859890184 
0.02568214338288205 
-0.04779710676262788 
-0.0342514460527252 
0.04386667208505314 
-0.04878575876527928 
0.02960784332159726 
-0.02636836700366384 
0.01107898608919008 
-0.05126075355505879 
0.00239013681056608 
-0.02257981038880907 
0.04112851277191324 
0.005687128063336722 
-0.005090713251044983 
-0.03146842129052083 
0.02498142630221155 
0.02624439609283158 
0.0368155100800574 
-0.008866662644748972 
0.01592572867314958 
-0.02844238812882554 
0.03073284804215917 
0.01228613065292384 
0.001064873266075172 
0.04310257893186529 
-0.01501432526185555 
-0.003833381242537277 
-0.01876100434862334 
-0.04004288471319757 
0.0103217097484929 
-0.05099890020707051 
-0.0468403608490017 
0.005078061056437509 
-0.0007527263538367935 
-0.01548224094967681 
-0.009095617602174991 
0.04344827057486883 
0.03595606175029394 
-0.006760849342506198 
0.03885043753960848 
0.004373871554999974 
-0.01420706769218129 
0.02010054541036204 
-0.02054331210305091 
-0.04429565796646043 
0.04164734395604291 
-0.02931366762480495 
-0.02143891267675681 
-0.03911384628669481 
0.04640147291101819 
-0.07803885039754516 
-0.03937142117020211 
0.03609714421582158 
0.01560167810739672 
0.005675346484431333 
0.02450382585265436 
0.0383244451198361 
0.04428044794839341 
-0.02279503111310039 
0.05186230248665711 
-0.0860263623913578 
0.0146250343610713 
-0.003572811555925758 
0.01866329426207634 
0.0549279611473716 
0.0245960309473813 
0.01502772302288136 
-0.03062327046865127 
0.0376692409304098 
-0.008187664132955418 
0.03498944635918557 
0.04113976606439401 
-0.006428346766789351 
-0.04177143990523762 
0.001138351552192241 
0.02897355474557858 
-0.0205794836134073 
-0.03329281102738686 
-0.01236603100628979 
0.03081309750777704 
0.01192355403580813 
0.04098579699390247 
-0.0472314920297612 
0.03703122903696694 
0.006247979639552436 
-0.03813095925531575 
0.01035442445471674 
0.0464128907190918 
-0.002648268373259642 
-0.0291263205485514 
0.001458154154259461 
0.02001882286608222 
-0.01421441429139591 
-0.002880015878312681 
-0.03533702133318739 
0.01123049467400022 
-0.01214325571425937 
-0.00192344885534612 
-0.04589794384572975 
0.02218036174352559 
-0.04311399515121459 
0.02395020589935037 
-0.01037550805866408 
0.01801266726812068 
-0.03288501656778132 
0.0009882448821831736 
-0.03135127665425562 
0.009854995557344301 
-0.03644836468882866 
-0.0506637518336313 
0.005863403043072845 
0.001724278582842477 
0.01494863464451176 
-0.009999284332887911 
0.0006966882825794316 
-0.02001266545891713 
-0.03067232393104049 
0.01292509056550666 
-0.009437767302981535 
-0.008887527780586012 
-0.02508121567809534 
0.02401375955643867 
0.02105448682583621 
0.0002896047547912281 
-0.002450366329204135 
0.03305496664200061 
-0.036001016423846 
-0.06395520678431478 
0.00651755098909428 
-0.001248808700392703 
-0.0153476184825249 
-0.02570214886363701 
-0.007566915154611028 
0.002953393858681542 
0.00852573988749643 
-0.0307391592661695 
0.01560128458748434 
0.01529725213299643 
-0.01520094319763375 
-0.01644519768876806 
-0.009654820290005611 
-0.005931303755488779 
-0.03825243309781488 
0.008062452962351942 
-0.05022500749830125 
0.006767532146738376 
0.009767636491120401 
-0.01545406986843454 
0.01165943990485857 
0.0250560125895563 
-0.02038090234047074 
0.02333050343969649 
-0.01631871395473091 
-0.02886818034855497 
0.01014721435026458 
-0.04759388525611546 
0.004581732619073185 
-0.04244646350880291 
0.02958225973615594 
-0.005600287508639994 
-0.0007821861063393879 
-0.009209668063361428 
0.003527126478350537 
0.02956656970645631 
-0.01082128354197142 
0.0405329351766915 
0.0163903793649973 
0.03249724053725916 
0.02270119791312104 
-0.002316621836699374 
0.001740870045485789 
0.003905472024914101 
-0.02086905391503757 
-0.02974053418642499 
0.005943394044782727 
-0.008529952656980949 
-1.271605897411326e-05 
-0.03576101355224114 
0.02201453411558567 
0.02603411689528448 
0.04180239073934712 
-0.01500619716017941 
0.0175963470598152 
0.01881760991523059 
-0.01110762700765935 
0.02834214393133516 
-0.03169237649873459 
0.007017070103007685 
0.04446019330810291 
-0.001520083699378378 
0.008854232617201037 
0.05989093607404713 
0.01860290271140065 
-0.01089251438835905 
0.02584417983599792 
-0.009872417938530801 
-0.03150522483764102 
0.02191527106332038 
-0.00564758905835019 
-0.0191087116934132 
-0.025618387224295 
-0.003218754053938308 
-0.01650956884988137 
-0.04371798513419257 
0.02140809672706231 
0.01303085081530773 
0.01497574449498519 
0.009439800317498635 
0.02576180681414481 
0.001614039829574072 
0.02505167276261341 
-0.0361829707720697 
-0.01719770314432046 
0.01681299102887486 
-0.0554811509734769 
0.04305066521387907 
0.02870923740138266 
0.02684682256706247 
0.002173721866659442 
0.0457382795709208 
-0.02533753852612779 
0.0380309314262451 
-0.005535577950904368 
0.002473806264637354 
0.0159463103620795 
-0.03357573450793568 
-0.03120045073429599 
-0.0002249061761666557 
0.003220781719856567 
0.05421815709669201 
0.06265913749068243 
-0.006907093026297771 
0.006662458019908065 
-0.031631765177682 
-0.002574165781044956 
-0.01633501128524298 
-0.00360803145426977 
0.004098478373438163 
0.009922289766643874 
-0.001405002959056499 
0.003243266733199245 
-0.005797006256883971 
-0.04185506614298287 
0.002698971704209622 
-0.02264998811128619 
-0.0227757756402652 
0.02455450856314138 
0.0124588913085744 
0.00699607475603537 
0.003730781624423115 
0.0009894932842250822 
0.02123190814671817 
-0.02728808984863881 
-0.07440565418836458 
-0.01177304934143388 
0.05685972041079888 
-0.02274278212312679 
0.03473740714352818 
0.01983242641924888 
0.01539551967587643 
-0.03928634702387829 
-0.01686178732962599 
-0.02089518044515613 
0.006009271466596433 
-0.02686151968472257 
0.03624960942102871 
-0.01273935399322561 
-0.01812043362902562 
-0.03528827337013316 
-0.002946546543271256 
0.008892633024371177 
0.04785038262017439 
0.09249950750043086 
0.01031703845677058 
0.0579882820291606 
-0.01192702905952614 
0.01250247421120071 
0.00219362810383792 
0.01305331783686762 
0.02076120889371443 
-0.03307615647075951 
0.02561361057501997 
-0.002631453270166733 
0.008013047266499637 
0.01002083655440521 
-0.01122159719104736 
-0.01030036235514943 
0.02339301974591409 
-0.03438648243938429 
0.03447401896407729 
0.006045348550946868 
0.02056525755105417 
0.01618530327087907 
-0.04314247017694944 
-0.02530304819797566 
-0.06616691837725662 
-0.0110906688591847 
0.03735253368187212 
-0.05585103869465968 
0.04481729525091317 
-0.02860148632528331 
0.03620509834336686 
-0.03180904222498832 
-0.03203110843940548 
0.08642998737240329 
0.01149250786218054 
0.0560833560330302 
-0.007811134455596845 
-0.001753649955980377 
-0.04015533493972035 
-0.04103582150659932 
0.04095173436956227 
0.00328885159620497 
0.034584308717412 
0.03643918732537944 
-0.0001317190437937327 
0.01352958517520398 
0.02173515560991351 
0.008160278248707605 
-0.006267415465993101 
0.01514113668768797 
0.01400361367847353 
-0.04567529909608326 
-0.01781298113010374 
-0.04472562544413711 
-0.04432178302005298 
0.03773189672005053 
0.0008529801890304319 
-0.01581200406473859 
-0.02936832820924541 
-0.01094044823103911 
0.01381318386262073 
0.01201785443779542 
-0.009720791746926133 
-0.02283118084719572 
-0.01981766295136831 
0.01682202627330355 
-0.01407901766777677 
0.006961328945471655 
0.01774372492009034 
-0.01176462798142081 
0.05681658211201893 
0.004758933374425028 
0.02449800068555809 
-0.0705992318335191 
0.007292993333335085 
-0.001534301610229945 
0.01693782322954005 
-0.00589105228165733 
0.02774758792123213 
0.0188777573579132 
0.03371736795365225 
-0.0245040855214634 
0.003814488968970588 
-0.006750556866543194 
0.01738319582485557 
0.0110205592016676 
0.0276880653508322 
0.02360525169936722 
0.04188377539737808 
0.0005299682191792633 
0.01185174562443036 
0.03092369742303369 
0.03982948397722942 
-0.004372998036628446 
0.0273236873886339 
-0.03397790287049016 
-0.06335570332276177 
-0.01749854766348133 
0.03119673317975172 
0.008201759791650474 
-0.002240495819035869 
-0.01612084347599143 
0.05984573850590125 
-0.01136204738973219 
0.00331482844040054 
0.0272097599192687 
-0.02351525440276292 
0.003934630127955443 
-0.01778013052144066 
-0.009947294543462028 
0.05805097348928707 
-0.004129715704766123 
-0.03335607938824683 
0.007061369290172858 
0.03661555390280961 
-0.06323167160595554 
0.00760515919632001 
-0.01725670827760477 
0.02253058546110943 
-0.0311643914521305 
0.01799699810205883 
-0.005694905568867217 
0.04795156465057646 
0.004178248208601208 
-0.01406711414265912 
0.003309273255676101 
0.05258229117476328 
0.01992995899253526 
0.007712989431551456 
0.007725577840186676 
-0.03791259301866556 
0.006164394275183637 
-0.02106650420494998 
0.0126127987587411 
-0.009343411380511485 
-0.0331610624324719 
-0.002663339723474435 
0.001182832717151701 
-0.04530204555730018 
0.02267167219489664 
0.02201878392581038 
0.004492778286411692 
-0.02376675223681073 
0.02536693319044593 
0.01883200011786327 
-0.004323866787707122 
0.005158614809421308 
0.003901037940691918 
-0.02795063971385877 
0.00277448102244055 
-0.04604618751617178 
-0.02573034673992738 
0.02333149476035892 
0.00929997154091811 
0.01482604386420975 
-0.01270916688540067 
0.004789325706840555 
-0.03586271016135871 
-0.02641580543172255 
0.0170221617537427 
0.004153197484233598 
0.01173074639858732 
-0.02550763802733477 
-0.01862604267283605 
0.0371246006852166 
-0.0244676862647111 
-0.00375159607187757 
0.04154298397752557 
0.0234169928857341 
-0.001643576301414581 
-0.01315238332877622 
0.04149702071515406 
0.00766157629218475 
-0.04448798083943958 
0.005995543886273279 
0.01344243547738943 
0.04636168404975209 
-0.03228492701667195 
0.004746696000382866 
0.02929771388426073 
-0.009344775503515227 
-0.04407081251700151 
0.0471131847209441 
-0.02576903511373209 
-0.01406330689092228 
0.03017818776479936 
-0.02446747936983897 
-0.0001060454350019778 
0.01987840436381176 
-0.01701885117777329 
-0.01836802938208396 
-0.02495535527693169 
0.0291674536324784 
0.03334839959340288 
0.01154446523355618 
0.05898204761132763 
0.01376040169809634 
0.0408664477068745 
0.03223564950533715 
-0.0006624152191657451 
-0.003707214155600437 
-0.01546458240987253 
-0.01066790465164875 
0.003401298735230165 
-0.02590614386457811 
-0.008892406505000857 
0.07676715590818729 
-0.006518211223330371 
-0.04232689604155068 
-0.02770599220727683 
0.04799867539143721 
-0.006625981181960725 
-0.04063762913481053 
-0.01970921071049592 
-0.06664775428021665 
0.02636491086593869 
0.00402048632904586 
-0.01364775265202368 
0.09023512254680835 
0.04028772134269235 
0.0007002983261379131 
0.06837677258340831 
-0.03320155866490034 
-0.02578025848299112 
0.003082040425036412 
0.001241402296583771 
-0.04396496481131359 
0.01537574382283641 
0.02813074179584783 
-0.0174562286168969 
0.000578516780192794 
0.02018600816819629 
-0.0232263521004728 
0.02031506545370637 
0.07431976011001974 
-0.0006714885203741301 
0.01780544179610457 
0.050911544692807 
-0.07671479239951545 
-0.01035638461566203 
0.03121356024557035 
0.01819140304647859 
-0.009531219274320645 
-0.01108568008788444 
-0.01027622673557962 
0.0316079953525115 
-0.07179468484228121 
0.01254184742989467 
0.04358846552148451 
-0.02942166998156319 
-0.04337244076206202 
-0.06273075523301075 
-0.003986669326074744 
0.02430683040038823 
-0.005791520111487888 
-0.03002750210490925 
0.008064790714381048 
-0.02717553363618498 
0.002001750579454268 
0.04366468054544397 
0.02436682818858864 
-0.02357389358797478 
-0.03459260538967144 
-0.01893445440612885 
-0.007590644579344343 
0.01712613097194658 
0.03721535997882747 
-0.006690606534086562 
0.002451425916522286 
0.012444875578136 
-0.01528191596122834 
-0.0513259708289124 
-0.002046767307015551 
-0.02272866035517675 
-0.07742631287846316 
0.05907056515757843 
0.04217456499069909 
0.02786975515884025 
0.03862212676078391 
0.007190093690393185 
-0.001454635513314826 
0.05657567544641914 
0.04780667641978605 
-0.04076371436917211 
0.06614377004788245 
-0.0087832037954371 
0.04179591740231587 
-0.03241824130016632 
0.01620999730230233 
0.01425472566062566 
0.07251168310394916 
-0.01816665804734729 
0.003474903175698906 
-0.0371373003385123 
0.03203795567754267 
0.01092030767074621 
0.00648526689491645 
-0.01986485346526388 
0.04168222824841863 
-0.01312350263404368 
-0.004973307619563922 
0.02517418219605108 
-0.0070666220553373 
-0.006443187728351764 
0.0005197913100259016 
0.02522763481102401 
0.02950945761315866 
-0.03938743699919361 
0.008243486807918008 
0.01162468013940646 
0.006827176925203397 
-0.01401071053056434 
0.008754778424375879 
-0.01175093068784337 
0.00870629628186992 
0.008631295969560937 
-0.1227936445982148 
0.02399791033132445 
0.02564308047568895 
-0.01300459181914317 
0.02415851025526635 
0.04925875547024147 
-0.01616533287874254 
0.008340883053514494 
0.0647590915999601 
-0.04300209701531368 
0.02446741399166522 
0.03636625686885776 
-0.006129595976004968 
0.009103103697779624 
-0.009458375891854033 
-0.01224285200705201 
0.09827529748702542 
-0.01907257315662298 
0.008520130003475034 
-0.02352413957848298 
0.05022076182392968 
0.04191760755872777 
-0.04937996022529717 
-0.03976825409393926 
0.02270945097629477 
-0.0608436930007677 
0.03050038701779564 
0.04371540756776806 
0.009396224672389392 
-0.01694542615582434 
-0.01602000090817708 
0.03113558578274693 
0.04141791456819189 
-0.002131542159281978 
0.01374463047865806 
0.0001686664775746253 
-0.00850388249495888 
0.02510839511320176 
0.03050828846564783 
0.003285169858521828 
0.007339926540984523 
-0.002245688675820408 
-0.01888949567509974 
0.01636614068714531 
0.003795495367750089 
-0.0002720746692025633 
0.03921324625933884 
0.0584801562146236 
-0.002310879639386989 
0.0297459886625047 
0.04290065296845262 
0.01594230226009338 
0.04888786595338281 
0.02977751184741399 
0.0005407453371688324 
-0.0124137922019983 
-0.006279358406182677 
0.004205829237125853 
0.05926396915302944 
-0.02193687432808272 
-0.003108658050192678 
0.000752313704536088 
0.0395995377709072 
0.01019188198799108 
-0.04460599151671577 
-0.008198824764068772 
0.02634143674660151 
-0.02211996868490848 
-0.03484414151293957 
-0.007352126067453347 
0.09108850810948663 
-0.01391792422493069 
-0.05207949077324835 
0.05655465310812871 
0.02881445762535635 
-0.009545530652827429 
-0.04686387032420089 
-0.06188969807321092 
-0.07477996644245176 
0.006598184415038724 
0.1423349873934585 
-0.03550700973106258 
-0.06038925716404037 
0.03813189756846085 
-0.1571450236382472 
0.03816465301036595 
0.1453995395966134 
-0.005983951448929134 
-0.03186594266535935 
0.1291118544509956 
-0.0640694912109061 
0.03282001458151388 
0.02698728956350923 
0.03920836646078372 
0.03156186514446201 
-0.01756871439323481 
-0.03316273296599261 
-0.03608091895650972 
0.002249063140116638 
0.009117193499219974 
0.1242380547590491 
-0.03198533337538156 
-0.04430239700893084 
-0.08239950932056038 
0.04370956470960814 
-0.01551541061528572 
0.003440009183632936 
0.0001276876568727142 
-0.04935147046713713 
0.01071046592782774 
0.01568947807964214 
0.03288488971369801 
-0.007599189799090052 
-0.02416154438265977 
-0.0114125094281173 
0.02036320072124683 
0.01714785994608801 
-0.009081767163222227 
-0.002102560466079046 
0.01553089683789415 
0.005184730895647346 
-0.009356449421112498 
0.03705323560736835 
-0.003287954903577465 
-0.05754657557160461 
0.01301746436946865 
0.006778900804392604 
0.03517630278068179 
0.06637400339845959 
0.05225428731676362 
-0.01240454275403082 
-0.01816371014676615 
-0.01306750671494462 
-0.005894298894877179 
-0.02191718890271189 
-0.02037843678247462 
0.002788547025801559 
-0.058662127474578 
-0.05752199368267136 
-0.003848696573334315 
0.03189923100387234 
-0.005484683740142185 
0.083091080722334 
0.02440558267125659 
0.08914829807336271 
-0.008639667629491104 
0.04658160154404685 
-0.02116320725836041 
0.0079733547597029 
0.04117809786097915 
-0.01555089370681189 
0.01219150162981866 
-0.01177769717898517 
0.06255673084690482 
0.004008063424167017 
-0.04605549638171394 
0.01939496227848662 
0.002456247447350539 
0.02551079808640663 
0.003672499273353252 
-0.05585870941446282 
0.0006178507370788203 
-0.002223167669394475 
-0.001374134506514772 
-0.01451743402618535 
0.01367540506613303 
-0.03716535899689263 
-0.02758202984121989 
-0.02172097347043412 
0.01325073742605444 
-0.03111016387972099 
0.04305143819257477 
0.01595311825610183 
-0.003607610012945076 
-0.02843903757870491 
-0.0003411713734652665 
-0.003449514475089984 
-0.02956731128357422 
0.01943773761249632 
-0.03926232181704551 
-0.08245780097410137 
0.02046603814521869 
0.0280436775591034 
-0.01467040049716257 
0.01194746018582904 
0.04814065840334281 
0.0314316239485616 
-0.04028059935816525 
0.02040080984493268 
-0.01480814327763046 
-0.006387572999117118 
-0.05306182876764543 
-0.01349258778826226 
0.00446074382181311 
-0.02572976950043008 
-0.004978810100345478 
-0.009945838873474742 
-0.004250339736211992 
-0.008625879032256843 
0.02493663682175875 
0.03767900136956608 
0.0166571931118639 
0.04719339934099046 
0.02608180543357631 
0.04768015761992779 
-0.01417403529309131 
0.009969244195441285 
-0.007259406883672981 
-0.034619264406274 
-0.01280208599872456 
0.002177617923781306 
0.02128479553636948 
-0.007748485767198269 
-0.001533553638945875 
-0.00891391870918812 
-0.01827941867308463 
-0.03880514794662122 
0.001331681312369642 
-0.009630421359764834 
-0.04582264428029282 
0.01809749163654295 
-0.03212315156808509 
-0.08674046209110629 
0.02055254815866095 
0.02171594125188309 
-0.03277077879344249 
0.02449852165992143 
-0.009103699046016878 
0.08038445827149956 
-0.01019011540353041 
0.04031577340332988 
-0.0787079166959965 
0.005093133474685035 
0.003780127505325882 
-0.03986071954595132 
0.03316056000874049 
0.06219497399393211 
-0.004588248755071892 
0.006026452248548178 
0.03941952988419247 
0.002876124258841053 
0.05938132778646425 
0.01068839134721325 
-0.01808884159099359 
-0.03380916619665274 
0.009564735708163527 
0.004624330677827943 
0.01450667433291693 
0.02226402939548223 
-0.0191886362458038 
-0.0391960634015447 
-0.003332767782251204 
0.04201585516663674 
-0.003998145568731342 
-0.03406118067537221 
0.02974822183850261 
-0.05466628142502877 
-0.06758619040548496 
0.009466998294329836 
-0.02975023949681961 
0.01620396409571449 
-0.02381879994678076 
0.05920349561177054 
-0.07023188209479128 
-0.02361416146462833 
0.02664434980199377 
-0.0004678868435674617 
-0.023175037457268 
-0.01996875610989691 
-0.02933205141719831 
0.04906308841097805 
-0.04545629142582928 
0.01070812243833161 
-0.01734139361830404 
0.007204969688295917 
0.01524229698999238 
-0.03105966390905984 
0.01829853926597301 
-0.01958980898756475 
-0.02471284130612535 
0.01991934697531058 
0.02698525479658842 
-0.013742185087214 
-0.02229510814396867 
0.009658967828771193 
0.02876270859061161 
-0.01847906263069743 
-0.004900559271274501 
0.003047792132874208 
0.01541752928910441 
0.05518160198374883 
0.011908509074282 
0.001393476139995057 
-0.003915947719279558 
0.00873053313233837 
0.006088040432239166 
-0.03949397505850827 
0.02385363925815877 
0.02232579485663654 
-0.05253259882292177 
-0.03021776083144129 
-0.003257405007550886 
-0.004229443561576352 
-0.02534536611472064 
0.003908121522943914 
-0.03280997700089668 
-0.0005121971299941274 
-0.04691145410129161 
-0.0433791246170252 
-0.07421571091868195 
-0.008910039905690222 
-0.005747565189203566 
0.03281993209202474 
-0.03639055553637664 
0.03232831191610579 
-0.02763648709377498 
0.02832435604510587 
0.01403032824415729 
0.005414649801434857 
-0.01302280493448441 
-0.04256277918266564 
-0.02619887928871981 
0.004672420896455494 
-0.003694716928864169 
-0.002848429759292516 
-0.01584596280824669 
-0.04029704764644285 
-0.001211276489929913 
-0.01394468971724606 
0.009025136460099944 
0.00599917395999727 
0.007415681074581525 
-0.007088816962205137 
0.01247911116413603 
-0.03087583696423172 
-0.01068687660942347 
0.06458856022391798 
0.02510506299707298 
-0.02939690645822312 
-0.01056718495945417 
0.01905011731704767 
-0.006798632020751928 
0.01460583632344756 
-0.002852848288113167 
-0.007532950911681937 
-0.05502731448014343 
0.005372004977125163 
0.007877801486119237 
-0.001739527100814515 
-0.00515727050031954 
0.001903618108561238 
0.04299214656331105 
-0.01978502062681862 
0.008140177682729557 
-0.00888038368205942 
-0.02418856007350094 
0.06876679555333756 
-0.012186728340332 
0.02556857188367642 
-0.009674260562380502 
0.01069951155088857 
-0.00889606871195275 
0.006413889024339342 
-0.01331858296115629 
0.009799179540196582 
-0.02781204695096205 
-0.01195313350640082 
-0.0111257570881237 
-0.02668479598057652 
-0.0003871957683149784 
-0.0278279994062074 
0.02382493795811545 
0.0220470165971649 
-0.0494948965144943 
0.007295437273313409 
0.03052998062728963 
-0.01887313168064702 
-0.01819987895739678 
-0.01511811424228683 
0.05243670140526852 
0.05090071195011015 
0.008491457635475803 
0.07571670926481322 
-0.02308350586547814 
-0.03165194846409516 
0.01433514486796352 
0.01165528583312406 
-0.05881191493929187 
-0.01195742717639912 
-0.01389701943319882 
-0.01194031514943088 
0.04841896479094029 
-0.01350872259452939 
-0.03980005189066824 
-0.01889934484708526 
-0.03055125418811705 
0.01205115400673056 
0.0008807666957277665 
0.04671917739914289 
-0.04064781676834354 
0.01556971446803517 
0.00380243175968174 
0.01264314718561993 
0.02209060934573734 
0.02149452207455826 
-0.03442303387268675 
0.01028446172757742 
0.01893805762856529 
-0.03217810454468895 
0.01095656447094659 
-0.01083862466303135 
0.01752371248108602 
-0.004611285734266792 
-0.01137287468249915 
0.01166091130889975 
0.009487892776345637 
-0.02124830160157171 
0.03584824296756341 
-0.03102978871402248 
0.02913376504402876 
-0.008495948669306272 
0.02758107324416828 
-0.02137399766220119 
0.0418047618396042 
0.007630521766473461 
-0.05850558362213196 
0.0007035079704982967 
-0.04459121353180855 
-0.02356568205842285 
-0.04807071485065301 
-0.00477079948698683 
-0.01849039167589647 
-0.02004220311560103 
0.04951687518595242 
-0.007044826308750238 
-0.04637686973843411 
0.006944604904686047 
-0.005684991870992267 
-0.03901635517595439 
-0.06923178610655002 
-0.02309185513472072 
0.001533399319707886 
-0.01669834003430207 
0.01405939089368742 
-0.02828523732533255 
-0.006495941857010691 
0.0008062585212291296 
0.0444458646867243 
-0.002850524262469958 
-0.0351652775803502 
0.01471513354096301 
-0.02601494697103351 
-3.408809124065821e-05 
-0.01261900801532981 
-0.009829814852784488 
-0.008785000662626366 
0.02151448939170306 
0.03978117274156049 
0.03945568289304392 
0.01660758733064779 
-0.01095748758948988 
-0.01250863710301716 
0.01681656686381465 
0.04440598056252709 
-0.03845755797148529 
0.01309321566467888 
-0.05016299216523819 
-0.01338382237180731 
0.002332666148698815 
0.01830841672973016 
-0.03312335442378599 
-0.04099979267809502 
0.03764785459878735 
-0.0721106627379374 
0.0141322716287896 
-0.0429545509548238 
-0.00169036843064556 
-0.006088007009685437 
-0.04566902126657887 
0.01117225469746551 
0.006613578410748838 
-0.0182301915155606 
0.0171209485182241 
-0.03061519960457449 
0.009733518722442604 
-0.0009233213018128336 
-0.02894366102263055 
-0.02582620063252978 
0.0121539045082609 
-0.003132194886860003 
0.008834307046760888 
0.04131600802057364 
0.0114912414649158 
0.04857220697848311 
-0.01048347404888099 
0.02184032758608713 
-0.04414170652682138 
0.01911037382525809 
-0.01535712640873369 
-0.01997708568717514 
0.01495692879747192 
0.005415484205204855 
-0.05377917537160462 
0.01275128536160411 
0.03146692696095008 
0.05227975178768138 
-0.001685424823261749 
-0.01303207221517943 
-0.01653243207246176 
0.0185092075855528 
0.004755906334380062 
-0.02311696561678624 
-0.04101467252235454 
-0.06482450573747539 
0.006490036574874741 
-0.04766388326222414 
-0.03755948105295716 
-0.02731138458189763 
0.01854826461816762 
0.01372755655638075 
0.01999155862950046 
0.03194540974886504 
-0.01246062339929944 
-0.01138388419442047 
0.0292934698161985 
-0.008089782101089776 
-0.005172343203606968 
0.02580486230811859 
0.02594064737453023 
0.01424194092143229 
-0.02830499121789283 
-0.008445719799617344 
0.01124353722397733 
0.02195977776223523 
-0.01325179019311799 
-0.01940038882373356 
0.01989703104764188 
-0.0225415072813556 
-0.006679856277004631 
-0.01407479414407656 
0.01590770057867199 
0.04226234143311995 
0.01221085586480529 
0.002975089107070321 
-0.05999618446186349 
0.05758823775680741 
0.01075377039657779 
0.05425669294853586 
0.02630342224551016 
0.03275534049313718 
0.006688905835451049 
-0.05828310098080987 
-0.01164240633442059 
-0.004553102509321237 
-0.02507410729772355 
-0.02538940002892409 
-0.0003480711537129153 
-0.02838663013035864 
-0.0670110623549473 
0.04259624336101918 
0.06500803965954802 
-0.0100120131137861 
0.003337757651853911 
0.04722289176693402 
-0.02915357707088955 
-0.005215543688763487 
0.03640628533671366 
-0.03292305571198324 
-0.01603782528129925 
0.00205092868259142 
0.00765062120080635 
0.005738866434266111 
-0.0005166023623911794 
-0.01232053356719267 
-0.02475621345815057 
-0.04597765899109662 
-0.03221654553262114 
-0.03350442451919834 
0.004409866615300141 
0.01521234112585302 
-0.003037910033606205 
-0.0003510290828724586 
0.02070680192409953 
0.009618403774612989 
-0.009587580039993803 
0.005070760220889451 
-0.07383716057029135 
-0.02084261315933722 
0.01032603776336342 
0.01351600652458476 
0.03330228581257014 
0.04720003127203691 
-0.01136559708650343 
-0.006266267144220194 
-0.004931839353989753 
-0.031935847564147 
0.05861036630368114 
-0.006416841626308105 
0.01473914723294582 
-0.03600269743009742 
-0.0271766741718801 
0.06543953478009955 
0.03472333475550211 
-0.03668197361793577 
0.02451794850533385 
0.03245787736701491 
-0.003032166231501533 
-0.01915668088746474 
0.03137568875608807 
-0.05998022098181753 
0.03467275384494137 
-0.02226483277401957 
0.03307358490797849 
-0.005623907704509518 
-0.01180496038689671 
0.04671655287406294 
0.01318160313389251 
-0.01451356644285571 
0.01501210605554982 
-0.01554855574037371 
0.01704643047901156 
-0.01541037245415038 
0.01285745785062207 
-0.002824533608411151 
-0.009416543331882046 
-0.04116550663805373 
0.03482341984059345 
0.001337164838476454 
-0.03367446467361544 
0.0006049669151494412 
-0.04510450875398488 
0.001129746303378623 
-0.01442361484353315 
0.03145340929925055 
-0.04999455069729625 
0.001715310606228844 
0.03282675882877906 
0.04087410955583239 
0.02349053513298993 
-0.01468488210083339 
0.03661364082133609 
-0.03009555085823288 
0.02680109291518007 
-0.01846458733433069 
-0.003901400893640533 
0.0627607671420221 
0.007548821639598914 
0.0470597997777965 
-0.01686327816840068 
-0.04461880871656053 
0.01175918095574834 
-0.04527574647297457 
0.03434151304062502 
0.03133831894785796 
0.02419463563241433 
-0.01068742693718803 
0.02249192754379736 
-0.01656015508222821 
-0.01653486774276099 
-0.005184283044942042 
-0.002170881320254621 
0.01802323292359087 
0.007799704415330739 
0.01081586454639817 
0.01655847741482535 
0.03279354873202666 
-0.03407162924350012 
0.01965997554657649 
0.03899290197937637 
-0.004784062919636904 
-0.01796442234116781 
-0.006302265289250722 
-0.01460229991113785 
0.01275576704675315 
-0.04705286295695253 
-0.02265179918514333 
-0.03996417550611768 
0.02275965956471962 
0.01566682612260531 
-0.02178216927862092 
0.02261515659362909 
-0.06008771171431376 
0.02400025268831577 
-0.07412792316849512 
0.008372489174778784 
0.009119318347262732 
0.003824223893309186 
0.04467253103088853 
-0.001828206314155687 
0.01038733879594096 
0.02195508806827194 
-0.03613358804929122 
0.006967012237439785 
-0.04277858362379622 
0.005179984996534841 
-0.001472301839430565 
-0.01055347148239265 
-0.01431515689995356 
0.003645980464104831 
-0.0007219459902199881 
0.007984679358070486 
-0.02992932011276299 
-0.001051955590449973 
0.04697534924791911 
-0.008198955740676098 
0.009416148765703217 
0.03807575551349797 
0.02690330638310111 
-0.03946270843089696 
-0.00413220047287592 
-0.03778436170185416 
-0.02167622902622443 
-0.00517122280869284 
0.01419389477501392 
-0.007672057850166118 
-0.009643552978998125 
-0.01699868366794186 
0.02174623468924006 
-0.0249151052040426 
-0.0008412672986989201 
0.01910493284036985 
-0.01346265096199628 
0.05440639741966458 
-0.06523541607096818 
0.04346562340971951 
-0.07210110821710108 
-0.01095635120206211 
-0.01203312568573777 
0.02186789295281602 
0.04165260821316659 
0.02815572610137826 
0.01914721228080522 
0.00661186451883212 
-0.03822438837347394 
0.009535092038739024 
-0.03213768838713368 
0.02867507479050059 
0.009266239292143071 
-0.01199791824543367 
0.003978073696113094 
0.01124615066141829 
-0.005981184587739003 
0.001560371743443321 
-0.01057746816314421 
0.001618010503439186 
0.03766409712408314 
0.04041992046966158 
0.00721192701509493 
-0.002295812929352815 
0.02915996505863749 
-0.006102631697878894 
-0.03908643133794409 
-0.01815683611324234 
0.01314587573593375 
0.01875784335578845 
0.02102290607233744 
0.01013264745820562 
0.01874467599127874 
0.07910050311247542 
-0.01507772180618552 
-0.05420864072359951 
0.00644624036755706 
0.01756053009700447 
-0.01073197376959676 
-0.0001666349247512026 
-0.03351100674619337 
0.06183629839471258 
-0.0538137905249873 
-0.005717825440277068 
0.05139794655147853 
0.009730606878502746 
0.02674834263844699 
-0.03570854239167558 
0.0181191115163375 
-0.004645715276524398 
-0.1049196672667086 
0.02369510203740874 
0.006434232552756066 
0.03200407310949546 
0.03753203859778027 
-0.01462760574795089 
0.01143300397416818 
-0.0003125642683548419 
0.05042671684275542 
0.003666350528326092 
0.03730826962073868 
-0.006329135785086783 
-0.003435050703476801 
-0.0001626408317401502 
-0.04163379647324254 
-0.02225273478243612 
0.01334264911330321 
-0.01903753640411255 
0.01564049905188526 
0.02366114033586988 
0.01681142102562089 
-0.03675163058679649 
-0.0134850129564721 
0.005260693946278515 
0.02202565074730658 
-0.009144371845539597 
0.0371307650958115 
-0.01949473425377441 
-0.05824200503447444 
-0.02239717876996767 
-0.001155453681714972 
-0.01212209987021264 
-0.003983510765970978 
0.02110602650184403 
-0.01186340669601621 
-0.02861476601023357 
-0.02787358949199594 
0.003028697145274443 
-0.02901923008647377 
0.04623023979417059 
0.02415705418735277 
-0.009374145575574509 
-0.01933307049158165 
0.01969237787241124 
-0.01673001504987491 
0.0007344270873688936 
0.01494169538231583 
0.02733856625249261 
-0.01715190053252978 
-0.02383054316238479 
-0.02342874584077098 
0.0138053834469881 
-0.00472089765041983 
0.02051380995091396 
0.005653697948492572 
-0.02881614930166714 
-0.01717018492189423 
-0.002867321104042883 
0.01470207598951417 
0.02424510142558399 
-0.05464912350119942 
0.01865770802645298 
0.04105584813426716 
-0.04102927869068058 
-0.03415688201508553 
0.01813321532895583 
0.04802077033385948 
0.004067529446887068 
0.02014243101007579 
0.01168707432282147 
-0.02446252697588961 
-0.02978064584166245 
0.01367576824361266 
-0.009112798573078987 
-0.02080703113598781 
-0.003571573030623063 
-0.007795149128093091 
-0.05970673001069909 
0.06789926284971565 
0.03356409996464835 
-0.0332836653722168 
-0.001188745296367081 
0.007132150280025467 
0.02106838696682838 
-0.0292162660005267 
0.02357155912070427 
-0.03500536524891358 
0.003274078232532346 
-0.01329550398762828 
-0.03835090074189104 
0.02050356720376302 
0.02055576552488002 
-0.01692050060618601 
0.03810669742541909 
0.0365141940683591 
-0.01539632077599618 
0.03913010575710949 
0.02159802492172113 
0.01588353237454556 
0.002271969099387072 
0.01487348082665352 
0.01833018665856723 
-0.005861981876134935 
0.002995175855409926 
0.01711761363816337 
-0.006737701470649161 
-0.001297328627823506 
-0.03898711455811363 
0.008650262426591233 
-4.399757721648532e-05 
0.03829529471282583 
-0.01896141450444874 
-0.02011270851829376 
0.006801470673034718 
-0.02099037943075825 
-0.03203166222655917 
-0.07203588099699798 
0.006915267838820877 
-0.04220133820638786 
-0.04656761140074604 
0.04328894173371062 
0.01245205375974118 
-0.04227424981793806 
-0.01499234823903036 
-0.02982071018621976 
0.003545468647957316 
-0.02616174882416131 
0.005670985199995634 
-0.02914211147498057 
0.03220129016203665 
0.02738067991136622 
-0.01650164774917438 
-0.01561220411295026 
0.01555412422885054 
0.01139432670814905 
-0.0009129573118802636 
0.007579417056565866 
0.007787648307840241 
0.01211109352279232 
0.0125201291217465 
0.003041597841827024 
0.005440556377072397 
0.003607573919217025 
-0.007026893056711325 
0.06519178504457106 
0.006450163822384728 
-0.0148474218435198 
-0.008391589484858698 
0.01670343206734964 
0.0692710047937639 
0.02033309839793253 
-0.05945491562003553 
0.003291206201699036 
0.0339119179960219 
-0.03931968425226716 
-0.03528927764099207 
0.007405785785025313 
0.01486186114763932 
-0.04290877342618892 
0.01048956548263125 
-0.03712745803874611 
0.02156970649475329 
-0.04574454807593607 
-0.01982163739222987 
-0.0141643770291149 
-0.04392893948756608 
-0.01917192511759542 
0.00292855892406638 
0.02055417835997899 
0.0555621316085692 
-0.01476183643220335 
-0.004170750884425452 
0.03096670604313303 
-0.01684743336207113 
-0.004939869914543208 
-0.06104417246718494 
-0.02737821095806811 
0.02549352215282158 
-0.005232727752055042 
-0.006225582462201376 
0.009517937627387301 
-0.0120525261124997 
-0.001032468205312037 
-0.01439021684455604 
0.01765185751353351 
0.01034205684109271 
0.05348273637099021 
0.02581609428716127 
-0.0016504477075678 
-0.03125702718381764 
-0.02883139508097193 
0.01063639473638805 
0.0489652805544675 
0.06219390059122825 
-0.02335636963744905 
0.03908021517174749 
-0.02591651396770675 
0.01907112609060553 
0.0007943485840370105 
9.587836298590406e-05 
-0.04139695273909213 
-0.0298923933103567 
-0.02495742273800296 
-0.009767554453336316 
0.005301646230604532 
0.01161181070379294 
-0.002664085145697765 
0.01177126178467577 
0.0103180487319317 
0.009436376879375008 
0.01179544969903243 
0.05163604090483823 
-0.008268304036135526 
0.01521262273325458 
-0.0404061406116283 
0.023035291346261 
0.008078085111003074 
0.004407281222534704 
-0.0120040257487768 
0.02176937051679447 
-0.006865940751508018 
0.01617909011178199 
-0.05387229442042902 
0.001510009155924484 
0.02734937017538805 
0.02647951406076996 
0.01488364808343571 
0.03099111259133651 
0.01158698584873076 
0.005026331551579085 
0.00888166135574891 
-0.05585863924084297 
-0.004741102293968533 
-0.01933072568525961 
0.04601073075792253 
-0.02636584761368849 
0.003289843513915305 
0.0248070502616714 
-0.06615464817117335 
-0.002523417837257397 
-0.01069002777213981 
-0.0119322288578405 
-0.02879120094956027 
-0.02508413438662975 
-0.03506977085605855 
0.005651080096642419 
0.06171190669824564 
-0.006790958728199802 
-0.05120119940953635 
-0.005474967939470783 
-0.002796352492186399 
-0.02349938915105557 
-0.003233443860359866 
0.007458412356145499 
-0.02286811563393191 
0.01503607959041396 
-0.05127557018346938 
0.002016146050630274 
-0.001012060510231026 
0.0246064810766953 
0.01337705360277798 
-0.02170404756192862 
-0.02048238315104666 
-0.005476791646124394 
-0.0189577428413264 
0.02397963990043278 
0.0125489613893489 
0.002133640405355081 
0.01409937600069234 
-0.03152868293462143 
-0.03193166202111006 
0.01853305722745067 
0.01494089655886312 
-0.03091137301804206 
0.01811023973948135 
0.00532211127125481 
0.01837555181775746 
-0.0745059540889601 
0.0004849076066709355 
-0.08718369814880304 
0.02277669397801537 
0.03779608516744917 
0.02492791699520876 
0.01305547713877668 
-0.04792197113996213 
0.04936712372825017 
-0.05901520434858559 
0.003517220973531773 
-0.01284582346451691 
-0.006973622915149797 
0.03079736540930953 
-0.008819733733537559 
0.01939908325951139 
0.01495220592319838 
-0.02065288326074158 
0.03265846155823884 
0.001451709971929672 
-0.00046857696734391 
0.03558414966816751 
-0.02118607722831333 
-0.0002702824899227419 
-0.00265507347047586 
-0.00144559677459795 
0.01982169652913003 
0.009826630956890148 
-0.04174278473402196 
0.01390089938846869 
-0.07457726433733952 
-0.000411511240610728 
0.008621808149712338 
0.02382036100353299 
-0.03445897954183212 
-0.02407714189516382 
-0.01861825824206348 
-0.00930249037146943 
-0.01341081428096538 
0.04642705191342835 
-0.00361060310866113 
0.03770415272083369 
0.05221849265375196 
0.01016823972158652 
0.0006801038441840484 
-0.01693743789151616 
0.01731932938129805 
-0.04451162381437715 
-0.01186780237137031 
-0.07516604585663579 
0.01320275114033658 
-0.07924550227888644 
-0.0239324329673417 
-0.00298509358898551 
0.01338733147025797 
0.05449230698158888 
0.02441257116338731 
0.04139160827118101 
0.02997529337368379 
-0.005466632193306506 
0.05619874743901924 
-0.01685292133239584 
-0.02434600710440688 
0.008419482190768381 
0.006472910277515226 
0.004456184283349511 
0.01650313139338861 
0.01771932492543648 
1.563715291022069e-06 
-0.01969593721565549 
0.0178246078128644 
0.02777132074575687 
0.01692341216662847 
-0.02629717282604334 
-0.0167857005555886 
0.01481648026703978 
0.003738108859340645 
-0.003657822556485275 
0.02344201505712958 
-0.009166166056894225 
-0.03592370073289845 
0.0217416276906877 
0.008284012097570901 
0.00620826469273031 
0.003922124355723925 
-0.007590926818886184 
-0.07363496976256993 
0.006513953338200521 
0.01342587743001377 
-0.01917114682128229 
0.006746072985993549 
-0.03404416476934938 
0.05231373789335458 
-0.0672709063011863 
-0.018605054512701 
0.04200609122623759 
0.008211906482065169 
-0.01673452788414865 
-0.00619457310539316 
0.04443535413100793 
-0.0125384120484383 
0.02003099373590328 
0.01694807436289889 
-0.0272586062998859 
0.008853400949204943 
-0.01278997770012978 
0.01169764142294801 
0.007812106649874639 
0.01525379638585052 
0.02219072973826768 
0.003696620945454725 
0.0008381192573758137 
0.01770569418334162 
-0.02023182446327158 
-0.0218286658444632 
0.004277332153764871 
-0.01686971731274226 
0.02800228383469321 
-0.004934104320758752 
0.03691840743302011 
0.007342348802723699 
0.01039294340268758 
-0.05237697932386674 
-0.03621600349381175 
0.005882926109731547 
0.03143842753605808 
0.03651457952291733 
0.0735760871591324 
-0.0218776297705174 
-0.03259503782485536 
-0.01665882036051586 
0.03369549922725979 
-0.008926840018340217 
0.02233566559272834 
0.03591984377342049 
-0.008475975195751518 
-0.04227018726430244 
-0.04191379289143485 
0.02508069075663682 
-0.05948217772729351 
0.01604627183470233 
0.002114244738687964 
0.03369136075431456 
-0.0487983138495526 
0.04174279687925064 
-0.09935734801538969 
0.00778910282162285 
0.001753756569760019 
-0.01345569464697013 
0.02636725011443476 
0.03806189716522521 
-0.01433124200581327 
-0.01053825574353152 
0.01997991679533514 
0.0246927746400414 
0.01395981245682523 
-0.01191991059301288 
-0.009282531604353512 
0.001659956457030389 
0.01482202774424199 
0.05178137926703492 
-0.03511115280962827 
0.02541449696548432 
0.01551494299769946 
-0.01896228463383057 
0.0116602606130498 
-0.03560375473302726 
0.04042740782376434 
0.02884946312810876 
0.005238269110138206 
-0.004093026323331903 
-0.00573850122993735 
-0.02263537741787585 
-0.02399777923200304 
-0.01341601989070355 
-0.04904802996430157 
-0.0004586711070593218 
-0.04393068113470191 
-0.03219309699360951 
0.05483245302689172 
0.003940464158907717 
-0.01934556200787973 
-5.888044472370598e-05 
0.03240806354977919 
4.999357556384299e-05 
-0.02802043091989998 
0.06111631870381232 
-0.04581854525216095 
0.005801723858365354 
0.0563302615189418 
0.008932993894357474 
0.03654849885190561 
0.04799462836093531 
0.01873286914447208 
-0.0386186740549138 
0.03754358665639227 
0.01008163936941102 
0.003689634589948941 
-0.0252257363302901 
-0.00926954808104735 
-0.03173792352339173 
0.008028228870964131 
0.05614798901309229 
0.02474099611050855 
-0.003140166798093015 
-0.01876656722101819 
-0.03682743379075626 
0.01363397447777856 
-0.008272486218556566 
0.007410418075165047 
-0.07250544506522352 
0.01411053520842029 
-0.05889659867885459 
0.01970453148897883 
0.01225913708186191 
0.006578937238720261 
-0.004860379164888979 
-0.0593057800669367 
0.02087558486684205 
-0.04085008327602408 
-0.02260598507801946 
-0.01682467737753994 
0.03233454985437321 
0.01745148596197317 
-0.01484174763075558 
0.02055131436351216 
0.01072486772760448 
-0.01779050726749175 
0.05209112759794765 
-0.04838581281655524 
-0.01926359269096213 
0.01109648505054053 
-0.02754934881619954 
-0.02603374201807497 
0.005797267235181338 
-0.1022835595779429 
-0.004034302769803163 
-0.02119398002332121 
0.0191686203823139 
0.004523156181195469 
-0.02650905848786177 
-0.001903198832352084 
-0.01501778259570378 
-0.009186880419088687 
0.02537132744198951 
0.02038835538721554 
-0.003098662457221207 
-0.02351968195826527 
-0.05295296364739341 
0.02044341910735279 
0.01356217288706977 
0.04051078621904074 
0.03744433277186989 
0.004422284944758213 
-0.03274596387337789 
0.03435904562468831 
0.001247352046583886 
-0.005378854586093546 
-0.02930370216413137 
-0.02240683012739883 
0.01997418341688071 
-0.04999335573933959 
-0.01399023281440195 
0.06362202213403924 
0.022097626972166 
0.00548873574787653 
0.01343711730848032 
0.03809740956298579 
-0.01228779699144219 
-0.03008863949792231 
0.0302777059079624 
-0.05442774515342313 
0.001192905869308786 
0.03648584442079327 
-0.02227579285099371 
0.005179843353471865 
0.05024621963935721 
0.006442535367999895 
0.0006935884810543975 
0.04844119973587024 
-0.0186872490916563 
-0.05164788055776782 
0.005177551582691493 
-0.002544070320205885 
-0.02748788720120052 
-0.00936931432414979 
0.03007552085795254 
-0.0209885684440295 
-0.03954440092907701 
0.02806128647470022 
-0.05699066352763296 
-0.02925098538458224 
0.002961062423671708 
0.07752148179368958 
0.0541624635124606 
0.0180786076403238 
-0.001470258505498589 
0.01370283610192562 
-0.02146846743156102 
-0.002140798343964266 
-0.03672247064880092 
0.01282195912259657 
-0.01865945912694243 
0.02883467930355861 
-0.01463145672976519 
0.0274797166660036 
0.005145170460167344 
-0.02154044693312635 
-0.01589957205092795 
-0.003746313918704296 
0.004934215148673471 
0.0220208343128409 
0.0753467151196977 
-0.1184875516293936 
0.002908665057423372 
-0.01940050619073586 
-0.01824781920934093 
0.03137356995725567 
-0.01271768685695131 
0.05200529071501103 
-0.02912511114986593 
-0.03754421968674485 
-0.02735128372699318 
0.01231959221660804 
0.01832871307096684 
0.03087526980942108 
0.003828566353003865 
-0.01839928850456131 
0.05673469107619002 
-0.02355675398902242 
-0.009822287997615394 
0.04620293378053719 
-0.06796083429905188 
0.027454739661941 
-0.05024838924750001 
0.02369674841101333 
0.01181934691075547 
0.07754631907991187 
-0.0130396129506232 
-0.001068158798865476 
0.01799501610838248 
-0.0003549376075664246 
-0.0145621805595286 
-0.005521012091609564 
-0.01371940797102589 
-0.01512882797033172 
-0.0007367955221805234 
0.009772475123042286 
-0.004474967814599874 
-0.04666948159157475 
0.002344628630710783 
0.005650736255016575 
0.0239588932924228 
-0.03398634029735903 
0.09651456701214486 
