solver_type L2R_L2LOSS_SVC_DUAL
nr_class 2
label 1 0
nr_feature 2604
bias -1
w
-0.04863047066762074 
0.009554081985106601 
-0.006498577910976741 
0.05660382979879364 
0.0233894497362797 
-0.0315857094603494 
-0.02728005438076203 
-0.009434209551481224 
0.05626082329871936 
0.05402543294714975 
-0.0005434907588089485 
-0.01116102205025045 
-0.02916939191325859 
0.05332884910977469 
0.01968412030165658 
-0.02227291690948271 
-0.01062290896443027 
0.04492459790129056 
0.04161771558490979 
0.01615576576786076 
-0.02180496500456112 
0.02018418605473797 
-0.04125774514891798 
-0.0524489283416702 
0.008044222919814634 
-0.008029016108907345 
-0.04993253194067652 
0.01569152293580633 
0.01158901263770897 
0.009734489689867286 
-0.05411634517010425 
-0.08693523771003574 
-0.07575695262462591 
0.001133188346821474 
-0.002709257912803918 
-0.06535939142741087 
-0.06160357300945215 
0.01183683055833249 
0.007969980170055083 
0.003269866665931443 
0.009672020262105839 
0.006338242719745363 
-0.03314429371243782 
-0.01472168777522081 
0.01320508909433693 
-0.01442006228872083 
0.06049983337818732 
0.01969782683603572 
0.01357698688069548 
0.02842119191572646 
0.05609014055624853 
0.03998434134620237 
-0.001089788649293906 
-0.06080639339889248 
0.04303570988618649 
-0.007609576333292048 
-0.009458677533586961 
0.007375452974825164 
0.01521921543762851 
0.04930889435905433 
0.00374567425262173 
0.01570241113922291 
0.007536954305233846 
0.0175640111890243 
-0.001932335380048428 
-0.01785914301940428 
0.03685317704597651 
0.02258941657684997 
-0.02407790552723064 
-0.01381769247359116 
0.01694717520632809 
0.003897763877123798 
-0.04289678638368477 
-0.05112831071543307 
-0.02102600017159701 
0.005174235204492137 
0.03280326768825208 
-0.038316837879036 
-0.04249548864715317 
-0.001446823189883366 
-0.04884502763346104 
-0.03958692564678411 
-0.05080239533989653 
0.02032565968434719 
-0.03880824393860779 
-0.01939044192319352 
-0.01009910701041594 
0.02821295921672597 
-0.01217163109923719 
-0.04987485191577573 
0.01576720727011845 
-0.01441357597158832 
0.02066286152380801 
0.03750292484074483 
0.04838285880842611 
-0.04467714221711203 
0.004151906259311053 
-0.01510183093734536 
0.007294742854313426 
-0.0005591555246704475 
-0.004162630161126698 
0.04195676601040557 
-0.04586865376439932 
0.03038654578689095 
0.015020996252231 
0.06753477752792929 
0.02044452413596794 
0.01644107115709587 
-0.01257780576672214 
-0.003649751109938336 
-0.02305533719518396 
-0.01223277520878145 
0.005667082233427817 
0.05084981901248034 
0.004151263606175534 
-0.02712011657316037 
-0.04231838951743933 
0.01815860545166373 
0.005653420695087179 
-0.06619267975807568 
-0.02276334192088402 
-0.002753262093659174 
-0.04898910860492008 
-0.0326221275405562 
-0.04462235148951506 
-0.005281901986565544 
-0.009801169660063344 
0.02465396690095551 
-0.008421667730659724 
-0.01138399956515396 
0.006479097015853899 
-0.007821309514310353 
-0.03592503194946376 
-0.03676331574513197 
0.003552699526527759 
-0.03195220986760945 
0.002425797444071021 
0.05009015369488601 
0.006673841957125075 
-0.01860930166113154 
0.04048336867310477 
0.005235545999830784 
0.02157726652209511 
0.04448305035105038 
0.004064822466037427 
0.009686291847442262 
-0.01068104977467611 
-0.01772842540581454 
-0.001419343681751466 
-0.06855953397542586 
0.0146320017026509 
-0.03004790850522271 
-0.04819545999228436 
0.02997133919013744 
0.02459276957206033 
0.03854132502259095 
-0.04967705153489841 
-0.05285268413884723 
0.01736659852715071 
0.02127482986420635 
-0.01891091093704399 
-0.08265471144699162 
0.02308720871439077 
0.02463971400857698 
-0.01353738182392071 
0.02511380574542892 
0.01160852505239956 
-0.008507974403405382 
0.03952335277267913 
-0.007592402597099679 
-0.01007465021911672 
-0.005010117408285024 
0.02449235922978401 
-0.02344563318467462 
0.03444032522499892 
-0.0007858783844827992 
-0.02291739700903957 
0.0105898095625703 
0.0354815502883991 
0.002589142095744554 
-0.01506570398063242 
0.003280178197219885 
0.01246319271791072 
-0.03312107520195993 
0.02783787873259394 
0.01106758678436842 
0.01271934957524619 
0.01615678523319566 
0.005453641205093656 
-0.01727239359201417 
0.009212873498589312 
-0.08162657586595473 
-0.01532866088496203 
0.06896315068685797 
-0.02350403561383301 
0.03105967422847147 
-0.02723667682538953 
0.002590544209249167 
0.0002275317657694076 
0.06098495443745208 
-0.05091437958598685 
0.03969021892431814 
-0.01415169552015901 
-0.04070712997892326 
0.01598855769243009 
0.02806407681887685 
-0.05192404302992461 
0.07930286212141573 
0.01499337984831795 
0.01562994520887471 
0.06422004712417097 
-0.000225853994678812 
-0.002004625502423581 
0.01133952059034244 
0.003878912461981277 
-0.05092189915363249 
-0.003653470021559177 
0.00515251519763673 
-0.02568154295084312 
0.03719230046522045 
-0.02347762777821346 
-0.002582295173480397 
-0.02123023782105525 
-0.02158529675932238 
-0.007575339694484313 
-0.001564579548399826 
-0.02731600082603245 
0.001437810359290182 
-0.003371689538403651 
0.0103246300320219 
-0.02530193131397245 
-0.0139038303735518 
0.01197130192060375 
-0.06124342170347868 
0.02600555478108368 
0.01992458573501464 
-0.02625706259992984 
0.02525920313282402 
-0.0273422723904077 
0.02630905881259731 
-0.02483455534466223 
-0.008017700359065188 
0.01171265409686928 
0.02323213376789555 
-0.0009579220485602635 
0.0001067614506519571 
0.0357038439466528 
0.02698814948295464 
-0.02337115054641737 
0.03363734906592216 
-0.02277213424592188 
0.03692215521041899 
0.03806391319170152 
0.005442093782252412 
-0.001507203149239901 
0.01163073530741155 
-0.009914214022289805 
0.003264324505349203 
-0.01899261912920412 
0.02784848693508352 
0.01459424572108898 
0.04640393218395077 
0.01461966015279745 
-0.02158122590386736 
0.002893317557062048 
0.01565187799713981 
-0.03217466914263515 
0.03871941241123413 
-0.01298376337414946 
0.01281611158202346 
0.001703371464730956 
-0.004817123343381549 
0.01247436099791004 
0.005557515236223557 
-0.002859606647379372 
-0.04418621120659912 
0.008658829152675107 
0.04306702671737513 
-0.01389532833431626 
-0.004330579413462322 
-0.01142605778224247 
0.02721302322834072 
-0.004856249995479649 
-0.002881598200599226 
0.02944001719394287 
0.05280006490610323 
0.04561952303105449 
0.0349680851174699 
0.02627770177370436 
0.03463050758367171 
-0.02628974684762584 
0.03937134430657784 
-0.03883069157509179 
0.03019800173291742 
0.07117772489084766 
0.02080600640334561 
0.01806457922662954 
0.002606063348862174 
-0.03543217739088198 
-0.02872117872572373 
0.04943476454728524 
-0.03455048908496223 
-0.03619653612866031 
0.01083253162882491 
-0.02689384578342954 
-0.006846168543984424 
-0.04758625807818332 
-0.01261316226125688 
0.0009179142372018809 
-0.03086743192165228 
-0.01951286183829551 
0.01458631743532234 
-0.03285236763619641 
0.001688944779144292 
0.01383576159619769 
-0.01077987934514678 
0.05500096616703037 
-0.0544725286224045 
0.001994755155458711 
0.01525658152184284 
-0.02862772926138358 
0.007862406270495734 
0.0238920615032674 
-0.02891323265546106 
0.009201829223466795 
-0.03938545790240524 
0.02638728342188337 
0.02771683460159443 
0.03277066271865083 
-0.002378759922476862 
-0.01496302143969629 
0.01644210862034226 
-0.0115388602287192 
0.07940474657220725 
-0.02078474718781196 
0.02340528178640136 
-0.01777774953813915 
0.03430657841516854 
0.01064193802431498 
0.05802350981941441 
-0.01312421862779525 
0.008716553881398328 
0.001006386468935937 
0.02218880229589524 
0.03161121481504682 
0.02968564287233241 
-0.008812673990451179 
-0.0119550221924671 
-0.01178740890698031 
0.01599170533494384 
-0.01271111026141966 
-0.04717673647374672 
-0.07707289637890695 
0.02163893706963187 
0.004357290602908873 
0.007551517916747469 
0.008200877099495314 
-0.01997928360972252 
0.05747464694060778 
0.00189427343006713 
0.003077220542355833 
0.03848943516029115 
-0.0229112573621503 
0.0177764746231668 
0.03399595163795365 
0.03540114729985951 
-0.06018725868206003 
0.05805252427976879 
-0.03922124265009123 
0.02118520929587829 
-0.01621815219103927 
-0.006161281382904704 
0.008896024658791364 
0.02576115357173369 
-0.03472696555378477 
-0.007954739058801513 
0.004757816234805981 
0.02281611303850827 
0.06724815869546233 
0.008611635706640383 
-0.001750345884740557 
0.02962853720540215 
0.01250112486392217 
-0.02437737747437315 
0.03173256183120801 
-0.01231677766338401 
-0.044374857900412 
-0.01152270308827047 
-0.02127094436906394 
-0.009945644207565562 
-0.06859620754188686 
-0.001881182966426412 
-0.02121497621235714 
-0.03354827884537718 
-0.04531694147883707 
0.03708312692719083 
-0.01325343982585075 
0.05651419180426141 
0.01213210667913226 
0.001902274772024281 
0.005714790369383942 
-0.01928414712538973 
0.01054231059252578 
0.01017658726745558 
-0.03488069667678257 
0.06044995558149169 
-0.00387332247420363 
0.03252703978876761 
-0.03332744706077022 
0.003107449705875075 
0.03129155325430168 
0.02913495444294558 
0.03061944797969011 
0.0334600092501483 
-0.0353697374823224 
-0.005713361946271755 
-0.02954476278846907 
0.004092176659961006 
0.02472895706916128 
0.02926034674398493 
0.0352866592806298 
0.008673952044691739 
0.009010682310279877 
-0.004982204849426301 
0.0184698276629237 
-0.04025786925637607 
0.006738854536176708 
0.02376951166280192 
-0.009848119440618868 
0.04837298299085546 
0.01017223741087701 
0.01977611836380719 
-0.01198058376209496 
-0.01402957282595601 
-0.01027815948336149 
-0.03761929989501866 
-0.0441072132091167 
0.06921022129952391 
-0.04018466930630486 
-0.01205201413247347 
-0.02951484078292783 
0.001026926082308497 
-0.002550100777861121 
-0.05416315283281465 
0.004702613370112302 
0.04111307941865859 
-0.01573047496906145 
0.01133280984669914 
-0.01408496275952721 
0.05351696846405336 
-0.05208009189094516 
-0.01515625879604612 
0.04425100749041908 
0.01129672302793155 
0.01682787884638433 
0.01443930550791074 
-0.02223197138286356 
0.01701218870841901 
0.008918986260764912 
-0.01211997385121849 
0.00246921907000263 
0.03670569402061954 
0.05907922685091539 
0.02994102620485066 
0.003331759748660013 
0.008491734191330423 
-0.02093166361074828 
0.03429965574316111 
0.01302666153948786 
-0.000665534029097698 
0.02635449856329448 
0.02769195497524189 
0.006252027765456998 
-0.004092297865803632 
0.01587925184468186 
0.04481365089999993 
0.02560091582516685 
-0.02168175493067145 
-0.04039263754733186 
0.03054995124121302 
-0.0507290162764646 
0.04459791934253261 
0.02938388163234919 
-0.021164214134688 
0.0157108016160794 
-0.06077603595618153 
-0.01639232323874729 
0.009445138790545692 
-0.0645428615140369 
0.04061055415072713 
-0.002705307499837472 
0.0008688082350273167 
-0.05740890587964833 
0.01818354939480637 
0.04307541571984409 
0.01882974790873283 
0.04317280590908035 
-0.01376315429562223 
-0.03637719426104795 
-0.02251293915205844 
-0.0463769644088888 
0.01033457242269981 
-0.01820372341259229 
0.01783724932553536 
-0.004846527784759396 
0.01603768781857576 
0.01292717273634688 
-0.001663235674658069 
0.02740523052142475 
-0.004163525975571325 
-0.001731933570370805 
-0.0109964607633552 
-0.0201436082694353 
-0.05835165176904267 
-0.01662015831020509 
-0.01590495722201088 
-0.01672952445742463 
0.0008096176035015847 
0.03967108950557838 
-0.006811708181739809 
0.001881484658761392 
0.04473314593890811 
0.0534484689273351 
0.005918290432660572 
-0.01876855800244474 
0.01098869140726753 
-0.01547054863479032 
-0.0134460845096262 
-0.01754778944330229 
0.07035149031451914 
-0.01085543061668773 
0.02310764792148347 
-0.003677109359218576 
0.03989788723418301 
-0.04338397978281659 
0.00210925205875523 
-0.06513674726658042 
0.02679964284218867 
-0.01316742573954897 
-0.03592657764591446 
-0.006291822026359729 
0.06360459708064709 
-0.0123725415541987 
0.09207003915737329 
-0.06323074031103487 
-0.01019823652937284 
0.009506439640575645 
0.02113201951170454 
-0.008152311405478225 
0.04584885591192861 
-0.05196762798273856 
-0.01581920173772506 
0.02628072851755411 
-0.007940669789090431 
0.008012299679390015 
0.04911607662564151 
0.02730935017446058 
-0.02249536122912488 
-0.0127270154167954 
-0.01199086059726598 
-0.00446340106254018 
0.002984105591388844 
0.04733419681193207 
0.04193453912512883 
0.007849182201883208 
0.02288186688507442 
-0.04616844791854295 
-0.01066299003626137 
0.01276577360951432 
-0.06156761382162588 
0.003946196813563772 
0.04383143203412748 
-0.01533708425781325 
0.001435779842259632 
-0.02104723039543684 
0.01306784835224186 
-0.06326863430245333 
-0.03802539907782078 
-0.003025174969512438 
0.004297498196353011 
-0.03163412249609857 
0.03008419316842694 
-0.04528122931968261 
0.03891208012850368 
-0.02181769362380658 
0.02142486257199053 
-0.04525713148717016 
0.05276188595664216 
-0.02643132490440755 
0.01619904920226689 
-0.0001264035571405408 
0.01784114811392695 
-0.01239204495660616 
-0.02818517458021771 
0.00848416856847292 
-0.01521343921924385 
-0.04698551062331234 
-0.01247258961166694 
-0.01646986915683112 
-0.04904032480631621 
0.01501410129975208 
0.002481631587596189 
0.003086648278312273 
0.0009591401493162368 
0.02401006701599829 
0.03530134474704984 
-0.004875855510209587 
0.02951623043301002 
0.007446424778614297 
-0.01576757532038843 
-0.009789510393350699 
-0.09640885905794025 
-0.01451040610717352 
0.02283029260580973 
-0.01891291061231714 
0.03576167570320285 
-0.004329403716836661 
0.02993901414039538 
-0.05702729683334843 
-0.02439555994701304 
-0.02138112905562561 
0.01252462912736672 
0.02868738965978712 
-0.01693623708946333 
0.02830160265541808 
0.05637241117504469 
0.007949133870102822 
0.01689967757498645 
-0.02665181289452828 
0.002991184018969267 
-0.02178378232470258 
0.05065017744433043 
0.009728508610185704 
-0.0430371397820578 
0.02146961141348277 
-0.02310673047762133 
0.006432711667523895 
-0.02044749896814654 
-0.03711538801892174 
-0.0471692388656741 
-0.02903957458504408 
-0.06931182350293484 
0.0003221442619294955 
0.0003652103362329938 
0.009527214926065281 
-0.000663438569477802 
0.0003392790743643079 
0.06088393885168879 
0.009490641392291129 
0.06919623001503387 
-0.007074742012269722 
-0.02997106026876181 
0.004620721716249607 
-0.004006499370559639 
0.00138472217899286 
0.02582199972848694 
-0.02287796813844135 
0.04642312796387115 
0.009426159196950981 
0.002246101566704422 
-0.06864691562147794 
-0.05810287894973335 
-0.003812213965816565 
0.03199825911059916 
-0.00143842348769241 
-0.01080945980800941 
0.02070431837827807 
0.04226371307810777 
-0.0366054988631222 
0.02664444105224506 
-0.06015470025408597 
0.01241399887473933 
0.02359907504536564 
0.001487486072121946 
0.002949838762089543 
0.01816449153840369 
0.01101878914281229 
-0.01474079167732338 
0.02464309102682 
-0.01642050689657968 
0.01724322849797931 
0.01369393367143869 
0.01853792507046535 
0.003828682080320387 
0.006282863751127451 
0.02714637235321253 
-0.0079508745825908 
-0.02808477766212567 
0.02846389037341288 
0.01790342028386619 
0.0147937976150314 
0.0267608319440743 
-0.03473183248073266 
0.008086178184484738 
-0.001299915133102441 
-0.0627318585736316 
0.006063357055603132 
0.05274742898766151 
-0.02096989503604261 
0.007948605822808442 
-0.03554179929102778 
-0.002088637429738115 
-0.00716086363519544 
0.004227081249877736 
-0.02033248672198523 
-0.005430021259686489 
0.003320593054234882 
-0.01091921197625793 
-0.01868109467211181 
0.0006176052326057466 
-0.02644183911760598 
0.0458628733846381 
-0.01293934485363594 
0.04586209417214469 
-0.03831610047191032 
0.00874504802126231 
-0.006488783393861234 
0.06299938048179228 
0.004440513457729432 
-0.02445328321873461 
0.0007656335404367815 
0.0176923643724976 
-0.01156162624306555 
0.03139684123349624 
0.02530165169419205 
-0.02300270724631729 
0.02532004538784413 
-0.01392384169406268 
-0.01677727953813758 
-0.0008527481068217246 
-0.001683833675909147 
0.01824238879169219 
0.008630947598037767 
0.02105438683184941 
0.02665706865913426 
0.02390867360640409 
0.008918110676656424 
-0.0329545378895391 
0.01714592353421866 
0.01162349955706076 
-0.01998587888578985 
-0.01144296613220724 
-0.01120556231167231 
0.04192217526158177 
-0.02153380452163697 
-0.006681853299898052 
0.02099777369704079 
0.008880631958192118 
0.00979373860395163 
-0.02597872145037007 
-0.007772991338818071 
0.004272868560721619 
-0.0289752326306136 
-0.002813294613662678 
-0.0646601189452006 
0.004239674725183381 
0.04389744097283544 
-0.008913137239898316 
-0.007725798225487237 
0.02287019840051284 
-0.004801152662057306 
-0.02318120425636564 
-0.002974709967432339 
-0.02204200435227096 
-6.759971486851184e-05 
-0.03016146229932987 
0.02575817661916716 
-0.04072404358907795 
0.0007056055229971679 
0.00885667560365498 
0.00700578230463871 
0.002235126497927001 
0.009374241336166314 
0.02076481803936079 
-0.02072589582798282 
0.03415252268455438 
-0.007342682464647566 
0.02230106592057238 
0.004272292074595165 
-0.0275742580263541 
-0.006082995931592822 
0.02090458277951835 
0.00589843689437409 
-0.0006308409063295219 
0.03396402953545144 
-0.02200793893205064 
-0.005006908658753936 
-0.01445934983742986 
0.006536036373985447 
0.02699951685881994 
0.01494517133020305 
-0.02774666923958196 
0.0153771070120884 
0.05031383915677372 
-0.01666409189711374 
0.02342521854690207 
-0.03449338323358048 
0.01373874823295694 
0.07713611561711688 
-0.01190392953812095 
-7.126351984320041e-05 
0.05216105972122621 
0.01088546385704284 
-0.01853483720222701 
0.05063597948248273 
0.01980667523503355 
-0.02667739596632985 
0.0331303005582288 
4.505854628789676e-05 
0.0002560929653155683 
-0.01053373262413849 
0.01048301392886175 
-0.009498938815925541 
-0.06043103146703638 
-0.0187143170873567 
0.001584731383653908 
0.002492435811991179 
0.03357277206443428 
-0.01505539717064106 
0.0184568460889435 
0.03691272089682215 
-0.03119513137472447 
-0.004453593958468441 
0.03308313475353691 
-0.02608128746528665 
0.04366255741119138 
-0.01352199202742773 
0.02148552347412853 
-0.009157129659759303 
0.05222535770991017 
-0.008780653733338859 
0.03058109468544449 
0.02016199876756398 
-0.009070338406007824 
0.01771570703999067 
0.01529575534234281 
-0.05053705097380344 
0.04491467405775799 
0.0002203900659169758 
0.03350489437187707 
0.07485009548484844 
0.004839997034830853 
-0.004831468355937728 
-0.03786100220505488 
0.03777110697807872 
-0.01102018565918892 
0.002307417011609364 
-0.008174559943343825 
-0.04482628204983631 
0.06339640116618858 
-0.03485827109051046 
-0.01540733445798696 
-0.05430370775368391 
-0.03533248495178811 
-0.01044846998732393 
-0.01982015860558911 
0.009813655415256899 
0.01910882982241239 
-0.01862479842155401 
-0.009309040990659488 
0.01788755355923343 
0.007151311045167732 
0.001036115931247232 
-0.0550755017913841 
0.003111560470031117 
0.02988684433258678 
-0.01167164253417848 
0.05280237709447918 
-0.01077082195968464 
0.03087866142109345 
-0.03294655441733291 
-0.01800168787124548 
0.003768783455971405 
0.01042540528054761 
0.01434590127931804 
0.04030039254453647 
0.01599014134664657 
0.01255646816496701 
-0.02813356675675511 
0.02602675056420268 
0.01611402027228249 
0.00132526585752832 
0.09778722110142693 
-0.01464454865351686 
0.02089194832253184 
0.0005539669947074295 
-0.0243786741302414 
0.003734795750054126 
0.05262890022928387 
0.04377474748407565 
-0.01917723042775381 
0.02293432181894846 
-0.03807911581871765 
-0.01990304833959372 
0.004386331847869748 
0.01344255034813733 
-0.02627188601058103 
4.738531293442789e-05 
-0.04352541805978878 
0.03207976207035667 
-0.0279312083876694 
0.01693030745871412 
-0.001655462293439862 
-0.003647096745560108 
-0.009343691840163544 
-0.0604668175268175 
-0.01352994599606115 
0.02134093427752787 
-0.02176904205740591 
0.02130451726496346 
-0.004865711529953833 
0.001536759534116337 
0.002317599477295631 
0.006785677999298529 
0.03788152167097898 
0.03472031209086556 
0.03243706144682018 
0.03755232532427571 
-0.02555424817254903 
0.008049720354231302 
-0.01858970175427081 
0.03722320113681318 
-0.01530356474689357 
0.05828818847835499 
0.001004564171471568 
0.02477268597090303 
-0.001199808417332453 
0.02229945809778293 
0.007504143048026977 
0.01056850570270216 
0.02219882868409283 
-0.005370393302151294 
-0.02742878366470086 
-0.01386839837300468 
-0.01103068230849947 
-0.03809993874114666 
-0.03904400964594601 
-0.01416285874158785 
-0.0280200633323661 
-0.02121036274647676 
-0.06121715882596856 
0.02146210525060942 
0.02308032301009841 
0.02785012897185267 
0.003694073727817417 
-0.03176154945233658 
0.01613424432907221 
-0.001326179370566161 
0.0332201089041315 
0.03222262166741908 
-0.01221319363414966 
-0.0125322982264847 
0.02545169241054976 
0.009677520062052121 
-0.05105501417960826 
0.01206510377404377 
-0.04984004299213202 
0.01256037769439325 
0.009383643923815065 
0.02963089273600493 
-0.01425598751482191 
0.042922782786901 
-0.01833070459669897 
0.01170321042736238 
0.004000458696967388 
0.05210765372529242 
0.008755211655592576 
0.04708896386388284 
-0.0006599265485490472 
0.02799098936543179 
0.02833469436060947 
-0.05463132524829441 
0.007003872907867759 
0.01207036117272165 
-0.03255712702369413 
0.02738415050493514 
-0.06585854170481943 
0.0162922522258856 
-0.01705946060383094 
-0.01960717509088506 
0.008226983827384193 
-0.02443669260596366 
0.005689868754803372 
0.06714706354607744 
-0.010636443665537 
0.02342167079341464 
0.01184393480836619 
0.008194203914110923 
-0.004501518750052586 
-0.03229795611358591 
0.02432514527007075 
0.006576179481913117 
0.0009156029523153542 
-0.0300804526587821 
-0.008072389007634335 
0.06292796397300954 
-0.0534062818205089 
-0.03269998496976911 
0.02786762899894158 
-0.01500124375664756 
0.005412325218810997 
0.01041890181098248 
-0.01969540311372581 
0.030745655012649 
0.0140052144121013 
-0.03303255021659649 
0.00258946909761162 
0.02560279901213169 
-0.01441021992850434 
0.0235727654217464 
0.007079624519976621 
-0.0340491955096767 
0.0283530020835503 
-0.0168549994097022 
-0.008127911627228668 
0.01178858721281423 
-0.008469179238924946 
-0.01267952854537389 
0.04809477554467508 
-0.01323373677764902 
0.01902934748444859 
0.04155264440252067 
0.01355932068274393 
-0.04529276372623716 
-0.03641871712638736 
0.03670964774081939 
-0.002993222568483602 
0.05977944474746998 
0.02733016759932408 
0.0006607897182554395 
0.02330872023600267 
-0.04206791274908623 
-0.01593412338374178 
0.008687469812561726 
-0.02511140164943887 
0.01013118420304178 
0.02384722652914839 
-0.003197773638797662 
-0.05270062285738347 
-0.007919961735315947 
0.0176981089247461 
0.002511700396064417 
0.01073434903500181 
-0.03241639590178273 
0.007090241973792648 
0.01478346618476568 
0.01561133148023817 
-0.01879428365012534 
0.004166940114101974 
0.03522445050961029 
0.006209559766268114 
-0.02536629156528121 
0.01477284472435553 
-0.007151539602785325 
-0.004209842341963929 
-0.01459250848009524 
0.0265364532570285 
0.06567854417486198 
0.02958948078786779 
0.007510243298063129 
-0.003640089056211128 
-0.01912039639673553 
-0.03571873568602778 
0.03566979097876424 
-0.001466419967439533 
-0.01712254196482235 
0.01273237773210241 
0.03216806307424726 
0.02070895483922347 
-0.01361101336199667 
-0.02135381020036217 
-0.01946003697683607 
-0.02412328527066724 
0.0462560779952402 
0.03692557319680868 
0.03273225585710415 
0.06427323812467517 
-0.00873350787191088 
0.04109757612177582 
0.02410527420866607 
-0.005971992404674172 
-0.001677951123388701 
0.003115273569234032 
-0.008851262483228491 
-0.009770563721182979 
-0.009405867829849117 
-0.01894789567645538 
0.06258239654028415 
-0.005822013289335777 
-0.05268135364219637 
-0.02104876790003657 
0.04838698781362857 
0.01622774138502205 
-0.03401802391669905 
0.003023157613594912 
-0.05468954823282382 
-0.02647449197322718 
0.01841656771239173 
0.05477125342443723 
0.1119917736424183 
0.0004438523213928733 
0.0007658043532273389 
-0.009041396214996564 
-0.02027748717494103 
-0.03510183340748601 
-0.04575141469508603 
-0.01176278059789706 
-0.03641700564581542 
0.03068038262689782 
0.01350753594164604 
-0.02889919795661859 
-0.008029221357392266 
0.0324562824011246 
-0.04830454730566126 
0.0009416118995473668 
0.05465808299326613 
0.02477242017484219 
-0.004384766977571175 
0.04157845121714425 
-0.01330722493632139 
0.008556167039854786 
0.0254197910007729 
-0.007282582327493959 
-0.02690677412752988 
0.01329965228153761 
-0.003802987885974491 
0.01654949903586213 
-0.05415982894990595 
0.005784406611410118 
0.05214241583525869 
-0.02261104382396623 
-0.0362059769402519 
-0.03558201406620332 
0.008912565467780622 
0.01230536381046403 
0.01755111923908324 
0.006337369084684054 
0.02514347994911922 
-0.03319676412367103 
-0.03569630959257284 
0.1101010508048537 
0.01808294098204326 
-0.00135486874963473 
0.01388066280866247 
-0.01056078354956399 
0.002676039089109402 
0.0005941305144014265 
-0.007316448810616048 
-0.001211620534588136 
-0.004657181764007221 
-0.001557335911658561 
-0.008498277862024376 
-0.01349934515269177 
-0.01204605707838588 
-0.01326584285119062 
-0.0926084142664418 
0.06250376892168016 
0.0428838738791852 
0.00699124438199301 
0.03002928380369775 
0.05999125033273723 
0.0175157626933666 
0.0504735980742657 
0.02045275549361683 
-0.03279409477896648 
0.04254726737582984 
-0.01445783586145903 
-0.007606285806815962 
-0.02932712667576387 
0.06121916288549837 
-0.02160009877506035 
0.08039640062764335 
-0.01264656218886672 
-0.02316358484871924 
-0.01990409521700484 
0.04265808550285587 
0.009417034576422951 
0.02133391890523095 
-0.02195555552264377 
0.01878280074065005 
-0.04104699756948963 
-0.02963270585034637 
0.05164132771294969 
0.04227808245354241 
-0.02668022711639127 
-0.01540045035036865 
0.03664889493406055 
0.03139538631867446 
0.01118870995949032 
-0.0133065973745852 
-0.01059013187999197 
-0.01638575486787445 
-0.004563002721958958 
-0.003254575560029953 
-0.008697889918129739 
-0.003041247787901659 
-0.0004141600524350039 
-0.1093956450849329 
0.005653812081507201 
0.01569769238780573 
-0.02152646725032753 
0.003622296121340054 
0.02843991201899638 
0.0187327248048965 
0.02081478397401865 
0.02706564575902427 
-0.07776268189354109 
-0.001824703583415933 
0.03557536432603519 
-0.02973681126078625 
0.01624659375374556 
0.03795116157897889 
0.006293044573390376 
0.0589863278723123 
-0.008916057429779925 
-0.0319929527923023 
-0.0146920207845052 
0.04588407784199866 
0.05972391977525208 
-0.01307607225334096 
0.007599101883848446 
0.0018169939499093 
-0.01118654571441955 
-0.003780169369894993 
0.06656577415735229 
0.02475089728463961 
-0.01473398944791435 
-0.04987891464280998 
0.006716905758660596 
0.04283566307126947 
-0.02481366722229724 
0.01699364200478113 
-0.009245008523732634 
-0.0273836314001948 
-0.006643531047602519 
0.03193375927274353 
-0.04270150939791285 
-0.009633318566426623 
-0.0245891723330214 
-0.005742830848319108 
-5.17345759865949e-05 
-0.008640313468707139 
0.02900905918449344 
0.02266596232972115 
0.04983804349267412 
0.020310803406489 
0.03004692144081988 
0.06518135973882351 
-0.006692342035230205 
0.0305764434458971 
0.05022024144017012 
0.01029942043687019 
0.02111472467556931 
0.03405867309090445 
0.01743294179751715 
0.06222030808951418 
0.001410061661410977 
-0.02160360631216277 
0.007669113134115437 
0.03500615684518382 
0.01787755024825324 
-0.04632708594475389 
0.07004866109146071 
0.06915256577636969 
-0.02478127652021532 
0.02579407232727285 
0.0629878022746992 
0.04176363259584064 
0.003110675467670632 
-0.01533451217478301 
0.06385563019160317 
0.003684782824296539 
-0.02403805804899042 
0.03516918112236423 
-0.0748149374054607 
-0.05663276655761702 
-0.03071213129185833 
0.1140572851106389 
0.01889549384102913 
-0.02781305439209708 
0.03678276397552345 
-0.1373015304131372 
0.007215563556026154 
0.1186581713824864 
-0.04639311955817415 
-0.04116597195355194 
0.1017807679500795 
-0.05895515120992471 
0.03467740744240461 
0.03730958829419957 
0.03735159603137369 
0.0005624109296490489 
0.06489265425670038 
-0.04090821929074547 
-0.02597857424251496 
0.02180971823358111 
-0.01592741734785481 
0.08689602536581499 
-0.01330389488000683 
-0.06561708514924453 
-0.04932049864625836 
0.1099699564820681 
-0.02831033966285757 
0.01930353048985409 
-0.007998445721151748 
-0.02860008478234081 
0.003283304529245582 
0.03588196491695025 
-0.006889452443224811 
0.004849413592060437 
-0.03190500763253269 
0.02494610278259862 
0.04788545054615503 
0.008525323671878504 
0.03159171924997021 
0.02629454004344488 
0.009329845634078245 
-0.01452171063372767 
0.02635129972924102 
-0.006667449980389723 
-0.0008218798567607025 
-0.04444803106641153 
-0.002656902100414571 
-0.03389088291931896 
0.05338648535406692 
0.005131533984028332 
0.0199803360660279 
-0.06297420902127193 
-0.01689914561541961 
0.02996616098081478 
-0.005396260018075373 
-0.04422697520629023 
-0.01675104951045353 
0.009157877912150985 
-0.07986935134411753 
-0.07076653304453778 
-0.01986398814803003 
0.04662049213202853 
-0.02432170341468907 
0.0535347186962824 
0.02918415484048948 
0.07477489616777054 
0.0001005903799087553 
0.03956285745807787 
-0.01841859707784927 
0.01168946364356645 
0.01465517321256737 
-0.005920483964371353 
-0.01641073430800468 
-0.01123711007059272 
-0.0301093007920818 
-0.006991784203708851 
-0.04852463133308564 
0.01175379305771455 
0.0138466431603737 
0.02837163739300302 
-0.01445245532246755 
-0.02873757801628149 
-0.00200785722287933 
-0.04829522749376922 
0.02487406698945648 
0.00314084503598904 
0.003531386505377679 
-0.02048190420197139 
-0.02021605417877344 
0.0429325387874442 
0.002751533465256043 
-0.007271133965657732 
0.03966023190434751 
-0.0294782999489353 
-0.06970091017920528 
-0.04523451185385282 
-0.01774617049196665 
-0.03384637607261706 
-0.04432547485012401 
0.00286467862008826 
-0.08941989386366912 
-0.0346383201577139 
0.01305009235499612 
0.01517824250264715 
0.003114246000552975 
0.02782735929433085 
0.0383782991711668 
0.05621691583019374 
-0.02618151348352751 
0.01976810134877947 
-0.04707001252664717 
-0.001453893144730684 
-0.01661905926073483 
0.01381586675723151 
-0.03253950310127031 
-0.007709722644273432 
0.02671212972479959 
0.01059400563715972 
0.02561731115586293 
0.002490697346812831 
0.06492891084275657 
-0.0004694452382444207 
0.01183386961501281 
0.03535040711159916 
0.03766060822673659 
0.001023958467986453 
-0.0124779013903326 
-0.01521361811038714 
0.03401316393154744 
-0.01608162041015276 
0.01557895664376094 
0.01365765231015695 
0.03451727452598931 
-0.005584174833990454 
0.001554297296093849 
-0.04202252644809005 
-0.004530496841665982 
-0.003849744225424279 
-0.03711341918965951 
-0.0155492849090751 
-0.04182751629441819 
-0.005350405694980754 
-0.04530712064386795 
-0.04923358108890626 
0.004201919403755914 
0.008921052190900001 
-0.01869765545572744 
0.01433074896163786 
0.01349439188558994 
0.04358156283112088 
-0.02508174166134531 
0.01665946909316051 
-0.06859618461113645 
0.01311779436845036 
-0.01730397652474776 
-0.04083236548193003 
-0.001608703104422487 
0.024556130759629 
-0.04087634217105853 
-0.01476745564230831 
-0.01900157884266752 
0.008095946251405622 
0.01421727950920047 
0.0394934316539104 
-0.03705056854662547 
0.01622963439701919 
0.0198636983097745 
0.03536425668977011 
0.05047742762837679 
0.008773115047794051 
0.02827843298221908 
-0.02198231165506159 
-0.006148855657651399 
0.03833975250799147 
0.02158301603809641 
-0.03952432556090175 
0.01138044593975912 
-0.04401390178236622 
-0.02870547978890373 
0.04404333021193398 
-0.0196241003210406 
-0.03061804119056451 
-0.03831493007258412 
0.01236103170065711 
-0.08798470371515542 
-0.03325458339191886 
0.05424713908992491 
0.0111478727704159 
-0.01773422522622326 
-0.0340653062271318 
0.02358280127294295 
0.02901075424333374 
-0.008276593158244944 
0.004697125659514649 
-0.03875190422521347 
0.04266893719799165 
0.009307249611931481 
-0.01753633584124676 
-0.00500279627589905 
0.00810838265788962 
0.005644355186458263 
0.01692664928038607 
-0.01782532872332958 
0.004801468403818538 
0.005760301281004115 
-0.01412655430889632 
-0.03660674888528855 
0.01037834208495722 
0.02259928948707304 
0.0119601689643059 
0.02926979583532817 
0.04274637651624659 
-0.006553933197425451 
-0.06052322797091718 
0.0236174319914826 
-0.02759175211889863 
0.03842842300520474 
0.01319836618540713 
0.07010013673071896 
0.02700752411626087 
-0.04174754984852393 
-0.01855710085758391 
0.01926766821456676 
0.006144638904646516 
-0.03056862357709193 
0.004200930169081727 
-0.006391165242125159 
-0.03795811901306483 
-0.02971210679380168 
-0.01933563160049509 
-0.05070767935793073 
-0.01435143508083807 
0.0290169329842324 
-0.01843516130711938 
-0.01669614795530408 
0.01259361953543852 
-0.01268861703900335 
0.03034797599631076 
-0.02710906970794615 
-0.0172576290053976 
0.008562373416448056 
0.01566036449720034 
0.04547599434470652 
0.01066290250672544 
-0.01966895500985624 
0.00672118312305405 
0.007181845091368468 
-0.04587360119928348 
-0.005921649565793432 
-0.06156725712333921 
-0.0260584439089797 
-0.005962034625108156 
-0.0008596514933589249 
-0.03417501250483861 
0.008387974664127711 
-0.05572024603455748 
0.03017748493823587 
0.05388280135898549 
0.0115753606012271 
0.005901059472955109 
0.01285270589996956 
0.008893933923011773 
-0.0576374546822203 
0.0622017445591976 
0.007981220788487295 
0.01637038214393476 
-0.02742520103472055 
-0.004333336176222289 
-0.03600253988607043 
0.01614853859652758 
0.01104233718995623 
-0.00984512314951775 
-0.002149327475874052 
-0.02920277869935249 
0.02281277305888543 
0.001780191118007821 
-0.02150933583695894 
0.0400161450583929 
0.001186983754855472 
-0.002540146857496926 
-0.03043613689717651 
-0.01928673952156876 
0.01898938308441674 
-0.03241719286199932 
0.00223759449165348 
0.006991310063536533 
0.002888322151830003 
0.001820399686074296 
-0.03030155826288428 
0.02677426700315822 
0.02492506257770037 
-0.008731778424795842 
0.007066019726422798 
0.005333157218988712 
0.002714729833067419 
-0.05507970700289872 
0.02643121495557219 
-0.03262290072211599 
-0.005074830683724139 
0.02449959275052403 
0.01463225176355016 
-0.005530004511446134 
0.02843856571246108 
0.0005886218632467464 
0.001907358639133717 
-0.05841973640217997 
0.002250775242898275 
-0.01465402539895994 
-0.06016423746825734 
-0.01234704866985365 
0.008303389818848221 
0.00214879376436487 
0.0192744492063544 
-0.01413526141854072 
0.007592300507078723 
-0.02688937045614629 
-0.03088395377872814 
0.006203094689755366 
-0.04052635607161221 
0.0379958414639518 
-0.009647545368423138 
0.01122222310401475 
0.001449854733537213 
-0.03484713745037684 
0.004837883315279531 
0.03935282252888801 
-0.05762402823119752 
0.01015507607349909 
0.01295522426483402 
-0.03161927621277078 
0.01599243013913145 
-0.00390555850372982 
0.02632906478337545 
-0.00852868423359558 
0.02604492738971271 
0.0103925717223403 
0.01981881733959217 
0.008195465058557455 
0.02470040311607213 
-0.01129255904072396 
-0.0217808468074311 
0.0007619067137195992 
0.01359395133888675 
0.006266180855713927 
0.04242889972474286 
-0.001688545552745647 
-0.04884297496124347 
-0.02346091445317999 
-0.01294138109379074 
-0.006885043865987061 
-0.02463216012491947 
-0.007947226568503067 
0.0004163460590272359 
-0.0125418791131536 
0.04712252973058952 
-0.006527113715562779 
-0.06650847900497935 
0.005805876349223433 
-0.01051916748455731 
-0.01701290118349931 
-0.04652894923277194 
0.03070919191194492 
-0.01575443335924429 
-0.01208151982946694 
0.03010721675597795 
0.03854696365819196 
-0.02355643893074609 
0.01818180450466296 
-0.002368064511489606 
-0.00823793738857144 
0.001390239739138004 
-0.01073181734695689 
0.02078688610543245 
-0.04550504877374813 
-0.06115367154692286 
-0.01148615311022339 
0.003783101011607084 
-0.02598294683313367 
-0.03647457598000602 
0.02528376798820658 
0.007793255282578412 
-0.0391694550116667 
0.002419557934132172 
0.04242302649440894 
0.008157337308198906 
-0.03903810432384789 
0.01628635949649496 
-0.06179719072378728 
-0.00931642023866195 
0.04972613342891381 
0.03095455051841442 
-0.05157154350136604 
-0.03659768749440807 
0.00439177130510985 
-0.04583363342955705 
-0.0006730102907768819 
-0.05727149310570699 
0.00910292891931162 
0.005085662938313963 
0.002071782511470964 
0.01325181495240769 
0.01907656658297143 
-0.01643774169209792 
0.05918971660173922 
-0.05946984128506005 
0.01000604295670862 
-0.01178592732877263 
0.01079266657849117 
0.008345203800364954 
0.01382549135169288 
0.01126529588429802 
-0.003064094676416313 
0.009770734693531407 
0.0248465476627868 
0.05156239447645022 
-0.01424043875430767 
-0.02855970822108678 
-0.003864570273370437 
0.01722976894019037 
-0.008304333079129797 
-0.0252896646457683 
0.02345032122002078 
-0.001885448681038884 
-0.05658920765638529 
-0.006418097384922649 
0.01135927152284933 
0.02942310989942403 
-0.03762890975204323 
-0.002524629891849016 
-0.01408428558848115 
0.0421658326360461 
-0.007560898111528806 
-0.001297319077750535 
-0.01252421184113424 
-0.02868350564939365 
-0.02180444545230075 
-0.03240287641954211 
0.02755027030798357 
0.02316025789928906 
0.005217068760561933 
0.02811745406355439 
0.03521426088427968 
0.003383427899262613 
0.006634031727369078 
0.03116387551412271 
0.03363197234823787 
-0.02377615972404247 
-0.001853421650941372 
0.02703393135029532 
0.01872899089260149 
0.01495438647914318 
-0.01548224413182296 
0.03230403537354408 
0.01537632425478639 
-0.02493916332157536 
0.02356472152189672 
0.01580237483305636 
-0.02683708983296744 
0.04815151261001659 
-0.03626028315503699 
0.05209354206445765 
0.0349920924012891 
-0.01842795845333819 
0.003914760132834711 
0.01064381800528889 
-0.05051188672152494 
-0.0007919346619212784 
0.01816064924218808 
0.03722390204746502 
-0.003283608499937365 
0.02040398018961207 
-0.01217949696745009 
-0.02713557450850581 
-0.05918709765814305 
-0.01608459818093138 
0.02707084823824622 
-0.01420331720578578 
0.04264535745879894 
-0.0232839496026017 
-0.01085006233684641 
0.04702136175995922 
0.02123460936355712 
0.002092168093711945 
0.01692679595928066 
-0.01468191050656372 
0.01853931868277576 
0.01883741299143196 
0.03882586288177976 
-0.06432067467810137 
0.02460265827191227 
-0.00401968251923069 
0.01356604841150478 
0.005979251329979994 
-0.01919363216758545 
-0.04179846464804775 
0.009892741894710726 
0.05304353947193202 
-0.006735838747199926 
0.0002832869344463201 
-0.03197308475164373 
0.004252285532509874 
-0.02463266879847822 
0.009164967986577404 
0.02600335511502805 
-0.006796507791683712 
0.00736324062890033 
0.01875385782877577 
-0.04426329884751952 
-0.01491952178055051 
-0.03168988329350717 
0.01266810093341096 
0.04992729833645702 
0.04088956238907746 
-0.03636853996391359 
0.01157131191121637 
0.0009813335852300613 
-0.02111104568305923 
-0.007434565508722409 
-0.01954453014399847 
0.02737042898479091 
-0.004980215155746532 
-0.003999602225927534 
0.05016479606735241 
0.006591655827362751 
-0.02965298839292158 
0.04732975374878416 
-0.01838199242642943 
-0.009951439662718794 
-0.02766697425571769 
0.04126064551253349 
-0.02218577723662891 
0.006792939714521743 
-0.01340076937524349 
0.05779288845673085 
-0.01785775341568312 
0.003642989538357354 
-0.005154680710501448 
0.005255778121704568 
-0.01074255281323967 
0.02904349544535801 
-0.01478662634871124 
0.006787919575171367 
0.006382642001623417 
0.03123981517770679 
-0.01292547447189701 
0.01901227079944014 
-0.03363826421869619 
-0.05361864132124829 
-0.03080984849994257 
-0.07618249702838931 
0.06653575568269939 
-0.002020175338913525 
0.03306727790322841 
0.009513282972033446 
0.03479580712690155 
0.01289124559086223 
0.01589533605724469 
0.03822650436966363 
0.01172000675120046 
0.01051976481388752 
-0.05606890601518195 
0.03709656055610754 
-0.06357631227829695 
-0.00919570609374489 
-0.04487546041658314 
0.01447951994072615 
0.01901171932432095 
0.003582312740619662 
0.04099190003698139 
-0.00813800960448641 
-0.06645075073101923 
0.03570564768076291 
-0.04364056709693673 
0.03802958567184216 
-0.02625335488750294 
-0.0008830422864616365 
0.01998052297306904 
-0.01633279068929001 
0.03037493560569867 
-0.005318243330830205 
0.002612973780569128 
-0.05149930115259836 
0.02165610757708379 
0.0132697694407275 
0.003955392879420695 
-0.02455582584391488 
0.03487334058105482 
-0.01301596866638626 
-0.02410915689881592 
0.002650936298621591 
-0.02697172007430355 
-0.02236318022607553 
0.01346979619198554 
0.0005164381992560537 
0.001529237154878222 
-0.0383535994623353 
0.01175154242040327 
0.02988355162179337 
0.03468743022483655 
-0.0289779177970801 
-0.009110195240462658 
0.03557105134180594 
-0.02222946103506631 
0.05174868040763067 
-0.03572413845771859 
0.004247283272808511 
0.01168404644657773 
0.0403562033655017 
0.04442205382610105 
0.01742646636764636 
0.01758221037325184 
-0.002451933242240285 
-0.04706650751767841 
0.04996935205937461 
-0.09075751021694906 
0.01145899293996652 
-0.008269797174418798 
0.02099763876220703 
0.03369141362729118 
-0.0100596616516597 
-0.02832067904786125 
-0.01425639857222263 
0.000331436740661308 
-0.02938543598885804 
0.02766053939252098 
0.0004399014026597565 
0.004127257306449685 
0.02200878363561713 
0.001322330736893033 
0.01665279769351347 
-0.01385887921482286 
-0.02065997826803042 
-0.01109306352219274 
-0.04736698639884519 
0.04224479816695733 
-0.03535657011147863 
-0.01671059021331429 
-0.02689836479275671 
-0.02013985662829034 
0.00887667714840139 
0.01000779775313294 
0.033336542897021 
-0.004070206432930281 
0.0128981521727232 
-0.04923394902683988 
0.03405889762712869 
-0.0683943559946819 
-0.02122015427477603 
0.008764804172480226 
0.05386012340031462 
0.02288471797195654 
-0.03804540581160792 
0.03038950290027824 
0.002529941272802405 
-0.04050695298192244 
0.03076739594627695 
-0.0889923688351001 
0.04493411992497192 
-0.01723232182652612 
-0.000181240007445595 
0.04577367978109374 
-0.0007587320141937858 
-0.006677961245771577 
0.02085383036498053 
0.003253659529717837 
0.03589521250204433 
0.04224324511915891 
0.02671769637181854 
-0.003430204228603442 
0.01057722101358625 
-0.002185837542962324 
0.01837211008020653 
-0.01434853227856718 
0.0468962077029667 
0.04574211128823896 
-0.02593184169576106 
0.04384929640333204 
-0.002132114343789283 
-0.0003718185107967058 
0.03043318495657793 
-0.05770215495883717 
-0.04858625015095467 
0.06592400739985234 
0.02549925777753939 
-0.002026218942733002 
0.01645313243615628 
-0.04923326911520349 
0.07826211686597345 
-0.09564232623443859 
-0.01206960367709856 
0.01833993041776943 
0.04897696641458694 
0.071080967719915 
-0.0153507201368391 
0.06212649171999239 
-0.01744516797904059 
-0.09085595108838725 
0.01317407587141319 
0.01357636708804815 
0.01205749385905427 
-0.01214751476243097 
-0.02252345328985708 
-0.0009551460539924248 
0.02180700372945672 
0.01530010674912063 
0.0001617452157138485 
-0.0252870865099636 
0.01594431602857594 
0.01847463991297894 
-0.01150521032899927 
-0.04447785754192538 
-0.02472441958855466 
0.00957117429453885 
-0.03038895159652687 
0.02157667139527984 
0.01704155116139204 
0.01481605734341282 
-0.04457835801881345 
-0.0224991637872251 
0.02423129592944251 
0.0354270222694567 
-0.02250275722353412 
-0.03090572386885817 
-0.03074004689185424 
-0.01012774039905444 
-0.0229933232394002 
0.01213978496550091 
-0.0272498998613795 
0.005390844668877921 
0.0007281729352762251 
-0.01695381274776777 
-0.01936443085309311 
-0.009129187145415208 
0.01244365874073011 
-0.02595837205040176 
0.0159997421239204 
0.03055736803174196 
0.01204729571462524 
-0.02369199447108443 
0.04860456474435397 
0.01859570416227763 
-0.007067293573867706 
-0.01161994535457032 
0.02084077475727021 
0.01394652436226789 
-0.01605447558699258 
-0.0463076235657232 
0.01037033585441662 
-0.02144119792755589 
-0.0008040107773445573 
0.01538843426362986 
-0.02847794358541468 
0.001033214827886493 
0.05915310656721282 
0.007829745172700159 
-0.02048213536017874 
-0.0001239205089242623 
0.04434042894679702 
0.02718476912554198 
-0.03075401572652008 
-0.005219563711497392 
0.01601094396719151 
0.03736820204904537 
-0.03265817203365895 
0.01773674897915967 
0.0129933737478337 
-0.04392236601329232 
-0.0009666950931451152 
-0.002336482164836041 
-0.01378409184529288 
-0.04662426368996776 
0.0004558125790058477 
-0.0456885759213392 
-0.01942725811136882 
0.03342459080339785 
-0.008536845352504065 
-0.04387977336495926 
0.002119153288501356 
-0.005581585806058824 
0.02394941749127146 
-0.04867107035679091 
0.0286267401035584 
0.009303087406067004 
0.002007356732148689 
-0.03507733319968089 
-0.01880925847783121 
0.006269838423416945 
0.01452617347727907 
0.02794545290219472 
-0.003228547233234954 
0.006607857388533301 
0.006641210911882326 
0.05087250764078806 
0.006150524021285898 
0.006523095899796488 
-0.01769234452576532 
0.01402052128349781 
0.03168294044277927 
-0.01412442398472591 
-0.01152065199675841 
0.03145876487677886 
-0.02969856179899696 
-0.001014300351408569 
-0.03133399930407153 
-0.001098221268493743 
0.004778381703866985 
0.02874178834649682 
-0.03472631595518606 
-0.002174754421096182 
0.03124787544591334 
-0.01529689131921624 
-0.02371510099789889 
-0.04962944376424324 
-0.007924999341560568 
-0.04523563009159546 
-0.01096776570772173 
0.02678272406286022 
-0.01539398533225084 
-0.01721366774105969 
-0.03481013715666351 
0.006447368988466834 
0.008916883165425273 
-0.02982350834526451 
0.007432781719882473 
-0.04469638623610207 
0.02515435664544726 
0.03609346730216361 
-0.01826633945389381 
-0.01707172206946797 
0.01063215229361061 
0.01788093036387493 
-0.01739098627078907 
0.01644220937873502 
-0.01991629685073277 
0.01400858346948754 
-0.01116007150359492 
-0.009920687813303769 
-0.01805990239654696 
0.00255389925704943 
-0.00964266654128363 
0.007079369825947016 
0.00491775194860573 
0.00640251087451176 
-0.03169170609363386 
0.02718911014496045 
0.006063851148561355 
-0.005910395905166914 
-0.03281185944220685 
0.0204625850771121 
-0.002647478697825115 
-0.03204820020769755 
-0.02797305614329091 
0.04671823396384862 
-0.0006310345695076167 
-0.009331168994856717 
-0.01184641296646018 
-0.01030612128388909 
0.02738192733689184 
-0.03616803857924611 
-0.0329912637948023 
-0.02528016752749906 
0.007300259762121585 
0.0189966182595145 
-0.01535814371680999 
-0.01423733898447632 
0.04246540232532978 
-0.02053252981091772 
-0.0119784790221966 
-0.008497437881863123 
-0.02515624164784048 
0.01019658940230591 
-0.01074001978736785 
0.007955663164164219 
0.01805040704060325 
0.02122825175895155 
0.0002178888553066439 
0.01923779279891602 
-0.009044263436428059 
-0.003623305869045189 
-0.04060990635860313 
-0.01308959676952241 
0.01153963528307526 
-0.01068536246118972 
0.04023787215592482 
0.01364458958002958 
-0.08764809085663612 
-0.008750246493979864 
0.03816424533777577 
0.04869941526053718 
0.04437247451355626 
0.02687140260900504 
0.01220199011073306 
-0.03515768781609907 
-0.01287316964200192 
-0.008246375043895254 
0.009296758685956809 
-0.03209507087706847 
-0.005235094406797006 
-0.02355173515553054 
0.0109133769561777 
0.01774809082683739 
0.01041770246032191 
0.004518713597394632 
0.0004030545155525109 
-0.01416732875149964 
0.001843715984213513 
0.007976508222229454 
0.02676685336483338 
-0.01393288719771979 
0.033248538651161 
-0.02518994293434497 
-0.001574751832794491 
0.02225148448771475 
-0.0005840795392913379 
0.002512148577555025 
0.01329132855921505 
-0.02892330617796284 
0.01285383530471632 
-0.05656179974295501 
-0.006163675409769031 
-0.03210799420987173 
0.002710905387759062 
0.021996774099081 
0.05247978116467121 
0.02624972376449696 
0.0019849538246452 
0.009847822354771068 
-0.06383207883124684 
-0.03704900810606047 
-0.0007629996610688082 
0.01879087484582728 
0.02363450754301556 
0.02878980926570843 
0.01474353718650811 
0.006163690215526266 
-0.02936796391504011 
-0.02103795567336948 
0.02414770693692839 
-0.009648023085653856 
-0.01154335514258677 
0.02935618726230388 
0.01933025641272343 
0.02016062256471109 
0.002056299260543857 
-0.02617058898719868 
0.02781049946957714 
-0.03262697933104318 
-0.00832376272844491 
-0.02211700524333656 
0.06283200337282603 
-0.01200775458505824 
-0.009307469631815427 
-6.396686024981471e-05 
0.04684055107767528 
-0.0004326229837914113 
-0.005292884707701419 
-0.01706400349539193 
0.003443339243385651 
-0.04530284702963303 
0.004369720549113137 
0.03239381654125117 
-0.02684244161864746 
-0.02924428353099003 
0.0004658022361570681 
0.0155604546155333 
-0.03636472506580121 
-0.02079022608472138 
-0.01148903924882189 
0.001022758172548642 
-0.03068025777411267 
-0.001985176011183345 
0.02381084268405903 
0.01459126310428461 
-0.02652283215006218 
0.06681252346264308 
0.005063191073209118 
0.02950464434465815 
0.02516981436419883 
0.02276261053135034 
0.03240830385798332 
-0.03667177412346002 
0.0757014348355274 
-0.04062353370928398 
0.01875471793623364 
-0.04445972005021868 
0.01631849296756608 
0.04046069610267407 
0.01716006395429381 
0.002616144875744919 
0.007966694219113835 
-0.0156781442067877 
0.05388158621986759 
-0.03599061406647983 
0.02029454106490093 
-0.002885734764433193 
0.01592448952733832 
-0.005010554459583897 
-0.02212456391083637 
0.0207700102399995 
0.01062131558528194 
0.02169907724287535 
-0.006421376352110401 
-0.007836422612942713 
-0.01349971651126384 
0.03326180838563635 
-0.007369508184567774 
0.0162474408742733 
-0.002931755264330506 
-0.0320251648297219 
-0.04095387693349047 
-0.006718097911692948 
-0.0320457756149225 
-0.006244345667524087 
-0.004103446954479022 
0.03819601566231921 
-0.006560442856101964 
0.02233267261599866 
0.01681987112109444 
0.0135273115248887 
0.0007461649905604903 
-0.02812112199484386 
0.02013769238915258 
-0.01454557587529665 
0.02925682977450874 
-0.04366162759012495 
-0.03503306401146113 
0.05910543730182198 
0.05565107049371915 
0.0168337579938162 
0.0114174069247956 
0.002529757787197333 
0.03830529203822618 
0.01427213111205571 
0.02959766858774025 
-0.04482563976548944 
0.02060953748666603 
-0.003599810659276254 
0.05281867426303727 
0.03131310634549803 
-0.005835971769029624 
-0.01066482643545972 
-0.002838850153390146 
-0.000580854649247246 
0.005118845124881687 
-0.02293732205678062 
-0.00518528845079926 
0.001394227559527861 
-0.03182993534850098 
0.04533169523226294 
0.05465156698371833 
-0.03071923856481413 
0.004769643974640732 
-0.006317660998733371 
-0.07108168376794723 
0.02306774458810436 
-0.01634008002793528 
0.02278851983429349 
0.01324020419837189 
-0.01267335114322169 
-0.09808366472055943 
0.06067714788811755 
0.01412690836145216 
-0.001811372267016459 
0.01909613989737576 
-0.0191648301245268 
0.05957964600716209 
-0.04399646212753506 
-0.004487031605108501 
0.03425480537259794 
0.01479605494302499 
0.002415548781940649 
0.002945515481127865 
0.01139690606976972 
0.01165772542397281 
-0.001403808894438789 
0.022526954396602 
-0.02410883462431036 
0.01411482869902122 
-0.01029785220188999 
-0.003360887173600782 
-0.003750363110988216 
0.04571084298855407 
0.01480520478017297 
0.01586272527268714 
-0.01531084644695387 
-0.01805583803826586 
0.02437323073444574 
0.01052469125764695 
-0.01553073885630762 
-0.008765579786138308 
0.01853204925818858 
-0.01672902872727328 
0.0337427789557062 
0.02561067636332363 
0.0132975208709277 
-0.007791083880935335 
-0.03315669347460615 
0.02864140819333156 
0.02523951769926625 
0.02803659410084485 
0.0788360017540353 
-0.007464055735348024 
-0.0841388519198884 
0.01701443672319746 
0.04278389037306372 
-0.02641683264784566 
0.01926312401688557 
0.01658258476357712 
-0.01105930538461926 
-0.04367005003016993 
-0.0406774748830519 
0.01970236046753973 
-0.05295598371939957 
0.02539533587331907 
0.004842046825679715 
0.03919042782336625 
-0.02474379774752116 
0.03803991125512524 
-0.06400759063641942 
0.01980348443433103 
0.01020118395424923 
-0.01684434849013364 
-0.00367187993471709 
0.05268647615079787 
-0.03109538039154096 
0.001124230463497185 
-0.01484827509808349 
-0.0144731703763506 
0.04095446478952158 
-0.04264566071566147 
-0.01416751944503725 
-0.08996858475380295 
-0.01294366423875644 
0.03474280228192787 
-0.02501277592676313 
0.02090261473921958 
0.0455233023206019 
0.001856188649976422 
0.005749895881204509 
-0.03140890159451857 
0.02570203572826384 
0.01562098953929167 
0.003758280098377724 
-0.02181472068873476 
-0.06150838147215332 
-0.02785216992728652 
-0.03467326668939059 
-0.009854126532536509 
-0.04891879955647582 
0.02011382635676397 
-0.01814172133769466 
-0.06810277666284424 
0.02579756858548786 
0.05823909292537635 
-0.00831479484594521 
0.002497217848621593 
0.02658749640699 
-0.01033424472735154 
-0.0528141735175443 
0.06173760340289793 
-0.04271181667566757 
-0.02229289804152734 
-0.008623118915370749 
0.01941304216611926 
-0.0008892243061783469 
0.02697289062544399 
-0.0138498942774427 
-0.009827085427597415 
0.01134329747992535 
0.0225281693153429 
0.03526776160151322 
-0.03097542629866191 
-0.02219286173454939 
-0.01380793328507121 
-0.006024703830343679 
0.02775962257773709 
0.03744053356841996 
-0.07335247231638728 
-0.01545033193849056 
-0.04062708385403277 
0.05077151567365883 
0.05512000717855559 
0.03323464511553895 
-0.0259480210848506 
0.01243903643338624 
-0.04482164885535305 
0.03946500699233636 
0.01404574980134483 
0.008155853396315048 
-0.02023131470954944 
-0.04211590935514436 
0.009242277185101077 
-0.02830673265874238 
-0.0305563212061815 
-0.05012620294897781 
0.05868223264340946 
0.003026017802692304 
0.01436973512023822 
-0.01038414702692369 
0.03396512402026147 
-0.0161284986320772 
0.06879503814759906 
-0.08844686141785436 
0.00580954862551839 
-0.01394555951767463 
0.01954098775319568 
0.0007381970972602189 
-0.03596802588866745 
-0.01041345882052842 
0.0265801266341791 
-0.02958399548167048 
0.04406068936627569 
-0.01312303918783915 
0.02135652486778396 
0.0165840257580021 
-0.007348688890944694 
-0.003722710568120874 
0.02089499831740594 
-0.01739865018468175 
0.03835850377613125 
-0.02702460894127195 
-0.03909355081620316 
0.008481190746270208 
0.02824981899850529 
0.005755586104562222 
0.03117674811445363 
-0.006557753377760082 
-0.03307563369940292 
0.03837391769587682 
-0.006278126785036317 
-0.01041258521817879 
-0.01527756378402236 
-0.03633411448712676 
-0.00241923709618329 
-0.04664641484160625 
-0.0001065501143642168 
0.03846658401974842 
0.03397181941828138 
0.02241896836555547 
0.0102852204386918 
0.02083690296370821 
0.006331293953015791 
-0.01321475295707043 
0.05712695098402309 
-0.03600926838584123 
0.002022392414263636 
0.003766758052164954 
-0.0349316775253143 
0.0121507240559106 
0.0565779832078134 
-0.004971813737863755 
0.06866425241502792 
-0.0083847699887418 
-0.0005455658121359088 
-0.01541888878086651 
-0.02661899790180746 
-0.01631184787861984 
-0.03851672229826205 
-0.01517614782961363 
0.01577149950260959 
0.03773973521099308 
-0.008506703528342782 
0.03036982074559309 
-0.07600944307745497 
0.0008163197178214408 
0.05563319192394642 
0.04568257874363035 
0.05866323999884344 
0.005720446738536686 
0.01583873303796031 
-0.03857867855828412 
0.003893967979959973 
0.0005844227731186195 
0.02107408729406501 
-0.01806707998980893 
-0.0101932718358113 
-0.02170418070760639 
0.02896344151251756 
-0.009471298103592133 
0.002125300607421434 
-0.0106270627609755 
-0.006865644157172236 
-0.02560989708621768 
0.02588626447476289 
0.01633132155890612 
0.05841925950329196 
-0.08045542738715254 
0.01554618771297411 
-0.004421890969754216 
0.02188618452470918 
0.08750189800761134 
-0.007706897410781041 
-0.02690058442231017 
-0.02274040803170417 
-0.0004083451265815432 
-0.004960334083100017 
-0.03549938665789778 
-0.014216532126586 
0.05045752748301072 
-0.005797222399118739 
0.04420599339430095 
0.02715766288124451 
0.0194470060070657 
-0.01470553714872334 
0.004072413013205668 
-0.01342008151252853 
0.0537290733820698 
-0.0221822156641428 
-0.02599360206852337 
-0.0197781128942195 
0.05060694287635559 
0.002060909375798403 
0.001000558258847871 
-0.01597563890231924 
0.03222985021068299 
-0.04523698531053096 
-0.01299425261201661 
0.04644050837328705 
-0.0416868521192769 
-0.002734002850149806 
0.02233984137162156 
-0.03304497633982745 
-0.0429647719269274 
0.01865970622254869 
-0.004224731525947816 
0.07267855128286815 
-0.03683461755349561 
0.142957721722245 
